solver_type L2R_L2LOSS_SVC_DUAL
nr_class 2
label 1 -1
nr_feature 6847
bias -1
w
0.01807789430171589 
-2.68006518467181e-21 
-0.002776210171960867 
-0.0004322919450533698 
-6.183340514956392e-20 
0.003179747779690701 
0.01136159175229611 
-1.315548046204335e-20 
0.0110563561727539 
3.489378695993692e-20 
0.02067565887347916 
-0.009461485699849302 
0.07939061800965042 
-0.007346101258191916 
-0.003504246126589412 
0.003320542259156661 
-0.2289125101974195 
-0.002638792897235957 
0.005795834806228926 
0.001630023077346374 
-0.01148885130424204 
0.004935426818506668 
0.001678034525261217 
-0.0001651804468022024 
-0.007117170838806496 
-0.002699751692506205 
0.00412365522964139 
0.008348247753768086 
-0.00666546722059618 
0.0001504711388169119 
0.1282846901423803 
0.01510355236791762 
0.017972979497578 
0.00109523543673357 
0.01514369619641392 
0.002115370832383528 
0.06842151950193943 
0.002438606001900013 
0.03407608354172655 
0.0204005695572647 
0.0009573251130637212 
0.01176901700144203 
0.002250259969143514 
-0.005212251445576842 
0.02079269788836994 
-0.03369400595709276 
0.07498632135215798 
-0.0184820655610703 
0.01795616933367243 
0.006475437350376079 
-0.007373741286742942 
0.004480081941475125 
0.002314067091515548 
-0.0202670224146028 
0.002766193788316744 
-0.001717122616651766 
-1.408192274810274e-20 
0.0203074103750185 
0.06538727453663851 
0.000887225294973414 
-0.009401483794944338 
-9.026194844178638e-21 
-0.00483674447032738 
-0.004022889784896564 
0.002959774465835866 
0.001849141590863049 
0.06999766293351954 
0.002157776221994825 
0.01440920193875862 
-0.03741533683509721 
2.95071868109916e-20 
0.003877942123924122 
-0.003762525561525846 
1.641126335305207e-21 
-0.01190578750400554 
-0.007892268096855688 
-2.68006518467181e-21 
-2.68006518467181e-21 
0.02221048120947377 
0.01898525941181502 
-0.003854092547524039 
0.04523481773732747 
0.01076723166561754 
0.08177758617271313 
0.03242364851722527 
0.009701076263789384 
-0.0590125448452645 
0.008543553097116574 
0.01348600680344937 
-0.001209550578176578 
0.03647783106831456 
0.00710190922068842 
-2.622493414038119e-20 
0.03564886620249945 
0.0008747498463973095 
0.01084998856620795 
0.01364626665716353 
-1.624582723054146e-20 
0.01694265385151017 
0.1034930329611796 
-7.663001194691248e-21 
0.05445049598072286 
-0.01163129616136285 
0.07245178726746561 
0.008989663078138609 
0.02272408944455492 
0.03219316621806172 
0.02568639048072892 
-0.001285281282659914 
0.02101818405137729 
0.008904629478051356 
0.02101938436884366 
0.05208219343166031 
0.07126199993763634 
-9.796859084748618e-05 
0.01562703525880378 
0.02628177521547909 
-0.02654632145347756 
-0.04357867843711748 
-0.001230134798832725 
0.006694575764657909 
0.003114041321736045 
0.01254702392862908 
0.01351995517660686 
0.003585035272774166 
-0.008066239906053518 
0.0158145300270953 
-0.0005288424055066551 
0.03743748289209077 
0.0009567274411915995 
-0.003174617252179812 
-0.01726414689708165 
4.90855592933867e-19 
0.01457331439356268 
0.004996647720393518 
0.01065107952982993 
0.07085008402986032 
6.617444900424221e-20 
3.63800650845722e-19 
4.90855592933867e-19 
-0.01669776649270987 
0.004653767233311069 
-0.04323154841083021 
-0.01036101870725774 
0.0384758993137882 
1.160168785581149e-18 
-3.599890025830776e-21 
0.005231927190414166 
-7.878372090803301e-05 
-0.001124291087020374 
0.007093551258044901 
0.02670922111976281 
0 
-0.01040346831453447 
-0.005555948726564402 
0 
7.93801194940486e-05 
0 
-0.01606697344450016 
-0.007522982885198723 
-1.402898318889935e-21 
-0.01948583072988262 
0.0006055610026145437 
-8.154827753296205e-05 
0.00357959658463561 
-0.00132886733196052 
-0.01602556582675012 
0.009814146218838813 
0.01260607110592388 
0.002734070893242729 
-0.00414245578090083 
-0.01118641331458659 
-0.004608816254929184 
0 
-0.004352443652295932 
0.003713297565427787 
-0.01681727436541236 
0.00807616425513386 
0.003086147357621978 
-0.008578602710915246 
0.009405632461384065 
-0.005413530118109192 
0.02281039890257545 
-0.02051252467278405 
0.00456056314816398 
0.06053038512434485 
0.02372090418401623 
0 
-0.001936316586801447 
0 
0.00929357347977338 
0.02241399252507983 
0.01832858892190472 
0.01757437508465814 
-0.02455446145728666 
-0.007979391978384636 
0.001282289317842682 
0.001145374110399093 
0.005569745066324293 
-0.007942627076127912 
0.0090481318993811 
0.01920546537898826 
-0.01284756251060811 
0.001996923965414847 
-3.58996385848014e-21 
-0.005446288110660518 
0.07069891384749576 
0.03233367279435808 
0.002232086582880123 
0.006155555349690795 
0.00248327820045315 
0.01716653433167802 
0.03809953301555892 
0.01611972510300384 
-0.008011596388471537 
0.002767089541634519 
0.0004398631792774378 
-0.01873205805924627 
0.02138349202319077 
-0.01569414789528232 
-0.0001353432475649632 
-0.00821601315705976 
-0.004283739509382744 
-0.0003177566069016264 
0.007637938214281062 
-0.02028349707123307 
0.009528647290398642 
-0.002468294239148991 
3.520480687025686e-21 
0.001843912275166569 
-0.04424616140316721 
-0.007616122459815096 
-5.706884482125849e-20 
0.0006624341467181108 
-0.1471806704244496 
0.03458293614255367 
0.02191515527578592 
0.02790115729288609 
0.009881104671918044 
-0.01478362477878503 
0.003177428372949178 
0 
0.003522837561961135 
0.02993964842840859 
-0.03249777940597075 
-2.408749943754417e-21 
-0.02227358726792805 
0.009820335158472006 
-0.009399614418469988 
-0.08400314778982761 
0.01490814993596224 
0.0009039631148763911 
0.007869076140643371 
-0.001729834507881157 
-0.004283644051856363 
0 
-0.02933637607689385 
-0.08107092274638444 
-0.01803779498056456 
0.02426767800330293 
0 
0.001621407967711469 
-0.004687515163674446 
-0.003955187589052398 
0.0138428882352659 
-0.010883046989108 
4.576624893133392e-20 
0 
0.002909760739318724 
0.002344392183829684 
0 
-0.01411832043943807 
-0.01020770337746633 
-0.0185737849132396 
0.07613992454716541 
0 
-0.09042031508171593 
0.0001991966564880361 
-0.05919021003520657 
-0.01461118431820871 
0.00374463858001471 
0 
-0.000280481022811071 
-0.0003748263562439813 
9.394866148460052e-05 
-0.03218034981783555 
0 
-0.0003092026562900118 
-0.01606542512042007 
-0.09019099939044985 
-0.009174476460046013 
0.00650081770721591 
-0.004250242788736385 
-0.001524032524382314 
-0.0139556069580453 
-0.08533739231188245 
-0.001776755152874949 
-0.01839242147201524 
-0.01299087253224763 
0 
-0.00218006963489893 
0.001341040386247972 
0.002510491299288111 
0 
-0.02765579250800108 
0.0007766768483155532 
-0.01695212274970697 
-0.0008298647046175672 
-0.001438852719140434 
0.00247280449793308 
-0.00486559371636809 
-0.01370760083395126 
0.0003181420022883122 
0 
0.01204304723158646 
-0.006878153071415884 
0 
0.01077425957150338 
0.01377701005832248 
0.02721205908536381 
0.004851413138028345 
-0.01936277852696727 
0.03195900159975272 
0.01524857659885886 
0.001455147043360336 
0.1006475811752558 
0 
-0.00303681598692538 
-0.03743784372087903 
0.005242442783876046 
0.0119457023128182 
0.0004283625819551144 
-0.0001243276494959328 
0.001586675084524472 
0 
0.02217849581973401 
-0.001265882801449362 
0 
0.04479079258351739 
0 
0.003291730886248352 
0 
0.001597003363855445 
1.974645558286588e-20 
0.03892004730774814 
-0.01153675080546352 
0.01333944824119619 
0.02021196130738121 
0.03297929934347096 
0.02527214562407041 
0.0009882906803870331 
0.0009882906803870331 
-0.03307491194583518 
0.0004295819226210236 
0.001062076661144807 
-0.01417073873361756 
-0.0002382324529549531 
-0.005735789016687658 
0.00427480465165081 
-0.0005675030168524175 
-0.01508924733114985 
0.01416578046681687 
-0.01608601157839217 
0.001188214628393098 
0.007604323131075913 
-0.04868747876972844 
0.003706393590100275 
-0.003558118276082221 
0.004449427342463882 
-0.004035463104503659 
0.0100344921272969 
-0.04051736064686327 
0.01377582074849246 
0.003345649291013946 
-0.008045806468163471 
0.002143289332078531 
-0.02549214202336328 
-0.0190443640898172 
-0.005101946399120044 
3.081234162083702e-05 
-0.01443335164144797 
0.0001954253366985289 
0.002527833516895345 
-0.004137142323382848 
0.008977959151035914 
0.03338927994181267 
-0.02018763532367394 
0.014555165632133 
0.006258834247462423 
-0.005829377116980646 
0.0002915513857758633 
0.01158232556737504 
-0.003829149939325378 
0.006962731073386129 
-0.01379839968835703 
0.008586458850660006 
0.01085143003216071 
-0.002287773318421186 
-0.008291529011897766 
0.02995897500048377 
0.02395903492658761 
0.008471075509715631 
0.01430925625430878 
0.008301329073668894 
0.06689804396192572 
0.001120389575353406 
-0.01381295118246218 
0.01805707489065808 
0.009845919208482799 
0.005677851048427773 
-0.01055801207110381 
0.02018103119484221 
-0.01842260484870702 
-0.01690894124461882 
0.009173921296960366 
-0.03516612605673512 
0.003700481881914915 
-5.422996095897649e-20 
0.004347140209389674 
-0.0110809106109623 
-0.003453987120756548 
-0.03828024574387288 
-0.003518041508895065 
-0.003390734417644634 
-1.204904367469242e-19 
6.135033167183296e-20 
-0.01030083877413004 
-3.870499055908234e-05 
-0.02570410766431191 
0.002051533513015793 
-1.38066370402451e-19 
0.005317145707713301 
0.03150943894177251 
0.01658497722254543 
0.00926521455279097 
6.077461396549605e-20 
0.014555165632133 
0.001187574895558245 
8.567523194517984e-20 
0.01121356354495884 
-0.04792257716620738 
-0.003480983164710441 
0.01473099554574592 
0.008445893567183687 
0.002799790501429415 
0.001429588177742336 
0.02580093771778872 
0.0003279076106888602 
-0.005817087275071731 
-0.01513561305395573 
0.007550935840721644 
-0.01602238945287518 
-0.009497650361091535 
0.000557513009301559 
0.03892877819213403 
0.01514373327097274 
0.01033675527787413 
0.001805442469030415 
-0.0005654636513663672 
8.310125267406796e-20 
-0.02647251693650509 
8.310125267406796e-20 
8.310125267406796e-20 
0.02629665594420665 
-0.009502749435033337 
9.01815051272156e-20 
-0.000556901060565114 
0.00234162070203911 
0.0001148043154823305 
0.007950966220449883 
0.008019826492791773 
8.310125267406796e-20 
-0.005684921017753288 
-0.009999422057641334 
0.009087621443134941 
-2.27449853033706e-20 
0.004774236390859883 
-0.003697722488154325 
0.01613676260720373 
0.01369619117738083 
-0.001915461559009482 
8.310125267406796e-20 
0.002181112348021726 
1.632999285786873e-20 
-0.001045625622681662 
0.04524766708235685 
0.00396643035595655 
8.310125267406796e-20 
0.003271588783192609 
-0.0163862655605211 
0.001017344675493128 
0.0264766013511691 
1.632999285786873e-20 
0 
-0.004367432891369995 
0.005103641693374729 
0.005074200375216803 
-0.009768482336954548 
0 
-0.002827318256826478 
0.02628398171892402 
2.726387298974779e-21 
0.007764208047639717 
0.02410243379511842 
0.00988897934811407 
0.0006730251220758113 
-0.03943062086712686 
0.04316026155190493 
0.01507430757588639 
-3.988995785975721e-20 
-0.005915539688417027 
0.001579043865345751 
0.001552450954169414 
0 
-0.006811145564877073 
0.004077371161536876 
0.03297623071133644 
-9.761124138916689e-20 
0 
0.02329281448596813 
-0.003397147144596215 
0.00122696936579714 
4.534273245770677e-20 
-0.001320428327070441 
0.01400274223331041 
0.009696120853720963 
0.01124850312975873 
-0.0008947417299051116 
0.01489173152366226 
0 
-0.001332686212773632 
-0.009319065806690291 
0.01323337441380056 
-0.003280165343957142 
0.01187189942381367 
0.0005420580663984941 
0.001004513676017481 
0.009591004188808136 
-0.002401136465977977 
-0.002301941332248884 
-0.007847251868836563 
0.001710918230691709 
-0.02116354229659379 
-0.02710179027330572 
-0.00422237381014276 
0.012765740382883 
-0.04373814525198583 
0.04015609448655564 
0.03211670825797221 
0.0008908165690426961 
-0.01378151211781463 
-0.002296404568900218 
-0.001256422999153152 
-0.002112854001677199 
-0.001226022658517805 
0 
-0.001208689288596393 
0.01213031206942118 
-0.08828302736255131 
0.01241855118913667 
0.0050225683800956 
0.004659929138268321 
-0.001332428348727282 
-0.0001404348401187473 
-0.001099535410558847 
0.006084116775078377 
-0.0007990821341120095 
-0.02274408255350416 
-1.759710947920809e-19 
-0.003284879259612366 
-0.004247022621984398 
0.009394349855592924 
-3.830673416733071e-21 
-0.01791720165121315 
-2.704152684109354e-19 
0.00156658166272677 
0.003731437846660443 
0.004848536429353296 
0 
0.01311574609813766 
-0.001654465248656581 
-0.01679763800243875 
-0.05354798807143831 
-0.005457788816009099 
-2.456607305274285e-18 
0.006370580297845319 
-8.24798332388875e-20 
0.001201658421326287 
0.02491632604579713 
-0.003770530599693504 
0.01421080258705044 
0.0006373734633098951 
0 
0.0427799752957207 
0.02932982321108136 
-0.002856729480650804 
0.0004821219473331948 
0.008471961567390439 
0.007684745309574794 
-0.000206198668539315 
0.008955943719718678 
0 
-0.005950205260005186 
-0.01660318037274125 
-0.001456482995451159 
0.003446476152557664 
-1.536570705878504e-19 
-0.02497098212575285 
0.008635076234746693 
-0.00925258854489415 
0.003975331813616135 
0.007128074123679998 
-0.0181333147309669 
0.004243222777065055 
-0.01915008642297507 
-0.01145316702375117 
0.01211316015604637 
-0.0007649290490942921 
0.001512745203779716 
0.001727056134631722 
-0.0004367114435465842 
-0.003596693344204272 
0 
0.0001850459605093794 
-0.1577753943248764 
2.832266417381567e-21 
-0.002370282122423343 
0.002037199024056711 
-0.01838265745447966 
-0.004472165160936487 
-0.01469379828818387 
-0.007155602017182889 
0 
-0.00833137372779914 
0.006460225689707338 
0.003020746436029645 
0.004663786592218461 
-1.075731843012961e-19 
0.03038146292854814 
0.01069406330817187 
0.03296303707175762 
-0.01592345216485865 
-0.0109296469539248 
0.001140072625485577 
-0.03371858090232376 
0 
-0.0007296682863417102 
0.007170297091159505 
0.0002905608583729801 
0.003694277390688038 
0 
0.003663303314736017 
-0.002626867670321869 
-0.001118661168909883 
1.297019200483147e-21 
0.006065561295643751 
-0.002247838416539731 
0.005660566635062305 
-0.00259500450276145 
0.001826097034236419 
0.0001041720395181516 
0.0118835548217294 
-0.006442891552393091 
1.297019200483147e-21 
0 
0.007909526197558314 
-0.008831561734606461 
-0.02323170524497187 
0.01138174840848545 
-0.008671050361841738 
0 
0.006336848477989723 
-0.001455097187050719 
-0.0006972060117288328 
0 
0 
0.003433211837723024 
-0.002512910853321935 
0.004934874094199894 
0 
0.006213210196586027 
0.002485971948369834 
-0.0001135519358329962 
-4.604418161715173e-20 
0.01157831841391684 
1.359223182547135e-20 
-0.02518026630428868 
0.0005282900961659188 
0.005550120149538543 
1.563834578868252e-19 
0.003814406071476469 
0.0166208196639278 
-0.0003334194965972314 
0.01001360681465491 
0 
-0.008839915381755565 
0 
0.01716319881587566 
0.04333090739334555 
0.009970148192332034 
0.006615907385165473 
0.0008243080250233128 
-0.0002692981060682846 
0.0004082736107142571 
-4.764560328305439e-22 
-1.895236219481497e-20 
0.0009496328578057101 
0.0006726880780057933 
-4.089561190221693e-05 
-0.00744493946161294 
-0.001172777719927954 
0.02455667737808266 
0.004223434226884366 
1.306548321139758e-19 
0.000617398522078874 
0.009298239587540032 
0.0004414664315464721 
0.008370895135351343 
0.01092428099675445 
-0.0001306140906043322 
-0.002159702145884104 
-1.960881272893705e-19 
0.004880978516500473 
-0.02441609873555584 
0.001081972171394485 
0.005241344211305982 
-0.01285053167260275 
0 
-0.005092786390824357 
0.01231595390873737 
-0.009238031318596863 
0.01359584885608825 
0.003209519947613493 
-0.0110581420051224 
-0.005553273432960852 
0.003903825573951126 
-0.00147227577459373 
0.004002544091133068 
-0.01103406698619282 
0.01721026549380892 
-0.00218598409882542 
-0.00659645212498103 
-0.00218598409882542 
-0.003434318964181149 
-0.03358700190545785 
-0.001394151444544037 
-0.02044596046518702 
-0.005126296116262497 
0.01074411523343034 
-0.00173324985305388 
0.005336582292366145 
-0.001107541251323994 
-0.1834420974273041 
-0.07101244179745599 
-0.002853428886980763 
0.01536258554488799 
0.003781273850467521 
0.01035980142784875 
0.005669363157640312 
0.004197124081953412 
0.00547117057546438 
0.005058596076897248 
-0.06483006414474175 
0.002650838186638029 
-0.02534050077609011 
0.01279319966728787 
0.0006985393581089712 
0.005230571722362982 
0.005669363157640312 
0.01016937243042263 
0.001136670140432301 
0 
-9.237953080992213e-21 
-0.008571659584063819 
-1.108643033140974e-20 
-0.003472589759557968 
0.005945646352046333 
-0.02733411997916917 
2.119319447422112e-20 
0 
-2.861920842341593e-20 
-0.01454378315093436 
0 
0.001261284563433548 
-0.001369201663530393 
0.0009405664712548382 
0.03202902632521942 
0.0010207854018982 
0.01603649520692272 
0.0004107962974458167 
0 
0.0004508643640586841 
0.0006626172415102069 
0.01079325824073319 
-2.331458187317462e-19 
0.01692938169085786 
0.001603121592592333 
-1.291725244562808e-20 
0.001142522594891015 
3.044024654195142e-21 
0 
4.105462816223187e-20 
0.0316172359454284 
0.010332353236137 
0.0005953660546429052 
0.01150644537441361 
0 
0 
0.002208812674040786 
-0.002895441361263552 
-0.01586059781217103 
-0.02252001211694246 
0 
-0.00469300469275482 
0.004977366910152935 
-7.337422905590377e-20 
0 
-7.737116577576e-20 
0.03145881686356041 
-0.002632442123411111 
0.01781074641386402 
9.809139083873585e-05 
-1.725829630030637e-19 
0.05644522329774065 
-0.000533098518245413 
0.0002218605888167187 
0 
0 
0 
0.004250548024573799 
-0.001196387340231033 
0.003390446410772137 
-0.01469429781229607 
-0.006864673019192157 
-0.01716711549020403 
-0.001002101220845132 
-0.004505811493246268 
-0.007992500136406715 
-0.005882131193634762 
-0.001031376312542267 
0.005140571106250727 
-1.595140701860232e-05 
0.003014005638363557 
0.01502420363359331 
0.02235423350073825 
-0.007643776951091789 
-0.001108379075253198 
0.01573463701190295 
-0.04565083801740821 
0.02465660680311746 
0.009685404029427426 
-0.05658795709325774 
0.0033729924396742 
-0.01494131241007457 
-0.001082533105579851 
6.941622345836592e-06 
0.01570050486853251 
-0.00926389274923366 
-0.02919537746955229 
-0.0136232127084232 
-0.006081305837467747 
-0.008745091910583314 
-0.02275360157363717 
-0.0128302121298782 
0.01580009044680571 
-0.0008514906615020057 
-0.009493526814986856 
-0.009493526814986856 
0.01827780340537328 
-0.01956708989598586 
0.009002252016346843 
-0.002935267987208818 
-0.0001160450891118712 
-0.01002454983049704 
-0.01920177571057978 
-0.001919728005928761 
-0.01353859170526775 
0.004224225285707356 
-0.008460550165789034 
-0.002990824622898691 
-0.006712658254610615 
0.01655985742048167 
-0.02023100131294175 
-0.02410246362267568 
-0.001009792684447292 
-0.02979746926287079 
-0.003931115669049457 
0.005803404092765916 
0.0136336070829432 
0.02184649512210667 
0.01014423526531882 
0.009886249401144678 
0.02589848171867552 
0.003567698413190315 
0.003071648137544183 
0.002918645769085852 
0.008471533301014154 
-0.003961894106506839 
0.001921103057984696 
0.003176723716466025 
0.01369450363175104 
0.002743691046654375 
0.003395087428199333 
0.004056770186221586 
0.003184258635435816 
0.003034673226429706 
0.006424582591455995 
0.006073483325364737 
-0.02492976534695961 
-0.02518636101688418 
0 
0.0001330453512076646 
0.02737975217009983 
0.001179420427180052 
0.01282157489677011 
0.02770128771932324 
-0.01659959006066186 
3.642241673193491e-20 
0.009836326943254769 
0.01551572331875815 
-5.672473768643643e-20 
-1.075731843012961e-19 
0.0002738641982972121 
0 
0.02700664870346203 
-0.007476922174012769 
0.001981917792122808 
-0.000309602455513808 
0.005006335702405626 
0 
4.854557578951209e-20 
0 
0.006436675396784103 
0.01985613523850226 
0 
0.0006766139170269079 
-0.01104070286740445 
0.007056098474867311 
0.008417499352733181 
0.003727528985677274 
-0.0005511539918562278 
0 
0 
0.003128150157441775 
0.0008981545858691038 
0.01158009032458499 
-0.007942546461148127 
0 
0.005594459687199509 
-0.0001887860898880342 
0.0001104140730005332 
0.008476460621630525 
-0.007806202479415368 
0 
0.0005382290796311031 
0 
-0.007064908152948561 
0.01054170417352797 
0.002217709255974031 
0 
0.002742710441836322 
0 
-3.388131789017201e-21 
0.004826874499280795 
0.0001267087211148017 
0.01215751242356048 
0.00068755367709268 
2.665506805890876e-20 
0.02576425634975338 
-0.006040308776293757 
0.001088588069741269 
0 
-0.0008773327782986553 
0.0008154845115263744 
0 
0.001222551235007928 
0 
0.0009653748998543793 
-0.03375898746900362 
0.01226704187098006 
-0.03874268131393792 
0.02427817396546365 
-9.698527246061739e-20 
-0.001531514034762188 
0.002537416001321588 
-0.002571859930544938 
0.004657352862505302 
-0.005555293139011576 
0 
0.001125026691164834 
0 
-3.970466940254533e-21 
0.00979549925682747 
-0.005833873253964301 
-0.004534819820708311 
0.01014660809805545 
7.616679080388279e-21 
0.001912860342203574 
0 
-0.001114402235566934 
0.004937311395390663 
0.0003385662010137894 
0 
0.003955416722293229 
-0.002688079594320793 
0.012640746809949 
0 
2.469630436838319e-20 
0.00355297391965958 
-0.001918918138958108 
0 
-0.00203900426636789 
4.646972468327964e-19 
-0.01635163333250189 
0 
0 
-0.002844921303978602 
0.01276019285719776 
0.01628595124572911 
0.002065010669867562 
-0.0001643632798355809 
-0.009346579542952765 
-0.0009982507819340707 
-2.649459502007348e-21 
0.01809214649089818 
-0.006702321351040994 
0.006451554335133795 
0.004368353705193847 
-0.0007187524411782022 
-0.02039015887184982 
-0.01729544298290831 
-0.004346818890867285 
0.002318187839686969 
0 
0.001597803801859074 
-0.004264542124839618 
-0.01115168016454077 
0.00738630542300094 
-0.01281478633372843 
0 
0.01823923748444087 
0 
0.00243524788770141 
-0.02592902099127677 
0.001775647263269214 
0 
0.002474991594209439 
-0.04778066440159823 
0.0003346197512289852 
0.001971849406600828 
0.0001451116777250897 
8.247277880801354e-05 
0.01200037431104312 
-0.05986445902392544 
-0.000186514784142353 
0.001213752248955637 
-0.01975718323761927 
-0.003339596918757916 
-0.002037529890706318 
0 
0.0001240521660626305 
-0.1878262398371197 
-0.01647519528629902 
-0.005892224311815562 
0.0004521432247858242 
-0.006252126426736409 
0 
0 
0 
-0.001155916413829663 
6.088049308390284e-21 
0.0007206546122830017 
0 
0.0004359648087151795 
-0.02618739931392759 
0.004332830018423032 
0.002426483749527236 
-0.01847549781996488 
-0.002089027379398106 
8.365648930462565e-05 
-3.965172984334193e-20 
0 
1.253608761936365e-19 
0.002083273439122692 
-0.0005462454799573533 
-0.001228953482847787 
0.008687410746992577 
0.0007789357540115126 
3.990622489054874e-05 
0.01475446640956171 
0.0009193867414710547 
-0.01440973778933334 
-0.007305365498993905 
0 
0.004795384957426359 
0 
-0.003627623392007808 
-0.0002872882489548865 
0.01096519432758644 
0.001485726190641832 
0.001687603501818177 
0 
0 
0.002032252954515651 
-0.02541398409042754 
-0.01164823730518662 
0.000571858386244011 
0.0001628033976090818 
-0.000186514784142353 
0.01545210162500068 
-0.01731258249034553 
-0.004319157877332331 
0.01710988032435568 
-1.633185401424698e-20 
-0.006532404756626329 
-0.001935090567305472 
-0.01204701382589476 
0.001315702569773875 
-0.003949947904422252 
-0.003349923975384089 
0.0007691683812913008 
0.009391488807592855 
0.0001051553162585655 
0.000109502330429247 
0.001137383893246322 
-0.02429127680931936 
0.01079829414175844 
-0.01113551316506469 
-0.001375541156654739 
-8.978549240895584e-20 
2.991085094991748e-20 
0.004605101432461491 
0.004671775249334952 
0.002872796366253281 
0.01112136736144289 
0.0005979083563675905 
-0.00683889368827497 
0.004227604197579883 
-0.01101706645007757 
-0.0002665335927909567 
0.004191944727869462 
-0.001792914067053292 
0 
-0.005187432849286436 
0.008405331144170641 
0.01698900946240437 
-0.02395148843463797 
-0.001162198261951528 
-0.006585596902950017 
-1.068955579434927e-18 
-1.068955579434927e-18 
-0.01338178832837168 
-0.005303050811394584 
-0.000379255664928098 
0.004154501240121834 
-0.001417736200422707 
-0.006738370409850232 
0 
-0.008144761080666229 
0.0007042023340191506 
0 
0.008294622516710714 
0.002638146430817865 
0.002369979021332697 
0 
-0.001135966472839115 
0.01055427469984604 
-0.01541308112745389 
0.01664241123898487 
0.01229104146728998 
0.008642072970001712 
0.002446492256172082 
0.003144423648290268 
0 
0 
0 
0 
0.03562319767052465 
0.01215672607165598 
0 
0.004917057130442765 
0.02236310506444476 
0.002921288463450647 
0.01166229025012185 
-0.004558998985985307 
0.001582126146269518 
-0.00431994331737665 
-0.0007100341278525619 
0.006640238208342749 
0.03402935341588512 
0 
-2.064642808932357e-20 
-7.186316313686959e-05 
0.009488198305028873 
0.0004730774518781291 
-6.404383835856966e-05 
-0.001105655636198353 
-0.007432029593025851 
0.001212831375001861 
0.007993592773682355 
-0.001687859588612116 
-0.008604091257495925 
0.00513436663236477 
0 
0.0197735956371341 
0.01341187007862037 
-0.0164903623641031 
0.005867421480773747 
0 
0 
0.001287273888599071 
0 
0 
0.01377000002956322 
0 
0 
0 
-4.201674697400808e-05 
0 
0 
0 
0.008342867989922535 
0.03008449198982205 
0 
0.01877862325905234 
0 
0 
-0.004377097838303563 
0.0007405171690260131 
0 
-0.004387788379890506 
0.004657564517805285 
0.004413940573383274 
-0.01644118557631529 
-4.095346847419816e-05 
-0.01004545803316283 
0.005966708813483925 
0 
0 
0.04020750205966357 
0.03287370520064468 
-0.04885096305257875 
0.03478485221420138 
-0.002370754741611322 
0 
-0.004001985417183934 
-0.01067991992139617 
0.002454778354321182 
0 
0 
-0.00734823065305418 
-0.01027046018100671 
0.01668776950843882 
0.01273835027804337 
-0.01027046018100671 
-0.0003417064979457381 
0 
-0.01945792325437183 
0.01514170462432402 
0.01225654429460183 
-0.01954598495148737 
-0.01104435893767108 
-0.06897690674096697 
0 
0.006200238098946723 
0 
0.003641573010039189 
-0.0009385936007103346 
0.003975461174222529 
0.001637785899151934 
0.04153205885642606 
0.002236124382435104 
0.004599272996964991 
-0.005279099771472701 
0.003652759627086358 
0.004626500895136792 
0.0003262212573037518 
9.660383115402979e-05 
-0.01354499077620499 
-0.007053495311491102 
0.0001123910228035675 
0.003749170623607895 
-1.998468359928115e-20 
0.02013874916752629 
0.0004794685011732383 
0.01754396410179142 
0.006069603455970018 
0.0001087404191010504 
0 
0.01280174165820977 
0.0002831732792057722 
0.0030429488795391 
0 
0.0002174808382025012 
0 
0.0001006218375638429 
0.01454007185499521 
0.0001123910228035675 
0.004223818173221263 
0.0001168590006384579 
0.01346553345279057 
0.0003262212573037535 
-0.02390079044331906 
-0.0002218265223497925 
0.0003695060205583387 
0.001123910228035674 
0.04524730547309542 
0.007103443842521214 
-0.002023865531635293 
7.033467117701641e-19 
-0.0170057453183488 
-5.889525961377557e-22 
0 
0.006837325035114428 
-0.004410658317910966 
0 
-0.001869408134088636 
0 
-0.0006031867678096706 
0.000387925415316177 
0.002002693506490216 
0.002141686518974479 
0.002012602210907934 
-0.005994740010236462 
-0.002363063618650636 
0.005172863882655711 
-0.002363063618650636 
-0.005352235914548666 
0.002708335875252136 
0.01114614430942358 
0.008196790797080342 
-0.003459927650472145 
-0.006969898587551707 
-0.01261541029317452 
-0.008034628279072843 
0.00834010492381203 
-0.01330161209787475 
0.005151926858701814 
-0.00552578911848394 
-0.001492952968175799 
-0.04269857057283697 
0.01024066467877471 
0.003139804051096897 
-0.001646832834814569 
-0.002363063618650636 
-0.0008162761597702604 
-0.009409336029923873 
-0.002165950201375978 
0.008809943677887275 
-0.001693729259270838 
0.002893676783535209 
4.817003579141301e-20 
0.001171554401329999 
0.004473592664304285 
-0.003675575274462602 
1.468278674506126e-19 
1.188410386054935e-20 
-0.001055313271750619 
-3.002872418720629e-19 
-0.007629476254379537 
-0.0002612838060219653 
-0.002008138905354616 
-0.01155082371793317 
0.0007708064028834482 
-1.228183297858016e-19 
-0.002262937463632508 
0.004442035109959887 
-0.0248012151399185 
-0.001773809971239522 
0.02738649947590097 
0.004074342127904222 
-0.0006273333147379419 
0.007345456341629608 
-0.01086978722137485 
-0.006961081561806145 
-0.02974672265211989 
-0.007572976204218925 
5.399835038746165e-21 
1.691418916548431e-20 
-0.001479782836466765 
-9.984400865760065e-20 
-5.918642718939424e-20 
-0.002811087862557125 
0.004722796470585706 
-3.684593320556206e-20 
0.0005529459611672193 
0.002338593069950641 
0.0008195546275132808 
0.0151551228075532 
0.0005872737883569797 
-1.996880173152013e-19 
-0.002084357869300826 
-1.069379095908554e-19 
-0.05751125644671787 
2.784620814098512e-20 
4.346337810598629e-20 
-0.04507382811902298 
-0.000833187170637588 
-0.001360580770676509 
0.01494130576291626 
0.00146527913939917 
-0.008158341919170578 
0.006787344783140507 
-8.258571235729428e-21 
0.01004762683342778 
0.001364553331208338 
-0.003759179446364268 
-0.0001442742889012662 
0.002254434411216611 
0.04772833975213866 
0.0004635434693293985 
0.001028056938554 
0.0001296784969976931 
-1.810532924756067e-20 
0.0004796651673977188 
-0.001335164764927311 
-3.156190345257332e-20 
8.39009295312536e-21 
-0.02668987549464709 
0 
0 
-0.007704444474042609 
-0.009430181720060068 
0 
-0.002370297612836551 
0.009204731409228666 
0.008441920569685893 
0 
0.0001271714283897183 
0.01078210642375592 
-0.05037864419009022 
0.008690452025936869 
0.003417643937989975 
0.0003563183338817067 
0.00761767550334548 
-6.507932433913067e-05 
0.004483599940784685 
5.709002064493984e-19 
-0.01564953300382579 
-0.0005401742671728819 
0.04390509818194289 
0.01113430313386066 
-0.01712104890986985 
0.009548358843219125 
0 
0.006097396653473226 
0.00705760803493254 
0.0004247408225968676 
-7.192335426148576e-21 
-0.005146855272261233 
-0.001092794859513213 
-0.00223168267219283 
0.007182375058151363 
-0.002345780075921999 
0 
0.0005109996708039667 
-0.0003367043589182422 
-0.001707515493282862 
-0.003180553132084736 
0 
7.381317761783386e-20 
-0.00173821187547329 
0.02047512841415858 
0.002229291627487411 
9.846758011831241e-21 
0.002646044416617213 
-0.01093995944947919 
-0.003639883784043946 
-0.018809685082164 
0.002252703241981155 
0.005627412874199278 
-0.002863091297166229 
0.01833204885394913 
-0.000186514784142353 
0.01332904637752373 
-0.0005823228607099222 
0 
0 
0 
-0.00696357937263737 
0 
0.009327701249602898 
-0.000653727323863506 
-0.00049541315956531 
-0.005237905021267783 
0.012956579337055 
0.00304124609111743 
-1.678184026747583e-20 
-0.009909821620243134 
0 
0.00685966238798566 
0.01439741223172367 
0.0007789357540115124 
0.001531662054895422 
0 
0.007146512574986712 
0.016737472481692 
-6.219480035918834e-19 
0.008740772133894752 
-0.005168303277481519 
0.002886667800938506 
0.0005522031685096741 
0.001390746276306329 
0.004744440299568793 
0 
0.00988897934811407 
-0.0008980939435461144 
-0.0007679068390420489 
0.0005683350702151051 
0.01161702090951108 
0 
0.01366523017548853 
-1.550798212414416e-20 
-0.01271332434532482 
6.703863811029849e-05 
3.256841682192785e-19 
-0.05259478348972036 
1.034306637936306e-20 
-0.002172244514960612 
0.001291696066317651 
4.821735052245105e-19 
-0.01630459526356428 
1.628420841096392e-19 
0.03388191003152047 
-1.270549420881451e-19 
-0.0009414522989490055 
4.404571325722362e-20 
0 
-7.948998891481458e-21 
0.005842249597930144 
-0.005979235203577015 
-5.977684241123035e-05 
0.01058885569028046 
-0.005662898432586728 
-0.006618126761315295 
-0.001364518157508069 
-0.01208152170837935 
-0.01069178081273024 
0.0005878837810512583 
-0.001904302572666602 
0 
-0.003120243060571721 
-0.003851213621387128 
-0.02354511689122166 
0.001304748168472047 
-0.006580101729734735 
0 
-0.001389832304090307 
1.307607112323826e-20 
4.102815838263017e-20 
3.435777392300256e-20 
-0.008256667761025887 
0.0005979083563675906 
0 
-0.0008851138943225212 
0.0001296784969976931 
0.01001227875824181 
0 
4.404571325722362e-20 
0.002894503281757246 
-0.0002147750113405119 
-0.0004087126892132024 
0 
-0.001434658094476344 
1.80418017765166e-19 
0 
0.0006408244834852404 
-0.002736208479169678 
4.986641779163676e-19 
-0.004625670042593798 
-0.01930077585800679 
0.0001051553162585656 
-0.002118710379110103 
3.960011377311863e-19 
0.001107461795716202 
0.001091341331815721 
0 
0.004446044361031801 
0.001348519329974428 
-1.810532924756067e-20 
-0.0008893448976086343 
0.003792762294326616 
0.0005903572268073472 
0.04700370599779403 
-0.004253034468023077 
-0.009186771618655691 
-0.001774280771663931 
0.001912860342203573 
9.39728874648524e-21 
0 
0.002877282742135208 
0 
-0.009372741151764698 
0.006087772008716447 
0.0002224768174035245 
-0.000572232915698417 
0 
0.002366068068252372 
-0.001367707875799842 
0 
-0.0008893448976086336 
3.520480687025686e-21 
0.001393872177664088 
0.0009342657672016208 
0.01192199632855925 
0.0006107670807430577 
0.001882349264259697 
-8.154827753296197e-05 
-0.002605231670340527 
-0.0002604928765114886 
-0.03693683057492566 
0.01341978741217487 
-0.0002746328323642581 
-0.004843372919206522 
0.01520820296962576 
0 
0.001810785934259309 
-0.0002657469804456023 
-0.01128414088026931 
0.0008118704595626292 
0.004557901498937568 
0 
-0.0004901043700219443 
-0.008164960352259625 
0.0002002147985253357 
0 
5.399835038746165e-21 
-0.000267869032955291 
0.001479674509402235 
-3.536362554786704e-20 
0 
0.001112972405768049 
-0.002165648925539771 
0 
0 
-0.001749649510755711 
9.926167350636332e-23 
0 
0 
0.00311070448912569 
-0.004249072787787626 
0.00535917255717434 
0.01178916887358822 
0 
0 
0 
-0.00708501701137779 
0.001508248805187523 
-0.01948474524505752 
0 
9.26442286059391e-22 
-0.0005225984509258117 
-0.005345068064521736 
0.001441175296487884 
-0.0008102614007590396 
-4.560163998943586e-20 
-0.007766256145988821 
0.005695903084440563 
-0.001454049426316435 
-0.004622164165117329 
0.003196227553278187 
-0.001274322580503154 
-0.01263475741369922 
0.001017043615421503 
0.002247508665085236 
7.535284508113061e-19 
0 
-0.01125126086196957 
0.0006067087951136694 
-0.005489395665804935 
-0.0230297179900152 
0 
0.003203215307078439 
-0.002417464146448097 
-0.00301718988257115 
-0.003298168157716979 
0.01467008599849502 
-0.002995772465643783 
0 
0.0004200365894622897 
0 
0 
-0.003118482158686773 
-0.009732240816139173 
0.006088652419831483 
-0.0009893774357026184 
0.001694505201543176 
0 
-0.003214219604201614 
-0.00225599677217493 
3.816942218564691e-20 
-0.0044140186079983 
-0.00993804897017374 
0 
-0.001193415727907701 
-0.00439189424549681 
-0.0001459930307864026 
0.0005237970986527189 
0 
0 
0.0004699385292059508 
-0.001979858221835547 
0 
-0.05711775379509793 
-0.0005385319776389982 
-0.002395722271631911 
0.001108021407455825 
0 
-0.0003620281417116322 
0 
-9.923007065923572e-05 
0 
0.001755144023866672 
0.01089177089540398 
-0.005829487198117701 
0 
0.0003823700205077399 
-0.001926507523877745 
0 
0 
0 
-0.001771632289544234 
-0.01637600005062426 
-0.02822991796401714 
-0.06824589777290802 
0.004913731632116627 
0.0003840684644669785 
-7.813878938420921e-20 
1.222903817598396e-20 
-0.01960959654844914 
6.114519087991981e-21 
2.501394172360356e-21 
0.0005765678043175384 
4.208694956669805e-21 
8.364450354136216e-20 
6.482449024455567e-20 
1.222903817598396e-20 
2.104347478334902e-21 
2.104347478334902e-21 
-0.004388116167411696 
-4.857204556911379e-21 
1.222903817598396e-20 
-0.0009851387834832264 
-2.772974111073766e-19 
0.01708644714225611 
-0.01664549141934397 
6.114519087991981e-21 
0.005449179201644501 
0.006180317416550424 
-0.001808194048373746 
-0.007069730897819035 
0.004452182533408838 
2.011703249728963e-20 
0.003349043366969317 
0.007329982282142992 
6.114519087991981e-21 
-0.001097869747327933 
0.002960031408348121 
-0.004412454134471728 
0.01313992641876622 
-0.003065632917754755 
0.00212545615305035 
0.0002272793548105474 
0.003303057043389541 
-0.001139206433441112 
-0.0006399926894785869 
0.002244545595351305 
2.104347478334902e-21 
-4.857204556911379e-21 
-7.39830339867428e-21 
-0.0006782849720314526 
0.001415575828718809 
0.005343948398104727 
2.032879073410321e-20 
0.0006668224304322359 
-0.00021772278948613 
-8.556796319212051e-05 
-0.002516919363360747 
0.002609697612419192 
0.006191819050609946 
1.635832379384868e-20 
0.006477986071585937 
2.911675756186657e-22 
-0.001462318187352822 
-0.003075477281039089 
0.002732478135904986 
-0.001201447776695578 
0.005199761974564998 
-3.904292491250291e-21 
0.001357186154556781 
6.114519087991981e-21 
-0.005725753469084062 
-2.716593480522151e-19 
-0.001430713182656278 
-0.0004988982108743528 
-0.004802928693712788 
0.02147876575030287 
4.208694956669805e-21 
0.001020852372419001 
-0.01111590844646292 
-0.004418498207629326 
0.01214931749888629 
-0.0126551927340994 
-1.230844751478905e-19 
0 
-0.01925226614176877 
-0.005176973186986336 
0 
0 
0 
-0.01058648446184415 
-7.192335426148576e-21 
-4.298340655555239e-21 
0.006568853439626976 
0.00480948043496526 
0 
-0.01906954295334603 
-0.007665420141603602 
0.001783796100628442 
0 
-1.795288748293278e-05 
0.003045523376405521 
0 
-0.002021238817923429 
-0.01019994057137939 
-8.6714997975159e-20 
-0.03765660527440059 
0.0007807291457187281 
-8.6714997975159e-20 
-0.003936880086732653 
0.01569716698028529 
-0.001043624306763108 
4.378101546120665e-20 
0.0005088301544862777 
1.361870160507305e-20 
3.938703204732497e-20 
0 
1.381397413227844e-18 
0 
-0.0009878509455451107 
1.392287245992105e-18 
-4.798971041787645e-20 
-0.00886226830258278 
0.002396052317364592 
0 
-0.0005654636513663672 
-1.996813998703009e-21 
0.003869244882583934 
0.005142623386373692 
0 
0.008024233021896121 
0.003728294280257467 
-0.002159020360138513 
0.001651444835461697 
0 
-0.002943411501408852 
0.008448801782539943 
-0.002672086272764566 
0.009894196104528141 
1.105377996166862e-19 
0.0006252876246783213 
-0.01570824462401313 
0.01415820924726303 
-0.001693541339597046 
0.000463175274514909 
0 
0.006285703537041712 
0 
-1.916908351530386e-19 
0 
0.003961311129303007 
0.005673909029079743 
0 
0.00594047968896719 
0.003360844437037687 
0 
0.006144671328918168 
0.0003100285160057831 
-7.372895275466209e-05 
-0.006952075455677016 
-0.0001686306581094753 
0.00930952270849307 
0 
0 
0.0003131389017647047 
3.107552125239214e-20 
0 
1.805238968835728e-20 
0.013171687316832 
-0.002342747242023504 
0.0009193181098256529 
-0.002848350242036703 
0.001757965719703905 
0 
0.00437278448791012 
0 
0 
0.003399741464675229 
0.01960273123032657 
0.002389644295216353 
0 
0 
0.02744678859190802 
-1.491910707618883e-20 
-0.0001739270852491441 
0 
-0.01652619784317704 
0 
0.03064540807363833 
0 
-0.00355789625196331 
0 
0.0008140193537665423 
-0.01113325216036709 
-0.0109819271162897 
0.001485035517206043 
6.114519087991981e-20 
2.37963318619255e-20 
2.858736196983264e-21 
-0.001881502360866347 
0.003342014695130386 
-0.0004385689035611005 
-0.01290725621400832 
0 
-0.0006683900366505542 
-0.002037532740993252 
-0.005264133487357076 
-0.0001052423884440951 
0.0001272393489891885 
0.007027684151789578 
0.004957612417842484 
-0.0002625415599637657 
0.003204877646737854 
-0.003089889730469664 
0 
0.02134503467287455 
0 
-0.002312645890608574 
0.0015367913693019 
0 
-0.0004916253785731579 
0 
-0.006873411895557585 
0.008603897319030123 
-0.007350306191800726 
0.004778271767341235 
0.03222958074777407 
0 
-0.005072289669584422 
0 
0 
-0.005258238208952497 
0.003318882580412165 
0.000199278171906998 
-2.308164781267968e-19 
0.005655031298058427 
0.0004117230517114065 
-2.308164781267968e-19 
0.004248079136208628 
1.800408234058418e-19 
5.082197683525802e-19 
-3.24413618798397e-19 
0.04503884732787259 
0 
-0.001344875330178292 
0 
0 
0 
0.002182351987189935 
-0.0009987806571142674 
0.01636163176291648 
-0.002569304228575098 
0.01269099504121559 
1.077320029789063e-19 
0.001378040096530804 
0 
-0.002071828176781343 
0.06211456565393062 
-0.0004642078759657889 
0 
0 
-0.006122547113153778 
0 
0 
3.560185356428231e-21 
-4.42045319348338e-20 
0.007949007454725581 
0 
0 
0.000650306786963578 
0 
0.0006916400883212458 
0 
0 
-6.307982397369442e-05 
-0.0006399926894785869 
-0.0005462454799573534 
0.008752111642319394 
0.001513164530529844 
-0.0004248454785893422 
0.003203503830292758 
0 
-0.001675716116278822 
0.02169430849752064 
-0.002316796532728708 
0 
-1.132906566952627e-19 
0.0004523231599820747 
0.002956229009546122 
0.007141690868251939 
0.00705049726634878 
-0.01859644524606625 
-0.009761335880492768 
0.0005765678043175384 
0 
0 
-1.336194474293659e-19 
0 
-0.0005528278180981015 
0 
-0.008121595263828597 
0.001310287074276481 
0 
0 
1.151567761571823e-19 
-0.007034684256735996 
-0.01547395924910238 
-0.005484117854959715 
-0.03441420970409383 
-0.001427332155273661 
0 
0 
0 
-0.02222186526235919 
-0.002306463057406486 
8.788750714621552e-05 
-0.002487716564763318 
0.001589030056283773 
0.01150919755143436 
0.0004860936979837713 
0 
-0.001384961913006913 
0.005475831954305505 
0.01929338739432671 
0 
0 
0.004488303589346293 
0 
-0.003839051297600406 
-0.001298402691861509 
-0.001186725898227574 
0.003192097589557926 
-9.712889882273881e-05 
-3.896351557369782e-20 
-0.0002129835082761888 
0.0004665937359214191 
-3.045348143175227e-20 
0.01021430568262394 
0 
-0.005835887596746504 
-0.02225214218409863 
0.01071239949046426 
-0.001296101989662279 
0 
-0.00173384536622569 
0.001243561188859898 
0.01017862795154587 
-0.02281039487303055 
-0.003590767768503784 
-0.00163292811090205 
-1.111730743271269e-21 
-2.218167530622199e-20 
-0.03186203551462426 
-6.614136177974009e-21 
-5.452112853459516e-20 
0.007101725162518503 
0.007288470483500525 
-0.01556177909618765 
0.00142550143926008 
0.02452400229040219 
-0.01721218372469436 
0.01082281120464139 
0.02029638605422032 
-1.501895294600281e-19 
0.008293184123241535 
0.01298977167544514 
0 
0.009337211572278006 
0.004947537554928053 
2.668153783851046e-20 
-0.0005715273664420469 
0.01639048440174279 
0 
0.005753415383560951 
0 
0.00245978279315324 
0.009370787761687984 
0.0006107670807430577 
0 
0.001225463216697631 
0 
0 
0.001613256036035677 
0 
-0.0006254339042339201 
1.752167060734325e-19 
-0.0002129099273272261 
-0.009617005371320717 
0 
0.001724089474302128 
0.003011454650848513 
-7.929903103194763e-05 
-0.0148749327160647 
-0.008035046557624749 
0 
-0.002795821970171457 
0.005758957153497729 
0 
0.001081596118799367 
0 
1.799614140670367e-19 
-3.422641764172914e-19 
0.02268914188456075 
0.01128357943530202 
0.005527870326145121 
0.01125511421857722 
0.005361281450488336 
0.003074613746374474 
0 
0.002776071976082411 
0 
0.0006230783762092556 
0.002028369619661867 
-8.978549240895584e-20 
0 
8.987019570368127e-19 
-0.004560147388005168 
0 
-1.680831004707752e-21 
0.00353350139812622 
-0.006723309028997391 
0 
0.001394131695258568 
0 
-4.604418161715173e-20 
-0.006458749352249988 
0.0001415291462470949 
-0.003410389675973219 
0 
1.136877033892881e-20 
-0.003914408441153722 
0.007224136789024173 
-0.001539508664382991 
0.002250931526755453 
0.0007513127272762368 
0.001837493448583357 
-3.173726574243457e-20 
0.001364215184137514 
0.007806029282936572 
-2.659617279929499e-19 
-0.007947168247635672 
0.001785067672604945 
-0.006302225426082724 
-0.0001042590648250982 
0.009419861732315906 
4.780441783243137e-05 
-0.05121945801546837 
-0.005295341355100486 
0.0107001635427758 
-0.0003122421073959667 
-2.821678505540888e-20 
7.48035971543954e-20 
0.01603124492062252 
0.003460746573633528 
-0.005514096923542968 
-0.008075254533534193 
-0.009768453937280146 
-0.008130882890366953 
-0.008786915788524344 
-0.01062286435609816 
-0.008537503656099081 
-0.009195972302373116 
0.001313869874382087 
0.004518836307316689 
0.003570072784626709 
0.001598113776635912 
0.001855998492630711 
0.003611725078327659 
0.001855998492630711 
0.001855998492630711 
0.002076426909562484 
0.001947484551563497 
0.001603087085574232 
0.002214027241544581 
0.006679399729714451 
0.008445032832562146 
0.01953709635246398 
-0.00347303848754494 
0.0112379115427704 
0.003749219977617555 
-0.005980762862768621 
-0.003059629582415306 
-0.004854951735044639 
-0.004314327364302452 
-0.004854951735044639 
0 
-8.085690487705846e-23 
-0.0148749327160647 
-0.004135969787425546 
1.787768914298608e-19 
0.0005520703650016187 
0 
9.479489819857697e-22 
-0.001884855618387699 
0 
0 
1.429368098491632e-21 
0 
-4.102815838263017e-21 
0 
0.0007327442313106352 
-0.004801489150085479 
-0.00310994036273836 
0.002808852886688681 
0.001137933363112916 
0.003527408585826281 
-0.001434372438098125 
0.001891853758019699 
0.0001640576978737765 
-0.0001563686554442405 
0.0002979975964104037 
0.0002730453863118638 
0.008678018359911244 
-0.001104441901487184 
0.0129251042857663 
0.02720180129884676 
0.0002381841022576621 
-0.01055479900170966 
0.004639197578733745 
0.008681564886777566 
0.004508530299077288 
-0.01521957110287024 
-0.01368439399724321 
-0.01101775741494923 
-0.01368439399724321 
-0.01316118595397334 
-1.880413142904547e-19 
0.001557108241152748 
-0.00257661618541331 
0.0007247770454207096 
0.001953823905899937 
-4.701032857261367e-20 
-0.0009325895545411334 
-1.022792283809568e-19 
0.002467465500865999 
-1.720535674110298e-20 
0.003285822699432609 
-2.898440866385809e-20 
0.0006859418158176396 
0.0003945920439534191 
0.002643994107286413 
0.00153845400258508 
0 
0.02747710481261162 
3.184843881676169e-19 
0.01044267945327333 
0.0001372433734883171 
0 
-0.0006178107315723902 
0 
0.003186170624320003 
0 
-3.896351557369782e-20 
0.01088270320242393 
-0.002482415643015707 
0.009969465813867345 
0.01122233199932089 
-3.447688793121019e-21 
-0.007741563930231057 
0 
0 
0 
0 
0 
0 
-0.007024355550627638 
4.171637265227429e-20 
-0.002101028368630348 
0 
0 
-0.003472732993402138 
0.00096151862310238 
-0.001105677320671696 
0.0005282900961659188 
0.00328609916861557 
-0.002105096173539761 
-1.998468359928115e-20 
0.01106910854057776 
0 
0.0004837607247966989 
0.0005527662897147738 
-0.002486134921180064 
-0.002281281321380217 
1.167294119377681e-18 
0.009911972471165813 
0 
0 
-0.007583502544073079 
-0.0210857346233541 
0 
0.000102980193830564 
0 
-2.175815883259484e-20 
0.001567431934681012 
-0.0008964497228752462 
0.01167812148094971 
0.03791432015911034 
0 
0.03779808216186029 
0 
0.01104212482271847 
0.0005336330238299341 
-0.005561078373508047 
8.007108329513308e-21 
0 
0 
0.004559469233775716 
-1.011145580784821e-20 
-8.251951305672371e-05 
-1.482307657695026e-20 
0.0005382290796311031 
-0.0008404108599288057 
-0.001736380918017617 
0 
-0.002101827534759749 
-6.392451773809798e-20 
0 
0 
0.001881040340908384 
0.01367840770136438 
-0.005141009497640571 
0.004043400141241233 
0 
-0.03160030136630321 
0.00415320594161709 
0 
-0.002090250173464986 
0.006300088315129159 
0.002073379456986303 
0.006090984365418006 
0.004484384160588195 
1.384898868760781e-19 
-0.01504900401931126 
0 
0 
-0.00119848196512785 
0 
0 
0.002708535401786112 
-2.187190513985699e-05 
-0.0006254339042339201 
-0.0006015211135542216 
-0.0006562628533136175 
-0.001371773068715402 
-0.002168878032624719 
-0.001604957767971833 
-0.0006997138166116148 
-0.0006254339042339201 
0.0008876123236309458 
0.005563891991593951 
0.003966435143312687 
-0.0005385319776389982 
-0.0005170274514801528 
-0.0008506709822939186 
-0.0006015211135542216 
-0.0006562628533136175 
-0.0005511539918562281 
0.008892874373608681 
0.003298245978416449 
-0.0006015211135542216 
-0.000527241201176528 
-0.0006254339042339201 
2.737553463970199e-05 
-0.0006254339042339201 
-0.0006254339042339201 
-0.0001456210525937372 
-0.0006015211135542216 
0.005407217662468039 
-0.004242830342439901 
-0.001539118640036365 
-0.005521247552213802 
-0.001008528996061621 
0 
0 
0.009589629855113125 
0.0005536788284459448 
-6.352747104407253e-22 
3.520480687025686e-21 
-8.629148150153185e-21 
0 
-0.003172180565147282 
0 
0 
0.001243561188859898 
-7.5882848796028e-05 
-0.0005671809353060076 
0 
-0.001160378832906497 
-0.005035883732924022 
-0.004798376957258519 
0.001976289474502406 
-0.005236079587864464 
0 
-0.0008719109789205522 
0 
0.00163791054404245 
0 
0 
0 
0 
0 
0 
0 
0.02435259065238805 
0 
9.251187970793062e-21 
0.003937796234746088 
0 
-0.001907018149083695 
-0.0003177566069016264 
0.0009834223128313705 
0.00390751334047594 
-0.002551160895726334 
0 
-0.014485142125226 
0.000110414073000533 
0.0006018413679673535 
0.001104615200573434 
-0.003292556992421155 
-0.003292556992421153 
0.005073500991154871 
-0.005554339561285127 
-0.003047599277384721 
0.006029432284443356 
0.005711538795476427 
0.01429974699576925 
-0.03772269601032723 
0.001543332727380821 
0.00882192938084489 
0.001803957097486761 
0.001875671369014927 
0.003607914194979945 
0.003751342738029853 
0.001615053173354448 
0.002847292692141419 
0.001803957097486761 
0.0170551777364204 
0.001652906494906555 
0.005411871292469914 
0.001803957097486761 
0.02529107578563451 
0.001875671369014926 
-0.003507917088094233 
-0.001760705487428621 
0.0002535203879447163 
0.0002739754500933053 
0.000384068464466979 
-0.001637866327115412 
-0.0004396177377265091 
0.01315007220870045 
-0.002859932870591066 
0 
0 
0 
1.126553819848219e-19 
-0.004780847692814324 
-0.00507115226418085 
0 
-0.001358695752258411 
0.007724032978393799 
0.0008048238428070328 
0.01178930918608798 
0 
0.01293943382788843 
0.001415714093339356 
0 
0.0009658654263222897 
1.933352702107941e-19 
-1.86611946191963e-21 
0 
4.171637265227429e-20 
0.001349208763234819 
-0.003361872703759934 
0.0001708283185814105 
0 
0.00217183760544353 
0.01463348517178989 
2.713152409173931e-21 
-0.001178074758428828 
0.0001056538776499274 
0 
0.005092424313183777 
0.001392239652601201 
0 
-0.0004645872467583017 
0.0004366245309489467 
0.0117148167905276 
-7.021742005923393e-05 
0 
0 
0.007219698392246571 
-2.697270541412913e-20 
-0.001554010726034534 
-1.86611946191963e-21 
0.03186617379978627 
-0.001557008590035418 
-0.001840776382254719 
0.01455804823629128 
-0.005262909307278654 
0.01397608883707533 
-0.005262909307278654 
0.00330102230890645 
-0.001632425859761458 
0.005011978240583882 
0 
0.01419905923470275 
0.00127847067432805 
0 
0 
0.0006869053542098412 
-6.073098423370322e-05 
-0.008672431685230514 
-0.001671352256427214 
0 
0.01235130150581825 
0.002250259969143514 
0.003610054337235785 
0.0001051553162585656 
9.157302971268293e-21 
0 
-0.001078932943948117 
0.001004697028669776 
0.002051533513015793 
0.01030028790526512 
-0.01191285332472818 
-5.049110459023681e-21 
-0.007006224590817604 
0 
0.001618685936471966 
-0.007740169531299457 
-0.003670580502439193 
0.01903148857260166 
-7.792703114739563e-19 
-5.501858357655167e-05 
1.085260963669572e-21 
-0.004881368725338746 
0.1835125925993833 
0 
-0.0006137170487071094 
0.006937028870220155 
-0.001477636915125488 
-0.00259536067481655 
-0.01582039613843133 
-0.01343332005817933 
-0.007646082760149417 
-0.01096945149970998 
0.002350493442317888 
0.01958852102465581 
0.002350493442317888 
0.02333542964282841 
0.0228736110387012 
6.88214269644119e-21 
0 
0 
0.02133078475336298 
0.0001369320991483537 
0.0004460448946371258 
0.0110960095414595 
0 
-0.004228905921001405 
0.0110960095414595 
0.005375465340259447 
0 
3.940688438202624e-21 
-0.0001994204394313431 
-2.646977960169689e-23 
0.02103582247458216 
0.0003385662010137894 
0 
7.691538925824328e-21 
0 
0.01830537132894395 
0.007395190856406102 
4.314574075076592e-20 
0 
-0.01084219464792779 
0 
0.006368793793740665 
0 
0.04520760755615484 
0 
0.001348147962453484 
0.0247699031704863 
0 
-0.02770856008598188 
1.011145580784821e-19 
0 
-0.01068300248934969 
0 
0.0001109132999742447 
0.001407747600193745 
0.01390013078716304 
0.0003760161456472277 
-0.002040127881719582 
-0.002055342144656996 
0.002790880851131228 
0 
0.002815119637507883 
0.002640305796270383 
0.002815119637507883 
-0.02465538591247003 
-0.02213911251044083 
0.0005282900961659183 
0.007219698392246571 
0.0007076590736125699 
-8.593943343282928e-19 
-1.201198598325005e-19 
0.00918083568507207 
-0.002098582873049135 
1.910059296058447e-19 
0.006571198591949996 
0.004349235327307813 
-0.01788762972615937 
0.06125423282298195 
0.01606770449263656 
-0.001641471398390176 
0.0140218503319827 
0.006547918037018116 
0.01803940898708584 
-1.204904367469242e-19 
-1.456049636330142e-18 
-0.0001831115716447401 
-1.123377446296016e-19 
-1.456049636330142e-18 
-2.697270541412913e-20 
-2.697270541412913e-20 
-8.311510794932822e-21 
0.001094332154446265 
-3.356368053495165e-20 
-0.01827408147768461 
-8.311510794932822e-21 
-2.697270541412913e-20 
-8.131516293641283e-20 
-3.940026693712581e-20 
0.01477398053411423 
-8.556796319212056e-05 
0.01227249567101776 
-0.002752486588715269 
4.58985978293424e-20 
5.264177418287468e-21 
0.005165670938085729 
-5.539420994303829e-05 
0.007014770927955996 
-0.006443699673426708 
0 
-0.002073137451370854 
5.264177418287468e-21 
-0.00081041527300821 
0.001393774997875153 
0.0002532480694258727 
0.02499957195071784 
-0.001867070072869697 
0.03080611172762323 
-0.00487359468958681 
0 
0 
0 
0.05542066051372339 
-6.856202312431527e-19 
0.006260544231933467 
-0.01480558615171732 
0.00194550840574656 
-1.064032200429011e-18 
-0.02336826805190841 
-0.003429147574406336 
0 
-0.00247380473460367 
-0.04198906738653585 
0 
-0.001031572784769303 
-7.396649037449173e-21 
0.001183898020560963 
2.032879073410321e-19 
-0.003114523056640439 
-0.0002678690329552894 
0.002000367878118698 
0.004495538818517169 
0.001206026759151573 
0.003672113483136975 
0.00350838770765773 
-0.001016917579291493 
0.01536834014120837 
0.0005874150602385913 
5.353248226647178e-19 
0.0001358118222180433 
0 
-0.0122817995296709 
0 
0.004203218254664671 
0 
6.127753977792829e-21 
0.004603472529272807 
0.02541406035691536 
0.02132974854413176 
0 
0.004110711446042914 
0.002989430903216792 
0.002486441953088574 
0.003953542828082771 
0.002989430903216792 
0.01030563962335975 
0.002672080208863749 
0.003679824908780592 
0.0355431780113173 
0.003172497018667353 
0.005561471081098972 
0.02327269739019442 
0.002711202847940214 
0.003298616044965709 
0.003298616044965709 
0.003115100947670987 
0.0009831563033854637 
0 
0.006439360534749797 
0.06678034102460342 
-0.0172240140247798 
-0.01746927739862107 
-0.006516707516479018 
1.545835128739098e-19 
3.091670257478196e-19 
0.0001369320991483537 
7.099194889175105e-20 
9.084428359302371e-20 
0.003349463701828773 
-0.001417066493890823 
0.004701724595598013 
-0.005158409312869488 
0.02725886908823328 
-0.00240425239393608 
-9.906340692599791e-05 
-0.001665971650092343 
-0.01613181877992866 
-0.002026786382268617 
0.01816140721987733 
-0.009741086006032724 
-0.001168078020022795 
0.01232499130890839 
0.01468159399127763 
0.01663899117230877 
0.0193964394531452 
-0.003741900018684624 
-0.00849240383819772 
-0.00849240383819772 
-0.004800102230012667 
-0.0009251933354836242 
0.001498047316793166 
-0.002349145862823604 
-0.001009741984338615 
0.0001415291462470949 
-0.002346502346386312 
0 
0 
5.299249876259716e-20 
-0.001227165673608506 
0 
0.001450820047036196 
0 
0 
0 
-0.004015816650472763 
-3.705769144237564e-20 
-0.009700579079628931 
0 
-0.007270895538728954 
-0.001054059267047155 
-0.05397927432325003 
-1.132906566952627e-19 
-0.003920573252483861 
-1.169434862802968e-19 
0.002373016457261574 
0 
0.0004656910785191481 
0.01161312178354946 
0 
0.0002132369597877406 
0 
0 
0 
0 
0 
0.000767036330779137 
-0.0005627227848649849 
0 
0.01800298890633206 
0 
0.2082863877837494 
0 
0 
0 
0.0003053444719103885 
0.006247577224883492 
0 
0.0102522632884159 
-0.01592655157004966 
0.002214374793369091 
0.002379700460337891 
0.002006089085761523 
0.01503960652379554 
0 
-1.717888696150128e-20 
-0.006351783809457828 
0 
0 
-5.517956430218737e-19 
8.167581368348595e-21 
0 
0.000289644844334954 
0 
-0.0001608416221400428 
0 
0 
0 
0 
0.004539172479692811 
0.01256246920623317 
-1.742373242281697e-20 
0 
-0.001546148975829729 
-7.623296525288703e-21 
0.0008220022034137212 
-0.007205504146110927 
0.013161403855435 
-0.00666058778734722 
-2.413514504082722e-19 
-0.0003327174370455123 
0.003244885386317937 
-1.567010952420456e-20 
0.03627614354655758 
0.002019737767235943 
0 
0 
-0.00234622694154982 
0.01414256649162132 
-0.0007569924622017139 
0 
0 
0 
0.03924262108959897 
0.001645083976765541 
0.002062039325993397 
0.002065010669867561 
-0.0120756951004459 
-0.005559358796356144 
0.01108808269496449 
9.58294929816548e-05 
-1.424074142571292e-20 
0.01078598240474129 
0 
-0.001724526223033217 
0.02447007289023043 
-6.908612476042887e-21 
0.0001056538776499274 
2.193682984490629e-21 
-0.03585313285082888 
-0.003390758645699619 
0 
0.001587780377281033 
-0.0008116924277784068 
0.009425972448772165 
0.05670742223848536 
0.004236318220329931 
0 
1.417191999874851e-19 
0 
2.886264767769028e-19 
0.002666939953072071 
0.05828811254394965 
0.001473357984922927 
0 
0 
-4.781500987250525e-19 
-4.154696606282343e-19 
1.022792283809568e-19 
3.578714202149419e-20 
-3.671887826347392e-19 
-8.000226186816867e-19 
1.527212678336887e-05 
-9.698527246061739e-20 
0.01852619951258135 
0.002451144106691869 
-0.001808697494339533 
0.002177168656598565 
0.002455046040398746 
0.001090204590947888 
0.003611624171135709 
0.01473027624239246 
0.002061839122120722 
0.003411828534837017 
0.005424573068240302 
0.001899291272798401 
0.002699212585430615 
0.001694505201543176 
0.002756457724733611 
0.002617593889721068 
0.002405515245515892 
-0.006417298314918312 
0.001581368420410973 
0.002177168656598567 
0.002061839122120722 
0.003201262298655101 
0.001280418507908135 
0.004157012711996365 
0.001856180956828793 
0.00442033489367388 
-0.0003893171733170732 
1.246197223647889e-19 
1.95876369052557e-19 
9.920873394715993e-20 
0 
0.0003100532378313575 
0 
-0.005712907718010325 
-0.001761468782350188 
0.004844021400282898 
0.01082207024451266 
0.01157472691637142 
0.005911414379971898 
0.006393506850940849 
-0.002046478185340326 
-5.452774597949558e-20 
0 
0 
-0.002671850087579875 
2.574186066265022e-21 
-0.01144064534159679 
5.507009946043587e-05 
1.287093033132511e-21 
1.287093033132511e-21 
0.006332001544896444 
0.00142550143926008 
0.001607441689660258 
-0.003851320623957562 
0.004605543463722632 
0.001713869913516659 
0.001385039306436934 
0.00554015722575298 
0.0007636587482355822 
0.001713869913516659 
-0.00439971635753441 
0.001667433880169971 
0.001723457158897194 
0.001531929663116476 
0.004477946503754846 
0.005210785442292062 
0.0001383180274967418 
3.642241673193491e-20 
0 
0 
0.002398237689063926 
0.000253520387944716 
3.725621478938837e-21 
-0.001582929606377416 
6.776263578034403e-21 
-0.01706659594415403 
0.002345918556795542 
-0.001531514034762188 
-0.0002365602379693948 
-0.001885337181627229 
0.01235130150581825 
0.000140182415899179 
0 
0 
0 
-0.005152526413180068 
6.002684269174811e-20 
0.001563520843337062 
-0.002445811079868154 
0 
-0.0001118173453677116 
0.0001221240385517728 
0 
0.002515154290492277 
-6.385834328909374e-22 
0 
-8.556796319212056e-05 
0 
0 
-0.01069749573246366 
0.0260453931838034 
0 
-0.0007240998940837477 
0.005841899487403155 
0 
-0.0005600928745920209 
0 
0 
-1.058261788475841e-19 
0 
5.563947672276685e-20 
0 
0.006353536440625145 
0 
0 
1.297019200483147e-21 
0 
0 
2.530510929922222e-20 
0 
-4.470745774726604e-20 
-0.006605933247994508 
0 
0 
0 
0 
0.00289269009091829 
0.001559899820535103 
0 
0 
0 
6.67161302886395e-05 
-0.004494459629520856 
0 
0 
0 
-0.001609322826794539 
2.064642808932357e-21 
0 
0.001474394232614957 
0.004994741115005432 
0.002272161418509654 
7.951663220601108e-05 
-0.002335588350280576 
-0.0002510793131140126 
-6.276982827839134e-05 
0.002005843630701576 
0 
-0.0007298134537754768 
0 
-0.002875948046771787 
0.0003184320463142447 
0.008507039606999382 
0 
0 
0 
0 
0 
0 
-0.02887398699504399 
-0.02887398699504399 
-0.002461956315165931 
0.0017230915854684 
0 
0 
0 
-0.0009104018660242897 
0 
2.234049398383217e-20 
-0.0009020631433432595 
8.107073106540341e-19 
-0.004285829792031909 
2.983144161111239e-20 
-8.556796319212056e-05 
1.693668847814575e-19 
0.0002944305122423995 
0 
0.004102978307713557 
0 
0 
0 
0 
0.0002739754500933053 
0 
0 
0 
0.001221534161486114 
0.04457615249916148 
1.163346813494578e-20 
0 
0.001303485884650356 
-6.507932433913067e-05 
0 
-0.0001524880230200486 
0.004438069066347372 
0.0001306629474277038 
0 
0 
0 
-1.378943168350399e-19 
0 
0 
0 
0 
1.892192194827302e-19 
0.0001565787853157366 
0 
0 
0.001983674160308434 
-0.00224854092968236 
0 
0.004169927590058205 
-0.008762592700427523 
0 
0 
0 
-0.0005415815892875907 
0 
0.001364939548794238 
1.747005453711994e-20 
-0.004366870021336801 
0 
-0.007000994245751527 
0 
-1.252947017446322e-19 
-0.002440797447592477 
-0.002181387958478343 
0 
-0.003826040772543082 
7.056057325307752e-06 
0 
-0.005879850350011601 
-0.0008261140700723012 
0.001597003363855445 
0.001335364591727436 
1.725829630030637e-20 
0 
-0.001336043136380875 
-0.0001179536581421148 
-1.717888696150128e-20 
0 
0 
0 
0 
-9.820288232229545e-21 
-0.001542623082257677 
0.00954635768722125 
0.04771691612092941 
-0.0001474579055087651 
0 
-0.000156860734213721 
0.001625557949535406 
-0.008447627685572166 
-0.000855924899982845 
-0.001076616123281242 
-0.001340075789622197 
-0.0006700378948110985 
0.0006215996099824051 
-0.0005941988375415905 
-0.0005941988375415899 
-0.0006178880423760921 
0.04734513617704385 
-0.00132886733196052 
0 
6.505213034913027e-19 
0.00864301751514188 
0 
-0.003431230690065016 
0 
0 
0.004977817886127036 
0.002262826539083326 
0.02005001234524279 
0 
2.886264767769028e-19 
-0.01474414039645336 
0 
0.002311870990820113 
0 
0 
0 
0 
-0.004580723084062779 
0 
-0.0006290596861743986 
-0.001226767166860042 
-0.01047898700764591 
-6.479802046495398e-20 
0.002155818198295431 
0 
-0.001041944668790172 
0.0005624911811452735 
0.002899202135520516 
0.0005409849375872457 
0.0005902175513722701 
0.0004843349331336587 
0.00118043510274454 
-0.001144225708673602 
0.0004032755069518918 
0 
-0.001502546453985564 
0 
6.156870735354696e-20 
0 
0 
0 
0 
0.001161698397818553 
0.00249482532637481 
0 
0 
2.367511581772578e-05 
0 
0.004376980451512139 
8.167581368348595e-21 
0.002740645442318326 
0.002638766436002092 
0 
0 
0 
0 
-0.00214248772653256 
-0.0001089876884380868 
0 
-0.005115591315776366 
-0.0001243412008945704 
0 
-4.597668367916741e-19 
0 
0 
0.0006539216465318775 
0 
-0.003995342270182441 
-7.677559573472182e-20 
0 
0 
0.002114411787127996 
0.001563520843337062 
-0.02206498299332777 
-1.287754777622553e-20 
-0.003886678905768833 
0.0001330453512076646 
-0.004928554727818947 
-0.000763045418492856 
-1.610421390967239e-19 
0.001725856129205003 
-1.287754777622553e-20 
-9.226269154839902e-21 
-0.0001474239206663476 
0 
0.0001471554771821575 
-4.341043854678289e-20 
0.002474991594209439 
0 
0 
-1.572966652830837e-20 
-0.000898274915523433 
8.883919778819517e-22 
-0.0001416561068817106 
-4.739744909928849e-21 
8.883919778819517e-22 
-1.116693826946587e-20 
0.01553391448613079 
-1.116693826946587e-20 
-0.0001089876884380867 
8.883919778819517e-22 
0.004823401237083745 
8.883919778819517e-22 
-1.72384439656051e-21 
3.458442141084209e-21 
-1.266413517818685e-20 
-1.545173384249056e-21 
0.001076291808371374 
1.229190390253799e-20 
8.883919778819517e-22 
0.001776854723940395 
0.03179599107832402 
-4.739744909928849e-21 
-1.72384439656051e-21 
-1.72384439656051e-21 
0.007658424231258808 
-0.01003741108775983 
8.883919778819517e-22 
2.555988092788856e-20 
-0.0007518070254309129 
-1.72384439656051e-21 
-1.840106125531102e-06 
-3.447688793121019e-21 
0.0004097773137566404 
0.02054135358161174 
0 
-0.001234941234849415 
0 
0 
0 
0 
-0.0003199963447387238 
0.00143108377067051 
0 
0.001221534161486115 
0 
0 
-0.003215564228934899 
0.0006095928613493953 
0.002855001867332882 
-0.01082676943430097 
0 
0 
0.001724967312786925 
0 
-1.405545296850105e-20 
0 
0.001196095195048946 
0 
0 
0.01038812792479941 
0 
0 
0 
0 
0 
0 
0.01370137448931645 
0 
0.003774997802691145 
1.359223182547135e-20 
0.001757965719703906 
0.003180183929432312 
0.00807476260145451 
0 
4.007524631696908e-20 
-0.003596693344204272 
0 
0.003229374477792894 
0 
2.14127282087927e-19 
-1.111107726356516e-06 
0.01442171143657261 
-6.354599988979371e-19 
0 
0.00385458575328115 
0.005767857641948779 
-0.0006192049110287569 
-0.002525168135000482 
-0.003827619253174972 
0 
0.0001123910228035675 
0.0006539216465318775 
-1.287754777622553e-20 
-0.0004807362889772457 
-0.000332717437045512 
0 
0 
0.002510865166541255 
0 
-0.0006420932622825336 
0 
0 
-0.000665434874091024 
5.420804067274384e-20 
0.0008615457927341999 
-0.002288451417351759 
0.01423803478255832 
0.0003559646046008694 
0 
0.01181995466945963 
-0.001467362800171267 
0 
0 
0 
-0.0007242887662003729 
0.001971142304709351 
-9.478828075367655e-20 
0 
3.712386589137988e-20 
-3.965172984334193e-20 
0.002431769623121712 
0 
0 
0 
-0.0001157028061418641 
0 
1.979939514206927e-20 
-0.001745478090115936 
-5.923936674859763e-19 
0 
0 
0 
0.0001471928577003569 
1.440617754822353e-20 
0.002301736264636403 
0.004595579700586228 
0 
-2.329340604949326e-20 
0.0001087404191010504 
0 
-9.869931708023254e-05 
-2.03817302933066e-21 
-0.02287028723706083 
-4.280163361594386e-20 
0.01304759953343818 
-0.001253196096385507 
0.01662958160530679 
-0.0008036320051704412 
-0.001457768653179021 
0.007342320406931687 
-0.001457768653179021 
-0.0003086300877566174 
0 
0 
0 
0 
0.002490121916686418 
-0.002703669353533556 
0.00159124779095536 
0.0001938198032796587 
0.001544090793328179 
0.00132364705651931 
-0.0005731020287042071 
0.0002830582924946942 
0.0001544090793328176 
0.0001471554771821574 
0.0001471554771821575 
0.0001544090793328176 
0.0001471554771821574 
-0.002897018661368694 
0.01004165096816348 
-0.03217704319658777 
0.005232645230445089 
0.0001544090793328176 
0.001062251966268914 
0.0004414664315464721 
0.0002660907024143211 
-0.001211370364396359 
0.0001544090793328176 
0.0001330453512076646 
0.0002943109543643148 
0.0001369320991483537 
0.0001471554771821574 
0.0005555411250316736 
0.002461244003715708 
0.0001471554771821574 
0.002943109543643149 
0.0002830582924946943 
-0.002880257783422795 
0 
0 
0 
0.0005161916895442592 
-0.001102750730167093 
0 
0 
1.945528800724721e-20 
0.001468242751257802 
0.002025734396341938 
0 
0 
0 
0.001101276959121493 
-0.001329188870543327 
0 
0 
0.004028086307931641 
0 
0 
0 
0.01800298890633207 
-0.008243086637634751 
0 
0 
0 
4.012818587617248e-20 
4.688327363052552e-19 
2.401338405465941e-19 
0.04669348829432757 
0.04490821313722694 
-0.002014460431000601 
-0.002228104050969579 
-0.004435945414853433 
-0.001918516525617278 
0.0001200136626731296 
-0.0042918602526076 
-0.002337931973419265 
-0.00207331028829152 
0.01691960102049722 
0 
0.01369022654270432 
-0.003547705877089249 
0 
0 
0.004660992338354666 
0.005536152409803514 
0.004660992338354666 
0.004124278503058268 
6.502963103646882e-20 
4.744972691400184e-19 
3.229114588060007e-19 
-0.01894270993470761 
1.980005688655931e-19 
0 
0 
0.00130790493132224 
0 
0.006398155382259295 
0 
-0.001593868692925015 
-0.0001612644077555289 
0 
0.0008219263502814311 
-0.0007239470338260434 
0.007688254120630619 
0 
0 
-4.378101546120665e-20 
0.01168762018763035 
0.0234742258587481 
0.002306543657975233 
0.002398237689063926 
0.0007556091447428111 
0.002113410013111897 
0.001676709369925499 
-0.001788033048189044 
-0.003551505974567226 
-0.0001686709018987573 
-0.006656006259910824 
0.002707570031365526 
-0.0005060127056976501 
-0.02015034118835612 
4.738090548703743e-21 
8.139457227521792e-22 
1.01643953670516e-20 
8.139457227521792e-22 
-0.003155191420339285 
8.139457227521792e-22 
-0.001407173057757263 
0.0008908165690426961 
0.006963672920077286 
0.001255474765036463 
0 
-2.510393897424933e-19 
0 
0 
2.964615315390051e-19 
0 
0.0005874150602385913 
-0.008293206414074611 
-1.960881272893705e-19 
-0.001598055867696335 
0 
1.037615360386518e-20 
0 
0.001256614901522773 
0 
-1.86611946191963e-21 
-0.0005105161646473523 
-7.843036710672087e-05 
0 
0 
0 
1.482307657695026e-21 
0 
1.269225931901366e-20 
0 
0 
-0.02223347603899231 
0 
0 
-0.04042434476097521 
0.02001539716282812 
0.002788717457237391 
0 
0 
0.004595579700586228 
-4.268251960773623e-21 
0 
-0.0008395212388267145 
-5.288992836664059e-21 
-0.0002365602379693948 
-1.057798567332812e-20 
-0.001581110173507995 
-0.0001150839445603649 
0.0008418862171689273 
0.0009493382231379159 
0.0102063708096445 
0.001012193617257321 
0.001012193617257321 
0.001012193617257321 
-0.001238037260198178 
-0.00133627877721024 
-0.003526862501176372 
-6.45862622281404e-20 
0.02382781274674883 
0 
0 
0.005253142586026005 
0.004116929959017759 
0 
0 
-0.002662378832641089 
0 
0 
0 
-0.00507115226418085 
-2.019644183609472e-20 
0.0110473093439085 
0 
0.00219859735947081 
-0.0007992808319036414 
0.003040350030870951 
0.002617903672563515 
0.00282912685171463 
0.01131650740687934 
0.001354018627800559 
0 
-7.735793088595915e-21 
-0.007785800658031964 
0.02153702135970901 
-0.003099675068569251 
-2.337281538829835e-20 
0.0004784198330937806 
0 
0.04112208976008166 
0 
-7.318364664277155e-19 
0.0008016913550930385 
0 
0 
0 
0.002010191857994663 
0 
0 
0 
0 
0 
0.002995640340206122 
0.00197431896761147 
0.001273170107808056 
-2.87693417045943e-21 
9.656175598699024e-20 
0 
0 
0 
0 
-0.0002122342774505423 
0.006184916595644561 
1.792004079034879e-20 
0 
-0.002715056155547297 
-1.635832379384868e-20 
0 
-0.0005505554847697138 
0.01513258784495144 
5.770411953169921e-20 
-0.001259359811095628 
2.779326858178173e-21 
-9.465593185566806e-20 
9.271682888124337e-05 
0.002995640340206122 
-0.002435255107427061 
-0.001560925056795082 
0.002109989996682497 
0 
0.0006491645156463938 
0 
0 
0 
0 
0.003347675010287214 
0 
0.007287871179051155 
0 
0 
0 
0 
-6.54332951753947e-20 
-0.0008503775628192216 
0 
-0.0002626798572081916 
9.271682888124337e-05 
0.0001628033976090818 
0 
-0.002472271172672525 
0 
0 
-0.0008678650093442789 
0 
0.001556797225749707 
0 
0 
0.004270646842816035 
3.86247023947961e-19 
0 
0 
0 
0 
0 
0.004955688060359701 
0.002653313857525163 
-0.005467029220975494 
0.001419471894334183 
1.879354351720479e-20 
-0.002498797077644269 
-0.01659525343617271 
-0.0081479817030092 
8.787966827763366e-20 
1.879354351720479e-20 
-1.270549420881451e-21 
-0.0005511113603203506 
-0.002031284982937526 
-0.003645444097441295 
-0.001177413357854341 
-0.000530040211936276 
-0.0005511113603203507 
-0.004310179545900168 
-0.0008500365566749974 
-0.0005782767953080328 
-6.822251929730236e-05 
-0.0005511113603203507 
-0.0005511113603203507 
0.0004210760356471895 
-0.0009713167902866425 
-6.392451773809798e-20 
-5.227781471335135e-20 
-0.002428621055229879 
-0.003252451922665112 
-5.227781471335135e-20 
-0.0001466578079470335 
-3.173726574243457e-20 
0.01370970587750674 
-3.705769144237564e-20 
-5.227781471335135e-20 
0.009877354331192478 
-7.861524541703975e-20 
-0.000639992689478587 
-3.173726574243457e-20 
-1.169964258395002e-20 
-3.173726574243457e-20 
-3.419895524539238e-20 
0.001098264190408812 
-1.172352742413749e-19 
0.0007084883137948271 
0 
0.005788028874175057 
0.01452768128637059 
0.0005100542760107302 
0 
0 
0 
7.040961374051372e-21 
0.0007366534643856079 
0 
3.572361455045012e-19 
0.01528124411417973 
-0.01177599461053113 
0 
-0.0007530820458833915 
0 
0.003115100947670987 
-8.324745684733671e-21 
0 
-0.006867287494962995 
0.0009776268768104932 
0.003853456784155826 
0.001415714093339356 
0.001415714093339356 
0.001349208763234819 
0.001415714093339356 
0.002229430582025662 
-0.0005543168448710203 
-0.00145667213562065 
-0.007433087411011608 
-0.0002482207883189514 
-0.0002482207883189514 
-0.0002646554109836179 
-0.0002365602379693949 
-0.0002482207883189514 
-0.0002482207883189514 
-0.0002365602379693948 
0.004456558631339086 
0 
0 
-0.000665434874091024 
0 
0 
-1.86611946191963e-21 
0.00591883245043327 
0.00588430759173843 
0.0008016913550930381 
0.0009638676297188037 
0.0008615457927341999 
0.0008286055186889961 
0.0008286055186889961 
0.02326337794997553 
0.0009040131920776428 
0.0009040131920776428 
0.0009040131920776428 
0.0008615457927341999 
0.0009638676297188037 
0.0009638676297188037 
0.001024349190343281 
0.002619035120075146 
0 
0 
-1.224227306578481e-20 
0 
0 
0.004473535016225731 
0 
0 
0 
0 
0.001513012394189997 
0.04839705324344323 
0 
0 
-8.556796319212056e-05 
0 
0.000403275506951892 
0 
4.693091923380858e-20 
0 
-0.004928554727818946 
-0.005124483839705644 
0 
0.001032383379090572 
0 
0 
0 
0.004375472068011283 
0 
0.0003643461595427264 
0 
0 
0 
-0.0107541607950532 
0.003164640234549231 
6.560270176484556e-19 
0.000384068464466979 
0 
-0.00492000219994984 
0 
-0.001022974827035911 
0 
-0.002887102811310522 
0.002999529453763266 
0 
0 
9.763678758523572e-06 
0 
3.769296615281637e-19 
0 
0.007517638633762373 
0 
0.004595579700586228 
0 
0 
0 
0 
0.0003019936401899429 
2.52509289691e-20 
0.002875249334229976 
0.115917918787803 
0 
0 
0 
0 
0 
0 
-0.001313105154906038 
0.01950805991296276 
0.02107897544716633 
0.01442171143657261 
0.008231729187736821 
0.01513258784495144 
0.01294781917949167 
0.007991868196996597 
0.004927983008062203 
0.01267635724574907 
-0.005597751369397218 
-0.0131827717107618 
0 
0 
-0.000838494738817948 
-0.0007530820458833915 
-0.01866956137584077 
3.396065569684664e-05 
-0.04194620876666908 
1.361870160507305e-20 
0 
0.005761231090405293 
9.224188795599331e-19 
0 
3.571834475809896e-05 
0 
0.001729621960758471 
-0.002496129859002002 
-0.0001374905054212569 
0.0008920797937919769 
0.0007686534365928894 
0.0007320443220835481 
0.006449785097182346 
0.01193679919890884 
0 
0 
-0.0009148198960726452 
0.004595579700586228 
0 
0 
-0.003495608910626309 
0 
0 
0 
0 
-0.001502262324086419 
0 
0 
0 
0.01238212630779168 
-1.461131834013668e-19 
0.002724924172627398 
0.005667065803451258 
-1.38066370402451e-19 
0.0002580779473801728 
-7.559769054244631e-20 
-3.053553774851753e-19 
-3.053553774851753e-19 
7.173310272059856e-20 
2.217108739438131e-19 
0 
-0.01187594177014069 
-0.003065632917754755 
0.002093883455049106 
-0.0001686306581094754 
0 
8.904433858010832e-20 
0.001717096154724832 
-6.507932433913054e-05 
4.235164736271502e-21 
0 
-7.22624983126325e-20 
-0.002072896993821216 
0 
0 
0 
-1.651714247145886e-20 
3.838118042246048e-20 
3.838118042246048e-20 
-1.678184026747583e-20 
0.001854708894557736 
5.234398916235559e-20 
-6.088049308390284e-21 
3.838118042246048e-20 
0.001231815919603705 
-0.00034911777744146 
0 
-0.001824643474216801 
0 
-0.0002736054006093475 
0 
0 
-0.002356050680599465 
7.027726484250523e-20 
0 
0.002626014516662119 
-0.01055696250505395 
-4.604418161715173e-20 
0 
0.0005494551576286177 
0 
2.355810384551023e-21 
-0.0004205441446887775 
0 
0 
-0.0001304702395107011 
0.0102522632884159 
0.009955635772271803 
0 
-7.372895275466209e-05 
0 
0 
0 
0.0008939191166891854 
0.0006130961295457236 
-0.0007117159559279782 
0 
-0.0004306594551836491 
-0.04509223240754829 
0 
0 
0 
0 
-0.003114523056640439 
0.008146380515347183 
0 
0.001206404579484311 
0.002056538024391309 
0 
0 
0 
0 
0 
0.00536464895332216 
-0.001033102424762177 
-0.001254002944700559 
-0.004599456441191275 
-0.004826173297216933 
-0.00496474313181527 
-0.009652346594433866 
0 
0.006914384735809282 
0.005569586770021812 
-0.005115591315776366 
-1.634244192608766e-19 
0 
1.386913053552348e-20 
0 
-0.01578313738983887 
0.00187580429139458 
0 
0 
0 
0.06729164763944255 
0 
0 
0.009059577237665428 
-0.003089889730469664 
0.002671738661767742 
0.009328466698587159 
0.002777950606668908 
3.093655490948324e-21 
4.956466230417742e-21 
0.00317434811566581 
0.002869973092346128 
-0.008227653064160701 
0 
0 
0.008060786425535631 
0 
0 
0 
0 
0 
-0.008958058168171365 
-1.230844751478905e-19 
-0.005980725747186991 
0 
0.00123223951878697 
0.0003687319372339489 
-0.004018979230873528 
1.878692607230436e-19 
0.006534240354975566 
0.002502450359594929 
0.002347052715374656 
0.002502450359594929 
0.002236796332152142 
0.001926001043715429 
0.002603340292545061 
0.00208139868793187 
-4.634353828083467e-19 
0 
0 
0 
-0.002371692650627683 
0 
0 
0 
0 
0.0004860936979837713 
-0.00255611904591977 
9.26442286059391e-22 
0 
0 
8.167581368348595e-21 
0 
-0.003596693344204272 
0.0002890530390737635 
0 
0 
-0.002810244596324189 
0.02920930853245288 
0.01065983040532133 
0 
0 
0.000354004379243526 
-4.740737526663912e-20 
-2.699917519373082e-21 
0 
0 
2.594038400966295e-20 
3.661829310098747e-19 
-0.005354830342430649 
-9.608529995415969e-21 
-0.001949487485132212 
-3.864587821847745e-21 
0.0006306422817156524 
7.014491594449675e-21 
0.01344747430190662 
9.550296480292236e-19 
8.597384414631148e-20 
0.0007084883137948273 
-0.001278059522957611 
0.02490022254737355 
5.368071303224128e-20 
-3.049318610115481e-20 
-1.744887871343859e-19 
-3.049318610115481e-20 
-0.0001150839445603648 
-5.510863356466095e-20 
0.003928630286180995 
-5.113961419047838e-20 
8.523066372496322e-19 
-3.970466940254533e-21 
0.03035655936738937 
-0.003020915898937759 
0 
0 
0.004832950236729082 
-0.0008589552993991773 
0 
0 
-0.01824310172183776 
-0.004038947971811901 
1.778769189234031e-20 
-0.001960286626241931 
0 
0 
-0.01458933271886446 
0 
0 
0 
0 
0.01463736739455741 
-0.003166896591533272 
0 
-0.0009938270653678015 
0 
0.001256614901522773 
8.656503013010313e-19 
0.01862575609472836 
0.0006330171643039049 
0 
0.004099407701566081 
0 
0 
0 
-0.019240306016537 
-0.02128083685220205 
-0.02351621903527383 
0 
0 
0.0008209664579786225 
1.293048733542893e-20 
0 
0 
0 
-2.009056271768794e-20 
0 
-3.091670257478196e-19 
0 
-0.001531514034762188 
-0.003453969866287002 
-0.001531514034762188 
-0.001491717772821197 
-0.001726984933143501 
-0.0008820894119594301 
-0.0002358594247741602 
-0.003453969866287002 
0.01194407676658032 
-0.001726984933143501 
-0.00164585718029804 
-0.00164585718029804 
-0.001726984933143501 
-0.001726984933143501 
7.691538925824328e-21 
-3.546950466627383e-21 
1.852884572118782e-20 
-0.005124483839705644 
-5.431598774268201e-20 
5.336307567702092e-20 
0.009185510120298642 
-2.943439491708694e-19 
5.336307567702092e-20 
2.275160274827103e-19 
-0.005072289669584422 
-0.000305607525797306 
0 
0 
0.0002253685872050698 
0.003639448289956544 
0.003639448289956544 
-0.007694622522120362 
0.01834569867151048 
0.01788144124164626 
0 
0 
-1.605127435046899e-19 
-6.839791049078475e-20 
9.913556622492782e-05 
0.01089835840330908 
0.003517134485979426 
-0.002581433671156218 
0.003289076416447694 
0 
1.494487892214869e-19 
2.863236059515552e-19 
0.005636690382512683 
-0.003062504190222758 
-0.003425391490567073 
0 
7.199780051661553e-20 
-1.429368098491632e-19 
-1.429368098491632e-19 
0.02285110103692427 
0.005312474801732261 
-0.007427677965507591 
0.001517849943350304 
0.0007232733129092364 
0.0007232733129092364 
0.002276774915031649 
-0.01731512983248142 
0.0006227769312436252 
9.253834948753231e-20 
1.248579503812042e-19 
1.643773313265377e-20 
-0.003463107645825113 
0 
0 
-4.785736151986797e-20 
0.01032043460097381 
-0.0008589552993991773 
0 
9.85122159956735e-05 
0 
-5.929230630780102e-20 
0 
0 
0 
0.0008602195994915092 
-0.006113597142068479 
0 
0.001071098611469083 
0 
-3.58996385848014e-21 
0 
0 
0 
4.645446320097803e-21 
0 
0 
-9.529120656610879e-21 
0 
0 
-0.000929345966289165 
-0.0009820498001600136 
0 
0.002085583672732281 
0 
1.234153473929117e-21 
0 
0.001273279032026024 
0 
0 
0 
-0.002952925991128932 
0.0155717296280959 
0 
0 
0 
0 
0 
0 
0 
0.02447353873225697 
0 
0 
0 
0 
0 
0 
0 
0.0005578401469950079 
0 
-2.705211475293422e-20 
0 
0.00632505181313129 
0.01043872649077818 
0.002691587533819865 
-0.0007635145913514571 
-0.005974164701715168 
3.044024654195142e-21 
0.004579087148354723 
-1.454514389113244e-20 
2.731681254895119e-20 
-1.267902442921281e-20 
-3.668711452795188e-20 
0.0006107670807430577 
0.001651444835461697 
0.0001076199273716359 
0.002128644230677279 
-4.049876279059623e-21 
-0.004618021290162965 
0 
-0.001322578929622642 
-0.0001793835925621202 
0 
0 
0 
0.001588384110153455 
0 
0 
0 
0 
0 
0.001801735426054063 
3.252606517456513e-19 
0 
0.003397480149247967 
0.001297807565096508 
0.01600127410437695 
0.008675337269763998 
0 
0 
0.001840099366063631 
0 
0 
0 
0 
0.0005765678043175384 
0.0232204076486428 
0.0006701727763147438 
0.014065544290023 
0 
0.0004523231599820747 
-0.002101937162237685 
-0.00241505237898687 
0 
0 
0 
0 
0.007389126148560803 
0 
0.003771211476785325 
-0.02219906304894886 
0 
0 
0 
0 
0 
0 
0 
0 
0 
0.00100451367601748 
0.0009573251130637212 
0.001004513676017481 
0.001403484516192894 
0.0009573251130637212 
-8.494152274184531e-20 
-3.525774642946025e-20 
0 
0 
0 
0.01439826977575233 
-3.732238923839261e-21 
0 
-0.0007520505234810493 
0 
0 
0 
0.01408929261801346 
-2.015938414465235e-19 
0 
-0.001254666629475884 
0 
0 
0.0004680313831388484 
0 
1.128671402216355e-19 
0 
0 
0 
-0.009541441081379338 
0.0019027763394792 
0.0001281437885852011 
0 
1.399721945337731e-19 
0.002595731206551472 
0 
0 
0 
-2.249931266144235e-20 
-0.0001048197158350186 
0.004375472068011283 
0.001869367361679872 
0 
0 
-1.483101751083076e-19 
1.297019200483147e-21 
-0.002337465929160474 
-0.004284975453072754 
0 
1.148126690223602e-20 
0 
1.717359300558094e-19 
0 
8.167581368348595e-21 
-0.0003096024555138084 
0 
-0.002498187688734449 
0 
0 
0 
0 
-8.020343219314156e-20 
0 
0 
-0.002445811079868154 
-0.004791382586607073 
0.01306451569317271 
0.01293013833795589 
-6.776263578034403e-21 
0 
0 
0.00333855385427632 
-0.001160378832906497 
0 
-0.004019195397422437 
0 
0.001098264190408812 
0.00211146641247143 
-0.0005401674714748049 
-1.048626788700824e-18 
0 
1.765004903841148e-19 
-7.279189390466644e-21 
-0.003118482158686773 
1.074673051828894e-20 
-2.249931266144235e-20 
-4.740737526663912e-20 
-0.001991388233901506 
-0.004141107236004744 
-0.01472574635210178 
0.003176768220312572 
0.008062040642846116 
0.001732935826854152 
0.003176768220312572 
0.000655712751457484 
-0.000305607525797306 
0 
-0.00255230536848332 
6.993315770768317e-20 
-3.461337273228144e-20 
0.008255395304915952 
2.696195206616594e-20 
-0.0001418941753779961 
4.689080097409976e-20 
0.001801735426054063 
-3.461337273228144e-20 
0.001471988709672877 
8.780540932689348e-05 
0 
0 
-0.005152526413180068 
4.526332311890167e-21 
0 
0 
0.007597405572465809 
0.01519481114493162 
0 
0.01485319462421074 
0 
-1.435720845596039e-19 
0.004360905376351848 
0.008976607178709092 
0.004638983693733816 
0.0053962544495937 
-0.009653641502064452 
0.001716444670494649 
0 
0 
-0.001144225708673602 
-0.0003334194965972314 
0 
-0.001394369990248388 
0 
0 
0.001449041947498547 
-5.188490392238866e-22 
-0.00034911777744146 
-0.00132886733196052 
0 
0 
0 
-7.372895275466215e-05 
0.00021328425065326 
1.399721945337731e-19 
-0.0008063094173490358 
0 
0 
0 
0 
-7.755412778749907e-21 
0 
0.002198597359470811 
0 
-0.01100718656542379 
0.00416701013960448 
4.007524631696908e-20 
0 
0 
2.144052147737448e-20 
0 
0 
0 
0 
0 
0 
0.008931131625153485 
0 
0.003767452888099494 
-4.870439446712227e-20 
0 
-0.003345509545157633 
-0.003066446038882852 
-0.004907535234700523 
-0.001157123078376522 
-7.05154928589205e-19 
0.01329324253619625 
0.003543346017217254 
0.002861196059527717 
0.002401594816056375 
0.003540490020974183 
0.00304364362884392 
0.00316464023454923 
-1.349958759686541e-21 
0 
-3.22931311140702e-20 
-1.505601063744519e-19 
9.271682888124337e-05 
0 
0 
9.926167350636332e-23 
0.0005161916895442585 
0 
0 
0 
0 
0 
0 
-0.0003334194965972314 
0 
-0.004414364791542154 
-0.004414364791542154 
0 
1.432015076451802e-20 
0 
0 
0 
-2.079465885509307e-19 
0 
0 
0 
7.161663569035109e-19 
0 
4.878930455700084e-19 
0 
0 
0 
0 
-0.02266131383956683 
0 
7.882700365385333e-20 
-0.005820551658779469 
0.001804824844046597 
0 
0.005540437568132621 
0 
0.0005522031685096739 
0 
1.688771938588261e-20 
0.000187192806303566 
0 
0 
0 
0 
9.593526662501506e-05 
0 
7.681530040412436e-20 
-1.757593365552673e-20 
-1.757593365552673e-20 
4.658681209898652e-20 
7.30565917006834e-21 
0.02790598080913227 
7.30565917006834e-21 
-0.001560925056795082 
0.007329348218589018 
0.00523179144336743 
3.153080146154133e-19 
6.760381710273385e-20 
7.30565917006834e-21 
0.001261147001366054 
0.030246782828819 
0.001943613767381595 
2.502982359136458e-19 
0 
0 
0 
0 
-1.204904367469242e-19 
0 
0 
1.752167060734325e-19 
0 
0 
0 
0.00350669601535738 
0 
0 
3.560185356428231e-21 
0 
1.969351602366248e-20 
3.560847100918274e-20 
0 
0 
1.816520885210338e-18 
0 
0 
0 
0 
0 
1.429368098491632e-21 
0 
0 
0 
0 
0 
-0.002459830246469777 
-0.0009939382072288174 
-0.001057317859020081 
-0.06841382089374048 
-0.01817684396251803 
-0.01761837771360406 
0 
0 
0 
0.004169927590058205 
0.004010494906707436 
-2.285020267728735e-19 
0 
0 
-0.005303050811394585 
-0.008513759389148378 
0 
0 
0 
0 
-0.0002398960681064118 
-2.979438391967001e-19 
7.009197638529335e-20 
0 
-0.0002494328646248501 
0 
0.002064102625299169 
0 
0 
-0.0001418941753779962 
0 
0 
0 
-0.00201304040194844 
0 
0 
-0.002033663563550704 
0 
0 
1.000557668944142e-19 
0 
0.009178683008087978 
0 
0 
0.001080102402702667 
0 
1.563834578868252e-19 
0 
0 
0 
0 
0 
0 
0 
0 
-0.01184183640316907 
0 
0 
0 
-0.002662378832641089 
-0.004760194256223575 
-0.001727289525226546 
0 
-1.134560928177733e-20 
0 
0 
-0.0009599064410782451 
1.148126690223602e-20 
-0.0001793835925621198 
0 
0 
0.002979105501244317 
0 
0 
0 
0 
0 
0 
0 
-2.811090593700209e-20 
0 
0 
0.000655712751457484 
0 
-0.01112743985319813 
0 
0.007319136561784593 
-0.007307069807165101 
0 
0 
0.007613567074026987 
0 
-0.001239342502391336 
0.0006178872196046428 
0.00732247054962278 
0 
0.0005888610244847996 
0 
0.01533139058859178 
0.00402798689372231 
0 
0 
0 
-0.00142929000884261 
0.004414890460626216 
0 
-1.287754777622553e-20 
-2.337281538829835e-20 
0.0005100542760107302 
0 
0 
0 
-1.257314531080602e-20 
-1.144983403895901e-20 
-1.144983403895901e-20 
0.0009739558169892049 
9.157302971268293e-21 
-1.257314531080602e-20 
-1.257314531080602e-20 
0.002141827028377634 
-2.649459502007348e-21 
-0.00142929000884261 
-1.257314531080602e-20 
0 
0 
-1.124965633072118e-20 
0.006577053653408632 
0.006268086520572177 
0.007012518369200861 
0.006885997263210947 
0.0005994886044467853 
0 
0 
0 
0 
0.005042342387650849 
0 
0.006952560397608153 
0 
-0.01525729622542752 
0 
9.868678298063897e-21 
-0.0001605991854345086 
0 
0 
0 
0 
1.937587866844212e-20 
-0.002287121607172744 
0 
0 
0 
0.0001051553162585656 
0 
-5.653944922922455e-20 
0.0001170999250818951 
0 
0 
0 
0 
0.004345281208156438 
0 
0 
0 
0 
0 
-0.002715056155547297 
0 
-0.005115591315776366 
0 
0.001651444835461697 
-0.01570560218194383 
0.001801735426054063 
0.001717096154724832 
0.001801735426054063 
0.001597803801859074 
0.00192102777891982 
0.003434192309449665 
0 
2.38228016415272e-22 
-3.120787015040063e-20 
-3.891057601449442e-21 
-0.001394369990248388 
0 
-0.001939475883937974 
0 
0.0001565787853157367 
0 
0 
0 
0.007642622056025987 
0 
-0.00132886733196052 
0.01127885132219715 
0.000266198796386305 
0 
0 
-0.0007765936522959738 
0 
0 
0 
5.563947672276685e-20 
1.429368098491632e-21 
-7.009197638529335e-20 
0.000542006138343631 
1.429368098491632e-21 
-0.0009599064410782448 
-6.617444900424221e-21 
-2.451101591117132e-20 
9.251187970793062e-21 
1.429368098491632e-21 
1.429368098491632e-21 
0.0005765678043175384 
0 
0 
-0.02065010979194827 
0 
-0.0279089050975416 
0 
0.002182351987189935 
-0.003586412881626408 
0 
0 
0.0007364801557253422 
0.0006582972184494954 
0.003380500861814788 
0.007094265680787169 
-0.006179779460939327 
0 
0 
0 
0 
0 
0 
0 
-0.00729444627396211 
0 
-0.00729444627396211 
0 
0 
0 
0 
-0.001336498599120269 
0 
-0.01476000659987582 
0 
0 
0 
0.004639624740605741 
0 
0 
0 
0 
0 
0.0004523231599820747 
1.752167060734325e-19 
1.752167060734325e-19 
7.93881629814093e-19 
-2.567568621364598e-21 
0 
0 
-0.008195110485312579 
9.271682888124337e-05 
0.019954723341928 
0.03990944668389743 
0 
0 
0 
3.771414197649772e-19 
-0.001347627056496931 
0.0002831732792057722 
0.001783796100628442 
-0.001394369990248388 
0 
0.005189006686562123 
0.00462184654898268 
0.001540615516323367 
0.001412106073440797 
0.003511104191928158 
0.00462184654898268 
5.055727903924105e-20 
0.0001292580295896099 
-0.0001195871492038555 
-0.0001243412008945704 
-0.0001124186408781993 
0.001946131386496382 
0 
-0.0003334194965972314 
0 
-0.001531784151218391 
-1.230844751478905e-21 
3.531068598866365e-20 
4.071052102740981e-20 
0.0002426077741471703 
-0.003510348879177869 
-0.002115978888929478 
-0.002016577551353929 
-0.002115978888929478 
-0.0009357823754090902 
0 
-0.0001524880230200486 
1.292784035746876e-19 
0 
-0.0003199963447387238 
0 
3.130580833492691e-19 
0.004559469233775716 
0 
0 
0 
0.002280514379420556 
2.345222472710344e-19 
-0.0001466578079470335 
2.983144161111239e-20 
-9.412653626363413e-20 
0.0171723061034575 
-6.606856988583543e-20 
-1.132906566952627e-19 
-9.820288232229545e-20 
-0.0007986184630672384 
-0.001373092415228576 
0.005929872205177888 
-0.002881322058800196 
0 
0 
0 
0 
0 
0 
0 
0 
0 
-0.0002864874739826749 
0 
0.0152310866128645 
0 
0 
0 
1.172611236355172e-19 
0 
0 
1.691948312140465e-19 
-6.372599439108525e-21 
-3.228254320222952e-19 
0.0004502208228265651 
-5.658180087658726e-19 
0.001957736367459825 
0.002087357495061571 
0.001957736367459825 
0.001957736367459825 
0.002612921854902485 
-1.055826568752485e-18 
0 
-0.01101364300287212 
-0.001288790470931151 
0.001370973789958924 
0.003442636721333123 
0 
0 
-3.624705444207367e-21 
0 
0 
0 
-0.0007338712000054971 
0 
0 
-0.002944737444793969 
0 
0 
2.064642808932357e-21 
-9.486769009248164e-20 
0 
0.004012803128066221 
0.001618685936471966 
-0.001394369990248388 
0 
0 
-8.085690487705846e-23 
0 
0 
0 
0 
0 
-4.594491994364537e-20 
0 
0 
0.001412106073440797 
0 
1.070173189296605e-19 
3.520480687025686e-21 
0 
0 
0 
0.001783796100628442 
0 
0 
0 
0 
0.005581761702262457 
0 
-6.741351535316527e-05 
0 
0 
0 
4.912791094074942e-20 
0 
0 
0 
4.693091923380858e-20 
0 
0.004456558631339086 
0 
0 
0.008141166233051372 
-0.0004441159750042111 
-1.730594190358942e-19 
0 
0 
0 
0 
0 
0 
0.002550801274615679 
-7.5882848796028e-05 
0 
0 
0.001412106073440797 
0 
0 
0 
0 
0 
0 
0 
0.01340479388108873 
0 
0 
0 
0.003219680267369168 
0.0001628033976090818 
0.001544676205040787 
0 
7.30565917006834e-20 
0 
9.217273565678387e-21 
0 
0 
0 
8.656503013010313e-19 
8.656503013010313e-19 
0 
0 
0 
-0.0005190895644213509 
0 
0 
0 
0 
0 
0.002975664220811973 
0.007979324891670535 
0.002659774963890183 
0.002975664220811973 
0.002659774963890183 
0.002975664220811973 
0 
0 
0.002085583672732281 
-1.067261513540418e-19 
0 
0 
0 
0.001506230467172172 
0 
0 
0 
0.002863219813793122 
0 
0 
-0.005316966132377129 
0 
-0.005705821031305593 
0 
-0.01144690999928674 
0 
-0.003826040772543082 
7.388873539691175e-20 
-0.002193100865838945 
-0.0006778008777217016 
-0.002056913266040175 
-0.002056913266040175 
-0.003163396704584839 
-0.002056913266040175 
-0.002407849419548987 
0 
0.007039297270417009 
0 
0.0004990195982243034 
0.0004990195982243034 
0.0004680313831388484 
0.0004990195982243034 
0.0004680313831388484 
0.0004990195982243034 
0.0009360627662776968 
0.0009980391964470813 
0.0004680313831388484 
0.007333946575509219 
0.0004990195982243034 
3.97681968735894e-19 
3.859293865927406e-20 
3.520480687025686e-21 
-1.86611946191963e-21 
-0.01022642450193697 
-1.680831004707752e-21 
3.520480687025686e-21 
-9.180513659256531e-19 
-1.86611946191963e-21 
-1.86611946191963e-21 
3.520480687025686e-21 
-0.002788739980496775 
-1.86611946191963e-21 
3.520480687025686e-21 
-1.86611946191963e-21 
0 
0 
1.223120952509191e-20 
0.02194873550407818 
-5.188490392238866e-22 
0.0001281437885852011 
1.223120952509191e-20 
1.223120952509191e-20 
9.868678298063897e-21 
-5.188490392238866e-22 
-5.188490392238866e-22 
-0.0002872882489548862 
-0.0002956810037552146 
1.202648232348504e-20 
0.00351525175804851 
-5.188490392238866e-22 
-0.05482144484152122 
0 
0 
-0.0003748940272462407 
-0.002325197328406128 
-0.008210292261557081 
-0.001787743330493197 
3.091670257478196e-19 
-1.884648307640818e-19 
0 
-8.154827753296205e-05 
0 
0.004271328712000171 
0 
0 
2.591391423006125e-20 
0 
0 
0 
0.001854708894557736 
0.002295199715629541 
-0.0003794142439808379 
0 
0 
0.007289818460991519 
0 
0 
-0.0002446448325988866 
0.001840099366063631 
0.0001565787853157366 
0 
0.004671775249334952 
-0.001536001088065211 
-0.001536001088065211 
0 
0 
0 
-1.9730985689824e-18 
6.956258079325942e-20 
0 
-0.0003334194965972314 
0 
0.002431769623121712 
-0.005521690793617333 
0 
0 
0 
0 
0 
0 
0.01132305563518329 
0 
-0.000332717437045512 
-0.000186514784142353 
0 
1.361870160507305e-20 
0 
-0.004069681084547589 
-0.004450606190112476 
-0.004450606190112476 
-0.008348463180110871 
-0.004450606190112476 
-0.001542623082257677 
0 
0 
-0.001802873445764049 
0 
0 
0 
-0.003854035466961001 
0 
0 
0 
0.007353725290622169 
0 
0 
0 
0 
0 
0 
0 
-5.849821291975012e-21 
-0.002803782834446432 
0.008395295095909212 
-0.008874199857280649 
0 
0 
0 
0 
0 
0 
3.785178483042655e-21 
0 
-0.02470387582290106 
0 
-0.00463311842186943 
0 
0 
0 
0 
0 
-0.002026647970603958 
-0.001714908139079473 
-0.003429816278158947 
-0.003429816278158947 
0 
-4.293398251395235e-20 
0 
0 
-0.003089889730469664 
-0.006179779460939327 
-0.003089889730469664 
-0.002944737444793969 
-0.002944737444793969 
-0.003089889730469664 
-0.006179779460939326 
-0.006179779460939326 
-0.008496445755159805 
-0.006588940773642873 
-0.01853933838281799 
-0.003089889730469664 
-0.003089889730469664 
-0.003294470386826478 
-0.006179779460939327 
-0.003089889730469664 
-0.01544944865237355 
-0.003294470386826478 
-0.01853933838281799 
0.02285934941789192 
0 
0 
0 
0.0111852758065686 
-0.003417935663164081 
0 
0.001642619199631192 
0.0005937874477780276 
0.01028791854594917 
-0.0008932185636567465 
-0.001007222243104556 
-0.001073910120526057 
-0.003221730361581461 
0 
0 
0 
0 
-0.002473789448916895 
0 
0 
-0.003417935663164081 
0 
0 
0 
0 
-3.039061570519824e-19 
-7.940933880509066e-21 
0 
0 
0.002812267002170637 
0 
0 
0.0003089436098023214 
-0.006113597142068479 
-0.01094230304024548 
-0.0068396809967351 
0 
0 
9.846758011831241e-21 
-3.059496240372334e-18 
0.003963835584253508 
1.102731018206692e-19 
1.085260963669572e-20 
5.955369538136778e-20 
-4.817499887508833e-20 
0.0004860936979837714 
0.002049398317922215 
0.0006408730713270621 
0.001366610163707931 
0.0006408730713270621 
0.0006833050818550112 
0.001221534161486115 
0.001922619213986413 
0.0005874150602385913 
0.0006107670807430577 
0.0005874150602385913 
0.0006833050818550112 
0.02843237158643749 
0.02541406035691536 
0.02666677270165358 
0 
0 
-0.00355789625196331 
0 
0 
0.00143108377067051 
-0.001169333459381346 
5.005964718272915e-19 
0.02258980196300216 
0.02258980196300216 
-0.03993202333951187 
-0.03993202333951187 
0.001308831656398623 
-0.0002329876176121323 
-4.647283346977946e-05 
-5.199219846536056e-05 
-0.003731902750592129 
0 
-2.032879073410321e-20 
0 
0 
0 
0 
0 
8.970608307015075e-20 
0 
0 
0 
0 
0 
8.364450354136216e-21 
0 
0 
0 
0 
0.0005359825093267513 
0 
0 
0 
0 
0 
0 
0 
-6.336865236646234e-20 
-2.928616415131743e-19 
0 
0 
0 
0 
0 
0 
4.129285617864714e-21 
0 
0 
0 
0 
0 
0 
9.217273565678387e-21 
0 
0 
0 
-0.003586793608051667 
0 
0 
0.002269108919046812 
3.708416122197734e-20 
0.005566698945462569 
0 
-0.002595743759143156 
0 
-2.567568621364598e-21 
0 
0 
0 
0 
0 
0 
0 
0.0005578401469950079 
1.172611236355172e-19 
0 
0 
0 
0 
-0.004760194256223576 
0.00765819628535773 
0 
-0.001394369990248388 
0 
0 
0 
0 
0 
0 
0.0003643461595427264 
0 
0 
0 
0 
0.001946131386496382 
0 
0 
0 
0 
0 
0.000772964658884639 
0 
0.00439693566653992 
0 
0 
0 
0 
0 
0 
0 
0 
0 
0 
0 
0 
0 
0 
0 
0 
0 
0 
0 
0 
0 
0 
0 
0 
0 
0 
0 
0 
0 
0 
0 
0 
0.004671775249334952 
1.432015076451802e-20 
-0.002828108841916984 
0 
0 
0 
0 
0 
-0.000118947511370071 
1.359223182547135e-20 
0 
0 
0 
0 
0 
0 
0 
0 
0 
0 
2.064642808932357e-21 
0 
0 
-3.727275840163943e-21 
9.008510888306412e-05 
0 
0 
0 
0 
-0.008095316346200041 
0 
0 
0 
-0.0204671603967819 
0 
0 
0 
0 
0 
-0.006615011672592858 
0 
0 
0 
-0.001344665985685508 
0 
0 
0 
0 
0 
-1.169964258395002e-20 
0 
0 
2.452160382301199e-19 
0 
0 
0 
0 
-0.006574509159957061 
0 
0 
0 
0 
0 
0 
0 
-2.358457362511193e-20 
0 
0 
0 
0 
0 
-0.0003177566069016264 
0 
0 
0 
0 
0 
0 
0.0001628033976090818 
0 
-6.84822289355427e-05 
0 
0 
0 
0 
0 
0 
0 
0 
0 
0.0001708283185814105 
0 
0 
0 
0 
0.002380958057457789 
0.007776888461081908 
0 
0 
0 
0 
0 
0.001854708894557736 
0 
0.001088588069741269 
0 
0.0006306422817156525 
0 
0 
0 
0 
-3.991973636180912e-21 
0 
0 
6.385007148296821e-21 
0 
0 
0 
0 
-0.005115591315776366 
0 
0 
0 
0 
0 
0 
0 
0.004738317063554895 
0.0009739558169892051 
-0.008351120832655217 
0.00211146641247143 
0 
0 
0 
0 
-8.629148150153185e-21 
-0.005115591315776366 
0 
0 
0 
0 
0 
0 
0.001424851008204462 
0 
0 
-0.006692155239854091 
0 
0 
0 
0 
0 
0.001854708894557736 
1.578260608751177e-21 
-2.554333731563749e-21 
0 
0 
0 
0 
0 
0.006165413105148171 
0 
0 
0 
0 
0.001006653196132881 
0 
0.004446309413229787 
0 
0 
0 
0.01045526168080016 
0 
0 
0.01848578175619616 
0 
0 
0 
0 
0 
0 
1.359223182547135e-20 
0 
0 
1.578260608751177e-21 
0 
0.004559469233775716 
0 
-1.279813843742044e-20 
-3.249959539496344e-19 
0 
0 
0 
0 
0 
0 
0 
0 
0 
0 
-1.405545296850105e-20 
2.702035101741218e-19 
0 
0 
-2.567568621364598e-21 
0 
0 
0 
0 
0 
0 
0 
0.0001708283185814105 
0 
0 
1.55234504015989e-19 
0 
0 
0 
0.0001045505055078488 
0.0220716174290367 
0 
0.0001221240385517728 
0 
0 
0.002380958057457789 
1.691948312140465e-19 
0.004986020055898558 
0.02510415949781308 
0.004830387346704334 
0 
0 
-1.491910707618883e-20 
0 
0 
6.385007148296821e-21 
0 
0 
0 
0.001323783543648689 
0 
-0.0002956810037552145 
0 
0 
0 
0 
-0.001722468540198762 
1.037615360386518e-20 
0 
0 
0 
-1.809209435775982e-20 
0 
0 
0 
0 
0 
0 
0.001093503434533686 
0 
0 
0 
0 
-0.003261116646455411 
0 
0 
0 
0 
0 
0 
0 
0 
0 
0 
0 
0 
0 
0 
0 
0 
0 
0 
0 
0 
0 
0 
0 
0 
0 
0 
0 
0 
0 
0.002269108919046812 
0 
0 
0 
0 
0 
0 
0 
0.001783796100628442 
0 
0 
0 
-3.474952666110767e-19 
0 
0 
0.0006880342084311838 
0 
0 
-0.003683936823244519 
0 
0 
0 
0.004011687261410292 
0 
0 
0 
0 
0 
0.004372410810304932 
0 
0 
0.004679428559197994 
0 
0.003026680392748509 
0 
0 
0 
0.004902056851113387 
0 
0 
0 
0 
0 
0 
0 
0 
0.001618685936471966 
0 
0.0006880342084311838 
0 
0 
0 
0 
0 
0 
-0.00107199964292963 
0 
-0.0001150839445603648 
-0.0006582558897456766 
0 
0 
-0.003390758645699619 
0 
0 
-1.236800451889287e-20 
0 
0.003152770210484998 
0 
0 
0.028131088580046 
0 
0 
0 
0 
0.004043400141241232 
0 
0 
0 
-1.287754777622553e-20 
0 
0 
-5.10072652924699e-20 
0 
0 
0 
0 
0.004538217838093624 
0.005856016015648195 
0 
0 
-0.007151976966752033 
0 
0 
0 
0 
0 
0 
0.002338191956532442 
-0.0002494328646248501 
0 
0 
0 
0 
-0.003012003141991603 
0 
0 
1.32560656245298e-19 
0 
0 
6.385007148296821e-21 
0 
0 
0 
0 
0 
0 
0 
0 
0 
0 
0 
0.004480081941475124 
0 
0 
-0.004527353870871336 
0 
0 
0 
6.385007148296821e-21 
9.217273565678387e-21 
5.616887231480079e-20 
0 
0 
0 
-6.998609726688657e-20 
0.00416701013960448 
0 
0.00199983157929831 
0 
0 
0 
0 
0 
0 
0 
0 
0 
0 
0 
0 
0 
0 
0 
0 
0 
0 
0 
0 
0 
0 
0 
5.616887231480079e-20 
0 
0 
0 
0 
0 
0 
-1.405545296850105e-20 
-0.00071226452936192 
0 
0 
0 
0 
0 
0 
0 
0 
0.003123788612441746 
0 
0 
0 
0 
0 
-4.08164001458166e-20 
0 
0 
-0.002595743759143156 
-0.0003199963447387238 
0.0159357582678408 
0 
0 
-6.84822289355427e-05 
-6.276982827839132e-05 
-6.84822289355427e-05 
-6.84822289355427e-05 
0 
0.001088588069741269 
-3.134021904840911e-20 
0.0006880342084311836 
-3.134021904840911e-20 
0 
0 
0 
1.494487892214869e-19 
0.0001281437885852011 
0 
0 
0 
0.001177722048969598 
0 
0 
0 
-0.005377080397526598 
0 
0 
-5.849821291975012e-21 
0.001556797225749707 
0 
0 
0 
0 
0 
0 
0 
-0.003143661888783805 
0 
-2.8031496598197e-20 
0 
0 
-0.01245809222658466 
0 
0 
0 
0 
0 
-0.01217133509092857 
-0.0003568425341108489 
-0.01674082910248412 
9.926167350636332e-23 
0 
