solver_type L2R_L2LOSS_SVC_DUAL
nr_class 2
label 1 -1
nr_feature 6847
bias -1
w
0.2508436619479926 
0.01541834477986973 
-0.03740808028387054 
-0.009305145016935017 
0.003260550521811877 
0.006328598973445162 
0.02990785097519458 
0 
0.09933375826444189 
0.00461910246132775 
-0.07246135449308309 
-0.1956089387002496 
1.142841399256556 
-0.1661235286385177 
-0.2237442525573231 
0.01576057074116637 
-0.9975989191623679 
-0.04638552555879982 
0.09707656846445858 
-0.006272210412303046 
-0.2126735222080216 
-0.002675597122701674 
0.0104311550608707 
-0.0002203430732819287 
-0.05721888454569037 
0.0002803762757757312 
-0.005787899400174762 
0.01325061777596986 
0.01964216250164886 
0.006651154097267272 
1.204012767535127 
0.2095509966643633 
0.2827333916001439 
0.003698474938253646 
0.4552474277070622 
0 
0.489789124832758 
-0.01687419030936256 
0.1573700982039775 
0.05920748223035738 
0.0983404098362838 
0.1169695235608551 
0 
-0.01391316771222383 
0.1506155378053542 
-0.08239906249089091 
0.6034154045528159 
-0.3379798578469045 
0.1256442946680408 
0.01031832541689873 
-0.2510787927485702 
0.0769797542401736 
0.01582520085357913 
-0.3010818792825872 
-0.01656062330982347 
0.005963048989920957 
0.01505245532278025 
0.05156608459385215 
0.3472905448429856 
-0.06543998430241998 
-0.1541965339279373 
0.0003110974968141648 
-0.1238841250364338 
-0.02478023226548618 
-0.03947795569395353 
-0.01795683171079703 
0.7672441661536086 
-0.01368776610272295 
0.007552682360099408 
-1.068838722021636 
2.056316119447078e-05 
-0.04576336418684844 
-0.00249618429930914 
0.1460859361786678 
-0.2433896877221003 
0.02931500564771007 
-0.0002447519654181583 
0 
0.2774046504038499 
0.1713511998901621 
-0.07748678213514552 
0.389201253699536 
0.1173170290820749 
0.6977740763682804 
0.1581947543727575 
-0.009371282017206961 
-0.5896644904702625 
0.1497744766439909 
0.2477577755233915 
0.04914561634927871 
0.108203341298068 
0.01351506134795041 
0.007138252894478566 
-0.199864385457335 
0.136971295487895 
0.1486670988971987 
0.03297157703278955 
0 
0.2045363700882483 
1.65026777783787 
0 
0.07270683367722044 
-0.07108286724410673 
0.6074179530934676 
0.03808968969387402 
0.1536277207937665 
0.7269055439822533 
0.2371804084385825 
-0.03654182406566203 
0.3368995754855754 
-0.1211982343394331 
0.1599550059699283 
0.5665263912136048 
0.4313540716899023 
0.05662913079983925 
0.09561808865728347 
0.2472760610293001 
-0.1972487049599115 
-0.2450250540030659 
-0.2288984594500818 
0.02327592439507689 
0.1967037072110636 
-0.008647039082482325 
0.06833163795608621 
0.1737806760179678 
-0.03047794280774897 
0.007767412006160508 
-0.007652748492068069 
0.1035865373094866 
-0.07189984446422465 
-0.01383397893659773 
-0.06672130804698113 
0 
0.1614618209534976 
0.07288694226937377 
0.05371043784074644 
0.5391316167640139 
-0.0001766422934108459 
0 
0 
-0.4270381319762094 
0.1171692256337147 
-0.4765423004627858 
-0.05938110153533353 
0.1913232864870774 
-0.07299027097363811 
-5.888070558951738e-05 
0.05108362375151891 
-0.0660950764181875 
3.795186888915113e-05 
0.08877254545882958 
0.1705006344541672 
0 
-0.01495870809158069 
-0.05117908240010085 
0 
0.09442494981019389 
0 
-0.1080830629667255 
-0.196952197306527 
0.006905048508070647 
-0.1390746591439588 
0.009921248097900277 
7.089665768518494e-19 
0.01739776691433465 
-0.001603180647626102 
-0.2200819042798873 
-0.02385603001151093 
0.1231580645649103 
0.005849787065279621 
0.03816149553450706 
-0.05737940272166395 
-0.08077567263709211 
0.001671617289486003 
-0.03944499624952954 
0.01224028179678312 
-0.05490264837057639 
0.07110386916951682 
0.07710092334954592 
-0.02644185365587495 
0.07602612785653723 
-0.09019482107153756 
0.04508110462170754 
-0.1326194396699203 
0.0003157011449446495 
0.1755420959432535 
0.2197542893628127 
0 
-0.009190019643073246 
0.03672335517461708 
0.05518762807232838 
0.03536460301466855 
0.1000171785307519 
-0.04210898042063342 
-0.06090575887423654 
-0.06764915877311413 
0.01116121842341396 
0.05954311947428339 
0.04535314275256792 
-0.0219412808064973 
0.130637936662154 
0.07558348280735973 
-0.04226046199877358 
0.02021919814881808 
0.01505245532278025 
0.03669778258283217 
0.5612215362673192 
0.02041521493764947 
0.08207602909407383 
0.01960714995275887 
0.006312191584619747 
0.1484323690470327 
0.0473942908893374 
0.1176525819492398 
-0.07545797813066969 
0 
0.04748368626396211 
-0.1162845052274152 
0.119201583853605 
-0.04358985657289188 
-0.04516389470378087 
-0.1198360552909279 
-0.2701330080159508 
-0.004594910769288053 
0.04037164943948617 
-0.07503755321299879 
0.1769193998421458 
0.01658977568384639 
0.07173387530178831 
0.03466616140389127 
-0.1917765071385838 
0.05250759127324546 
-3.645932015271963e-05 
0.05702471992389492 
-0.0827421577260206 
0.3099015799401206 
0.1660350144610883 
0.06703796139367361 
-0.06816286363358773 
-0.09078926225911851 
0.04471668335250287 
0.02653173195523002 
0.1057351202521341 
0.1827825649858736 
-0.3888528727801926 
3.9122334251308e-19 
-0.1190829383540879 
-0.05813374831031336 
-0.06929706682342958 
-0.7829864786694986 
0.1111120440256346 
-0.00297030505933729 
0.1740278541180128 
-0.1099891861732392 
0.03445938271124918 
0 
-0.4763290762707587 
-0.3715521189023193 
-0.5751933886423343 
0.1423604640391706 
0 
0.06950081532040184 
-0.01319539160997195 
0.04986794260345944 
0.005570397201494033 
-0.1523550651937591 
-0.01067463832922915 
0 
0.08724534954579406 
0.0390327517338081 
0 
-0.1650413794789946 
-0.2897496093240656 
-0.08654575447941351 
0.4547304794512739 
0 
-1.113445885755018 
-0.05467888582542826 
-0.6086417767677724 
-0.3253482799648062 
-0.1195083304516909 
0 
1.905824131322176e-20 
-1.949763965460993e-19 
0.06271498849481399 
-0.6346493302941998 
0 
0 
-0.2471510222914735 
-1.427982335279181 
-0.08172737564811421 
0.05142642510444181 
-0.2960311761106694 
-0.2051742135942582 
-0.2951629905029051 
-0.134931408950122 
-0.01025604168553881 
-0.2120696192622864 
-0.1372725532321065 
-0.006486120541604538 
0.1955008989072382 
0.0834648942230788 
0.009472092264393982 
0 
-0.2592593376903082 
0.1024680965360662 
-0.1006015430130767 
-0.01597297215055394 
-0.03833706134587378 
-0.004154630909755336 
-0.04632725147387282 
-0.2885163615138435 
0.002937109147222072 
0 
0.01509971622160599 
-0.09721865770708926 
0 
0.2626591462924146 
0.07567430090305527 
0.2241430277870761 
0.09990681545170613 
-0.2311058620242524 
0.2036961753565468 
0.06098098350684346 
-0.02052451093755744 
0.723142188289053 
0 
-0.003936455633482824 
-0.2127914559340007 
-0.09186184803655661 
-0.000684871026410739 
0 
-0.09985709831929378 
0.005839485394893895 
0 
0.2075387823071274 
2.315013836739907e-19 
0 
0.2269257102253457 
0 
0.00931293343682601 
0 
0.01083713162468643 
0.04787797028270811 
0.08825968299860081 
-0.1008339355231531 
0.1885427262975416 
0.1455360229133318 
0.1446453138652059 
0.01675820072531102 
0.04404190536669289 
0.01468062044159584 
-0.03989040800156682 
-0.07908309751545678 
0.04404190536669289 
-0.0149318728482837 
0.02202095268334645 
-0.07947977883406564 
0.06300921077069083 
-0.1104195595848101 
-0.3576651943663159 
-0.03461606178459275 
-0.1475490577699551 
0.04404190536669289 
-0.02887397654965212 
0.01117894362808422 
0.01439963818219902 
-0.008877819641832438 
0.04526342675818702 
0.003017509818661839 
0.1162240112774999 
-0.1230907756830586 
0.1449175353680881 
-0.02013482696711729 
-0.01143122003471988 
0.04404190536669289 
-0.04929980404960679 
-0.0178315091591667 
0.03635916851245503 
0.01421672878817074 
-0.01372845308188869 
0.08716628033825083 
-0.02105538711004526 
-0.02356217995783154 
-0.02624656391284852 
0.3419713765107895 
-0.2364374141330176 
0.2181572293036725 
0.1348603407444699 
-0.03419793426701236 
0.01926357995263439 
0.00838066956268259 
-0.07413382748718972 
0.02545676454256281 
-0.02669974913287515 
0.1627709490277002 
-0.03629737566886475 
0.02019153569967948 
-0.01633867271336497 
0.1620653202576113 
0.1098568885393693 
0.02114213539019402 
0.1090786146518362 
0.0392341758802117 
0.2395116445665328 
0.04051731659215099 
-0.1331730706288009 
0.1379351717386453 
0.1064083022115366 
-0.01805916778180622 
-0.08045033710625626 
0.3675800081064872 
-0.4091017886275138 
-0.1498966578146494 
0.04279417000610586 
-0.1635762399636292 
-0.00760668812470067 
0.001546395227143996 
0.1375998285111759 
-0.07129711573610024 
0.01975884333980132 
-0.1093904337775774 
-0.07578695613843331 
0.002852961969453458 
0 
0 
0.11965161977439 
0.02992948873800666 
-0.4749360040560892 
0.004741894566758734 
0 
0.1350363244308723 
0.2976868897771057 
0.1433129749224832 
0.1004592173811791 
0 
0.2181572293036725 
0.046691587494214 
-0.04605570623595048 
-0.03495100047197711 
-0.3923761665076742 
-0.003208267958089394 
0.07213061736298917 
0.09477099226310068 
0.04767196721297548 
0.04571782556932039 
0.116739386463995 
0.0622863139083402 
-0.005844039651564831 
-0.2000814737724697 
0.05203738610398785 
-0.1916958435492978 
-0.3855990225545512 
-0.01601680988649554 
0.07313957915395712 
0.334145281554331 
0.1236547533900871 
0.02350143400259402 
-0.1011795778588235 
0 
-0.3428686225523311 
0 
0 
0.4025204956471791 
-0.01702144246547839 
2.168404344971009e-18 
0.0007654131864525098 
-0.08570574664900438 
0.02119386961649562 
0.03500240102182675 
0.005395033847711451 
0 
0.01255889703777642 
-0.09559939885600377 
0.07227089316670705 
0 
0.0006151493270766251 
-0.01372733773927037 
0.03623280234543282 
0.1716582348173217 
0.01846474183002609 
0 
0.03725093468444086 
0 
-0.001228946290273438 
0.2951425755224218 
0.02939545374034853 
0 
0.06376016986200676 
-0.05653325026223789 
-0.064061093978144 
0.1230158997300899 
-0.0005071655445962974 
0 
0.03306636437512821 
0.03962060018391356 
0.02674686969990694 
-0.03918612825305412 
0 
3.900586722106053e-19 
0.2433483593034844 
-0.003554510016292467 
0.01806063683429621 
0.1123190444642416 
0.04099881720459445 
0.05353920337319477 
-0.5766619200909661 
0.1887007635606819 
0.05059087139029197 
0 
-0.006531934907014407 
0.05771690684659368 
0.03880582857355916 
0 
-0.01155216186941003 
0.09903914080414981 
0.0772391833025734 
0.007473820690661772 
0 
0.07934746999365722 
0.00580104050110414 
0.1141384044311676 
-0.003714264905991232 
-0.04990362413751133 
-0.0995163358209246 
0.06080555843531343 
0.1871828500716055 
-0.1155293328013641 
0.05091785144795839 
-4.946672411965114e-19 
-0.004197726994656211 
0.07864644172870291 
0.0798945170495515 
-0.1216088206513909 
0.1033238939487124 
0 
-0.06914937797069987 
0.1282554388911311 
-0.07432524422981084 
-0.1643747471542417 
-0.01307897771217581 
-0.05334573332733706 
-0.2555840474923052 
-0.4391631690717868 
0.009799623658772388 
0.05794859618396705 
-0.3505161013885573 
0.2431470832136581 
0.02394128881511631 
-0.01728734449267497 
-0.04136014407381124 
-0.01683510696561593 
0.01059637974767511 
-0.3691643444103146 
0.01059637974767511 
-0.07154721605945485 
-0.04597727139293885 
-0.1327223940214509 
-0.1275221953405759 
0.02972225373341057 
0.05006132439863828 
0.06334856894424916 
-0.01167881377704143 
-0.07450668898083632 
0.01167048282409689 
-0.01256431578482767 
0.01476924036556249 
-0.1729471414506378 
0.018476409845311 
-0.1006242327282722 
-0.06915659425360174 
0.001623812925719219 
0.03545826590895629 
-0.02536679781889197 
0.01597802807303064 
0.01758247644862404 
0.01250940351145373 
0.1380193927456456 
0.018476409845311 
0.03302681004365349 
-0.09290910646481604 
-0.1787425938505917 
-0.514108453491783 
-0.02681056949137623 
0.01847640984531099 
0.01748945640545062 
-0.09243818193791772 
-0.04208214956875425 
0.2591972980996751 
-0.0821610023055151 
0.3804980024080142 
0.03600780660925287 
-0.05327281878529119 
0.1977302579747352 
0.2609307249256929 
-0.03547936921549125 
0.04865125975772779 
0.06164689380823995 
0.2371801673066264 
-0.05256114303631079 
0.06325504578900804 
0 
-0.09512557644751965 
-0.02658143115313472 
-0.1602881159411463 
0.004452415798092686 
0.03874391162932576 
-0.0199458443841968 
-0.1149030275203581 
-0.1467203826761824 
0.009503268046036618 
-0.001723005871753751 
-0.2096730890794213 
0.1055292506180063 
-0.1523205993325253 
-0.1587286931783276 
0.1295836189132952 
-0.0342582681423815 
-0.01855615834509195 
0.02086231012174139 
-0.1394173240159295 
-0.03073226191978221 
-0.00573087324684746 
0.09952345098667775 
0.1052989724698094 
0.006185580908575973 
-0.007854816202083892 
0.01585444316582081 
-0.03272902739143475 
-0.07246629607757951 
-0.05806623779511098 
-0.02611536390519793 
0 
-0.1152387202400735 
-0.009818803394364771 
0.02693611229749221 
0.02358801749123971 
-5.922877883675695e-19 
0.3181220608468973 
-0.2054979950630064 
0.2549664637352393 
-0.3215784486574574 
-0.09202934140793498 
0.03704993849239533 
-0.07609746569566267 
0 
-0.03924388542167841 
0.04746449230083872 
0.002993916616290035 
0.03264234251778718 
0 
0.07601189742501235 
-0.01380675912393806 
-0.008578858796968618 
0 
0.1430158561773795 
-0.02229431263590607 
0.02129573746969154 
-0.01900825204818102 
0.06543762871951339 
0.00219770620279113 
0.03539670913700368 
-0.1434583046060863 
0 
0 
0.05694693241755834 
0.01057174704957293 
-0.2597019813743622 
0.06101218899456542 
-0.04045463896885839 
0 
-0.03305870765854492 
-0.05362047635778697 
-0.03890520242848261 
0 
0 
0.09859414706620806 
-0.007179394967621381 
0.01228922090829421 
0 
-0.07564564080608283 
0.02124435623523221 
-0.005612319441775658 
0.02102464166051033 
0.1122326918721169 
0 
-0.3430329511457892 
0.0002839431782117618 
0.04756613124804322 
-1.387778780781446e-17 
0.03535814228037324 
0.08887675312193491 
-0.009189821538576106 
0.01588963496430423 
0 
-0.288359475730411 
-0.004564494465861144 
0.06367424729291524 
0.09121801839331609 
0.05069773176804945 
0.03766844699827952 
0.02662130670899094 
-0.02824511287040067 
-0.04046248752946064 
-1.662963903476607e-19 
0.001556459324443095 
0.09710132184930351 
0.02382729053057812 
0.02652621569473276 
-0.03579873248985835 
0.01356847103573684 
0.01250912662926095 
0.02528844503629864 
0.01812026364551006 
0.003387998630932465 
0.2245472898025539 
0.007293994324685427 
0.02699147504540804 
0.006437585902364884 
-0.01357374309081877 
-0.03920154461116769 
-0.1011795778588235 
0.01466904276088727 
-0.3365370756679285 
0.01426026049085637 
0.1792069554500411 
-0.003855403398715353 
9.634999775017666e-21 
-0.006781643469861541 
0.03119245899971268 
-0.0328574379638275 
-0.01042493396145773 
0.005503957535089895 
-0.0884653744171696 
-0.04002842927306068 
0.08836765336203461 
-0.0009495864513669277 
0.1185918700715491 
-0.08512592790962181 
0.09097767974187362 
-0.05827889269914258 
-0.09889227725669837 
-0.01381783287256433 
-0.07970631116297969 
-0.4294314112599268 
0.0429907073581246 
-0.170341811350315 
-0.1483384764396393 
0.02223864250732497 
-0.1020297143210775 
0.05815028482178669 
-0.2792559238098649 
-1.903062972846961 
-0.6489848379660859 
0.07997006695941956 
0.01566888831027025 
0.04966143780970356 
-0.0252826834647057 
0.003950982793886803 
0.02339906995031326 
0.0208064243657832 
0.009971142576950089 
-0.5464875376629382 
0.02796054289518817 
-0.1220505894619249 
0.00127889912593949 
-0.1436940540817871 
0.1926431484002642 
0.08297072164234451 
0.06610436193310194 
0.03886895204865467 
0.04867116586275289 
0.0002851975251911533 
-0.03003859415794047 
0.01877618170306583 
-0.005786262056542446 
0.02267808387259888 
-0.4795542633259342 
0.008785842345475239 
0 
0.05487443731610501 
-0.04701858038072955 
0 
0 
-0.1008138496538693 
0.01670756623367431 
0.02553741203893333 
-0.2210256196432914 
0.1803675167822177 
0.0001775758882915491 
0 
0.02097550784142329 
0.02296646132122912 
0.06016225533472008 
0.01165538867972181 
0.009778455565641239 
0.03500428093918541 
0.01216779146568822 
0.04611590515672592 
0 
0 
0.01691314147637334 
0.06705513190376698 
0.09132645753015961 
0.009893706377275593 
-0.01153313122790816 
3.832824086325709e-20 
0 
0.07753960520229816 
0.007580874227409413 
-0.2679482198120844 
-0.01033188620203711 
0 
-0.004086324029132462 
0.02811151808096954 
0 
0 
0 
0.1960835205638933 
-0.01872215994678897 
0.09715776192689966 
-0.0002309484468414099 
0 
1.091432687023887 
-0.02365180527814206 
-0.02803219643519686 
0 
0.002656262448051905 
-0.007804139332719284 
0.02160622247419064 
0.01839814884842718 
-0.0007241125761755183 
-0.1181738704447279 
-0.06240370435171388 
-0.2888151511893137 
-0.01708317523277379 
-0.07327286354494381 
-0.1571724976718624 
-0.3434169346418918 
-0.0566058001395106 
0.01240932801576207 
0.006540424268928008 
0.009323189206900446 
0.1711276395157118 
0.1552700416402482 
-0.1898816806193425 
-0.03792901539226673 
0.1176601118837315 
-0.8286636323838136 
0.3343141350217134 
0.02648124371583483 
-0.3057142611868937 
0.06851913101127224 
-0.2478462759370537 
-0.00275287176885844 
-0.0247966259273018 
-0.1704988980945115 
-0.006997618176071761 
-0.3349438492401871 
-0.1362766827923564 
0.02603490317088606 
-0.01422056988637888 
-0.233978235856673 
-0.103934448691404 
0.05669186050380639 
-0.02489523657320609 
-0.09568704162501665 
-0.02947091851904601 
0.1038729654410616 
-0.1564073266692413 
0.1423401378766017 
0.002418174003513014 
0.04879916523965572 
-0.09150882958035191 
-0.1623919659263278 
0.002652831926359841 
-0.09175440953896234 
0.01272862733234597 
-0.004565454374295422 
-0.07607460686481038 
-0.01271032799679792 
-0.04801631622697552 
-0.2657155070612715 
-0.2844761372515607 
0.02619738754185139 
-0.5549978433976028 
-0.1666148531850982 
-0.05626061291239026 
0.2111033305524735 
0.04577795136051654 
0.05482571178244473 
0.01629043325911541 
0.1373805149619456 
0.04370746747316435 
0.06168962775760463 
-0.02608480099721742 
0.06073841197698632 
-0.03072116746469022 
0.01433436677790891 
0.1120466009198301 
0.07902674261934978 
0.02226668216172249 
0.08906672864688996 
0.0684600876821333 
0.08906672864688996 
0.02968887986005376 
0.09527243930005853 
0.01484448446339121 
-0.09444000222563971 
-0.308693950979852 
-0.01041189894779356 
-0.007027641166886431 
0.2864767057850011 
-0.002997504001873649 
0.01373250226810924 
0.2387945663035239 
-0.268131896455131 
0 
-0.1162866815268028 
-0.2541291629242621 
0.01259046506391872 
0 
0.04437633092991524 
0 
0.06949120413937958 
-0.005370367314196108 
0.01725773022613254 
0 
0.02256806213141705 
-0.02067162482411146 
-0.0008272478945663034 
0 
0.06412779488634569 
0.2850228342581844 
0 
0.0141779882744218 
-0.06814204034247145 
0.05522477714091115 
0.007474101822285256 
0.002144482937785052 
0.02472153301526214 
0 
0 
0.106429100461793 
-0.0111520148316744 
0.03910015585540405 
-0.02328595419574141 
0 
0.03132409371834396 
-0.0102493976734018 
0.01393414675717963 
0.01128277636341179 
-0.02161669134426579 
0 
0.002818088645904222 
0 
-0.2580237930086647 
0.03617301592064968 
0 
-2.82234025003093e-21 
0.1304147642260312 
0 
0 
0.05927937900512133 
-0.01644296689400422 
0.1005246445184367 
0.001457130791631293 
0.01595930746824594 
0.3110068495232046 
-0.01848601163116383 
0.1304147642260312 
0 
-0.02936487001034922 
-0.007664334760844865 
0 
-0.001951404023053312 
0 
0.04458595668728542 
-0.3474479583181312 
0.06092090646309056 
-0.6146287557535733 
0.07127812018280173 
0 
-0.08188653184016134 
0.04831687800567038 
-0.02700726236361449 
0.0803108848769946 
-0.07280082306940941 
0 
0.05335983521392135 
0 
0 
-0.09953606555557398 
-0.127015240380682 
-0.1143945479210687 
-0.03643000728709431 
0 
0.03556419146859475 
0.005239232036736235 
-0.04426887222630443 
0.02451206797580802 
0.1244739816110019 
1.504806970356468e-20 
-0.03627365484405758 
0.0005182257994407693 
0.08750288904534113 
0 
0.004373998905874181 
-0.2031632670842456 
-0.1699298137720276 
0 
-0.00810755226633458 
-0.008858246377250275 
-0.1830166928068534 
0 
0 
-0.1105229659863524 
-0.09029345887895485 
0.1454753680376551 
0.08226858231516375 
-0.01753852070851386 
0.002909539068694399 
-0.0004564494465861145 
-2.34204609915814e-19 
0.1216184297230646 
-0.01847192642543029 
0.02020402029816505 
-0.1188625480086072 
-0.008094999577318891 
-0.13874213140814 
-0.4707189267626506 
-0.06914123559596594 
0.03569282009519764 
0 
0.051894627372722 
-0.03948889480253007 
-0.06390286996094124 
-0.001809960119964602 
-0.175771127145096 
-6.96684599116662e-20 
0.06426892460493031 
0 
0.04722135768014388 
-0.2231739907862239 
0.1029666330561859 
-0.00839672770343225 
0.01485067293461355 
-0.4245794196077048 
0.01209391850368471 
0.0006607116561397049 
-0.03973671264186456 
-0.007058968026636971 
0.176905191834758 
-0.9353192200664716 
-0.02065105513578972 
0.01016708114464545 
-0.3295437923587927 
-0.01575752006411325 
-0.01188978027523543 
0.002061858240998354 
0.003646997162342716 
-0.4033584664022825 
-0.001377793571286329 
-0.004192564616304361 
-0.005006929226983171 
-0.05636456096889202 
-0.01119564253572813 
0 
0 
-0.1602131547047245 
0 
-0.268783754153656 
0 
0.07583915784209797 
-0.3700085720380513 
0.007479976937790312 
0.001352654010932452 
-0.08054350356482545 
-0.0009665552218029198 
0.005446024646285055 
-2.090053797349986e-19 
-0.06133980467131889 
0.0009837353646015433 
-0.002069832933755375 
-0.003996305265715859 
-0.01061850766185247 
0.170513551910302 
0.005099962870672398 
-0.05229485737482458 
0.2086613421460149 
0.08815296347105556 
-0.0444989311501317 
0.02057757889047088 
0 
0.06230665928153243 
0 
-0.1075246053370071 
-0.0367061671109073 
-0.004432792234599895 
0.06462289113191193 
1.491969127249645e-18 
-0.03311796220561012 
-0.0167934554068645 
0.02774197751573087 
-0.1885224551116144 
-0.105951681445335 
0.000218335531702132 
0.02846127835111081 
-0.01239064547211931 
0.01812445927031716 
-0.1706496327743437 
-0.1337400130625771 
0.05148264717885609 
0 
-0.3731863117895985 
-0.006939774888229631 
-0.2032929013492256 
-0.04578660084802552 
-0.116620308711927 
-0.03614935606532167 
-0.07326496186325472 
0.02315298235365543 
0.02010463618353804 
-0.005179136495943044 
0.01480187496396923 
-0.2260511880873415 
0.01034921379009751 
-0.02413455535587714 
-0.02039513265466615 
-0.006287404751186519 
0 
-0.004963888136778751 
0.03417115653318677 
0.01287526699957624 
0.1511076879322962 
0.01351306071580367 
-0.006280493748059679 
0.05878486404481238 
-0.0467639380991058 
-0.008436921049946889 
0.002602910364598591 
-0.05230276259232194 
0 
-0.008497036479067677 
0.03200392981364748 
-0.1123039499343109 
-0.4832905180596798 
-0.006584292301696986 
0.04141651696828513 
-0.1259782228074622 
-0.1259782228074622 
-0.2185288385664368 
-0.06543245161432686 
-0.07608048563820077 
0.01905182547919284 
-0.3806338374721701 
-0.1274634709574475 
0 
0.04109423369441251 
-0.01637477777069332 
0.01224110615042064 
0.1956205886572124 
0.02533321976451657 
0.008361950270237463 
-0.05323015619533668 
0.00327626607355475 
0.1850148497948761 
-0.1440437470951477 
0.07410641166000571 
0.008270386091269811 
0.04552322376388938 
0.01598098584505364 
0.05353920337319477 
0 
0 
0 
0 
0.2285068080760326 
0.02742569747248687 
-0.05323015619533667 
0.03424124464637368 
0.08558658782498495 
-0.01391347999783163 
0.1117050039643071 
-0.0007707333128586986 
0.01596001357457614 
-0.06026258976825501 
0.01504354594618167 
-0.01053127646593151 
0.1872464740680935 
0 
-0.02450602251297049 
0.009180838793654267 
0.01186088735739474 
-0.04059266290886147 
0.01699902604770169 
-0.02096028754090223 
-0.00667889556020626 
0.07456697522863377 
0.02701155790053954 
-0.004535071792723988 
-0.1397533738776272 
0.04587558696577537 
0 
0.0976719588173697 
0.009963352334888657 
-0.1141348462063805 
-0.04159221761027145 
0 
0 
0.1118734267771674 
0 
0 
0.03650936214391489 
0 
0 
-0.001041337771949733 
-0.000682714669033954 
0.0166426355888833 
0 
0 
0.1160019850109129 
0.08347663662016128 
0 
0.03377669885306565 
0 
0 
-0.001922730122630996 
0.03402674027498431 
0 
-0.01746677094923381 
0.2151521675881072 
0.001380238955312555 
-0.3576186762602379 
-0.000255147244229685 
-0.2158221373819402 
0.06956720203688109 
0 
0 
0.004831459158602225 
0.4014062398262592 
-0.6164224247580408 
0.1203367030966523 
-0.1059122322918623 
0 
-0.2327554659272036 
-0.09984085698924071 
-0.04779943288229602 
0.03582536976436869 
-0.02059650187556537 
0.05887745739931588 
-0.2639343337398647 
0.0584770406540305 
0.0188872937151025 
-0.2639343337398647 
0.01111633009620198 
-0.02059650187556537 
-0.003745884583580454 
0.09044086970791101 
0.03522168999900263 
-0.08885366123023908 
-0.1104990055497442 
-0.4786263501223251 
0 
-0.1091500656483646 
0 
-0.0493524105599643 
-0.001533017044807142 
0.1054903238373039 
0.04324112725870872 
0.4413444315463859 
0.1903992929153801 
0.006185580908575974 
-0.001436014309944464 
0.09696607305597019 
0 
0.01399801502425697 
0.007885596644943852 
-0.1210909452623787 
-0.04787369528565699 
0.01430684461133098 
0.03053705356438138 
0.00317019850934021 
0.06344380771695098 
0.003957524261944651 
-0.004289295824706672 
0.01288245061362361 
0.01430684461133098 
0.0006340397018680421 
0.03888615799104918 
0.0001174146421904333 
-0.002727574195040918 
-0.01075476217639118 
0.02491305965920737 
0.00317019850934021 
0.009111545486229085 
0.0559913601535766 
0.01272174535666088 
0.007961294199644019 
0.02544349071332175 
0.1205851383726035 
-0.1570320322893013 
-0.2242328466114522 
-0.01123684492751185 
0.1043312034640927 
0.0232243517567836 
0.05575250859001146 
0.07564870827427063 
-0.003162780044421365 
-5.204170427930421e-18 
-0.01627732631473564 
0 
0 
0.0742168293842404 
0.08280609249137862 
0.003095985610369905 
-0.006850915986476357 
0.001031994171461431 
-0.01026967856011402 
0.013809269052292 
0.0002457130259744629 
0.03677759316642492 
0.15281719605266 
-0.02788854026200634 
0 
0.002695835025242406 
0 
0.03051172495712114 
0.009968169352645134 
0.02363817063658468 
0.07815159320474267 
-0.01034918033070385 
-0.07927641123171389 
-0.121548470710325 
-0.09938533381766917 
0.03200926511531529 
-0.0544640840408716 
-0.07253991994329363 
0.002632315120001276 
0.005663971729402316 
-0.009204805302009197 
0.06671558658666568 
0.09027262318987107 
-0.06647008547332645 
0 
-0.06622483541225008 
0.04133916872793903 
0 
0.08211735319506842 
8.673617379884035e-19 
0.1194535332345137 
-0.0001766422934108454 
0.0106191641643913 
0.01557319499809545 
0.01355320593666153 
3.140798168418946e-18 
9.079134403382032e-21 
0.1183032406879107 
0.02531384337744631 
-0.06333247559137642 
-0.003748292298849771 
0.09959535547655136 
-0.06312465104475601 
-0.1360024907132764 
0.04716149244878542 
-0.01938136308256173 
0.08457539572980755 
-0.1333071928034399 
-0.04452148457158761 
0.2371646302165044 
0.10940568170146 
-0.00765274849206806 
0.005452675730520833 
-0.4035180021935887 
-0.2178466435415268 
-0.461599255037059 
-0.224189722533045 
0 
-0.05137492803219754 
0.04136852464744122 
0 
-0.05323015619533667 
-0.07269300452012877 
0.0008981274260478833 
0.01224110615042064 
0.02012076288492533 
-0.009787575909968595 
-0.002345380158316914 
0.03699676856337863 
0.01549713169720733 
3.212372452461934e-19 
-0.08621445729223709 
-0.05323015619533667 
-0.4113454870183241 
0.003124281808482339 
0 
-0.3079429271937552 
-0.09260484694131521 
-0.06558099346951608 
0.2696653940530526 
0.02435317484448676 
-0.09832352966827819 
-0.01718709915574686 
-0.01852115584139064 
0.06277919651571633 
0.01037487175427864 
-0.08043223062110041 
0.009351759049612567 
-0.06415657992921633 
0.09878295243731199 
0.006954220664462092 
0.0002900562209981162 
-0.03284276606850212 
-0.04605570623595048 
0.1259309669006345 
-0.01040240600362571 
0.005996556077584305 
-0.007429754517043944 
-0.2886837720147954 
-0.03901119032719007 
-0.03901119032719007 
-0.09724852168186952 
-0.04038112774423328 
-0.07802238065438014 
-0.01262541865057787 
0.1592858911671942 
0.09732123989631272 
0 
0.03500714637780928 
0.08956003916780476 
-0.6472786475753198 
0.08077462316004244 
0.0110565303234346 
0.0006224565697339637 
0.06376880072195489 
0.00738777742954388 
0.1391378540142373 
0.1079427795144662 
-0.1347463949101811 
0.05397138975723312 
0.2177495841763 
0.1556127307361081 
-0.02121855367214287 
0.2004880966803314 
0 
0.01341456285602393 
-0.001610426341760002 
-0.02187230861505296 
0 
-0.09846070192154273 
-0.01308037201346662 
-0.04884105043400976 
0.1537540885265553 
-0.0530371851426607 
0 
-0.05662896454940872 
-0.04384509446283521 
-0.1099131640861375 
-0.05900973886507924 
0 
0.006891226960050098 
-0.05331825218495914 
-0.01057446421768744 
0.02477040382101913 
0 
0.1319683415847911 
-0.2165526443419701 
-0.09697450608436314 
-0.4083463811070399 
0.004833001476053111 
0.1345947504425519 
-0.2101706383732435 
0.09485116302206768 
-0.06195322736059654 
0.2753497233545985 
-0.02423885899843145 
0 
-0.002099181925858062 
0 
-0.08902578882768987 
0 
0.03198567333463233 
-0.05214666214604506 
-0.1218153643373587 
-0.1091932595041564 
0.1175148413599656 
0.1220727345059907 
0 
-0.01924388448402209 
-0.004198363851716125 
-0.05464473028765523 
0.03497611567723394 
0.003399971847139684 
0.05509292165261901 
-0.02413961107776929 
0.06244281365723709 
0.02472882405477208 
-0.1001728109501363 
1.813213817121351e-18 
-0.01887993380807359 
0.008951888039080846 
0.009152216439767097 
0.007904547392509464 
-0.001041358175661944 
-0.001049590962929031 
0.01808650796032484 
-0.01351683454275667 
-0.007986486075276966 
0.05340232116593287 
-0.001871211901100643 
0 
0.1838061643824718 
0.001466102123962908 
0.02783962966265808 
0.02773491185072916 
-0.1324187598952224 
-0.09285151775160008 
0 
-0.01582953283938048 
-0.004267770212835651 
-0.02206983745545705 
-0.250838230092178 
-0.1324187598952224 
0.07060544164733056 
0 
-0.1409459487079189 
-0.05323015619533667 
0 
-0.0006870222804938634 
0.0190753916743657 
-0.01866806109820685 
0.05422861523820268 
0.08229294213574985 
-0.05064873983620265 
-0.02525864080685902 
-0.06653716622083225 
-0.1653367292040591 
-0.1058900229621453 
0.02634001930765637 
-0.03704726986954337 
0 
-0.01000516374031372 
-0.004145993474690348 
-0.08733260215141948 
0.07578939463791684 
-0.03933199649497054 
0 
-0.005953385325616217 
0.05143714902786303 
0 
0 
-0.09128676463619621 
0.02256563963695295 
0 
-0.02369893828668255 
-0.04992689593418516 
0.0197396088207097 
0 
0 
0.08717439598516775 
-0.03351923034965625 
-0.0839520248081372 
0 
-0.01336255136367602 
-0.009442772223301211 
0 
-0.0003096164496835897 
-0.009307415277595066 
-0.3086086978479534 
-0.07062091164364338 
-0.1297330742509999 
0.0007044143727307104 
-0.02376439992577667 
0.1054325054063504 
-0.07958881601755986 
0.1223950746498034 
0 
0.07137666669416051 
-0.08308570732719166 
2.613096642279517e-19 
-0.06906492156897681 
0.005593015145550522 
0.007271888363789745 
0.06411207898902747 
-0.1076506944153699 
-0.1432600151549814 
-0.01269783458523029 
0.003412304859244215 
-0.0009160315393845659 
-0.1279546369547842 
0.02103048762631327 
0.04625508059468976 
-0.2383501523916413 
0.02515772115000276 
0.0007440422636893466 
-0.1014655709838458 
0 
0.02271882107037211 
-0.0002515867746761131 
0 
-0.03451632330130891 
0 
0.008634881208266491 
0.003171116654885823 
0.1935329035900299 
0.06335776291423596 
-0.0328929904359828 
0.03708233660522982 
-0.05774571317559096 
-0.03390205647123912 
-0.4326437940358115 
0.1555821594573264 
-0.04070936436292803 
0.1073807819614544 
-0.01636935082608314 
0 
0.02377119790412582 
-0.04101898101537288 
-0.1763206181372677 
-0.04310211003484681 
-1.306914397637701e-05 
-3.532845868216907e-05 
0.01209887889093634 
-0.04055834434726237 
-0.002857346111268642 
0.0003465653180585167 
-0.008660184102071379 
0.02654366595530498 
0.02091664266426605 
0.04390735182066651 
0 
-0.02094261516589404 
0.1207659304323739 
0 
0 
0.03675764546540786 
0.01898844668112256 
0 
0 
0.05289548164126236 
-0.01651476253242466 
0.004661656693317326 
0.003241343115734681 
3.925997710523682e-19 
0 
0 
-0.03331881815469471 
0.01680181179016228 
-0.194893206714547 
0 
0 
-0.024162659405093 
-0.03948579360442178 
-0.006994625681203254 
-0.06808331125210118 
0.05305224680420265 
-0.1510851987824824 
0.0633025809946213 
0.008240394738721457 
-0.06269672186556068 
0.02086231012174139 
-0.02939192171160331 
-0.1536040569444785 
-0.04198854303769169 
0.03824271662488028 
-0.1509347814514428 
0 
-0.1153492271456254 
0.02368748617666537 
-0.06946935302003686 
-0.0851793341838584 
0 
0.04925739591075395 
-0.0185868639157222 
-0.09817919959979383 
-0.07501963671431369 
0.03997283947902121 
-0.009880449423177423 
0 
0.02828176929757453 
0 
-0.0007301508922162769 
-0.09817919959979383 
-0.05216349483084466 
0.09319982455765012 
-0.04022619219928094 
0.008960265812099027 
-0.003340732518711716 
-0.07184123337858998 
-0.032411869759472 
1.028158059723528e-05 
-0.05370616825173108 
-0.1455279194678996 
0 
0.008219459422062694 
-0.0004640502393224604 
0.04550834003108294 
0.01894446792829853 
0 
0 
0.04979795264476479 
-0.002935033259099252 
0 
-0.2442169126487337 
0 
-0.02446392845960417 
-0.02331403724187794 
0 
0.04417708071660894 
-8.997078086616771e-20 
-5.116079001415974e-19 
0.03114042275393771 
0.004412089175083836 
-0.05465199396906748 
-0.2282521645004017 
-0.004851136602152014 
0.04662645852371686 
-0.01991459364696124 
-0.004211376083901493 
0 
0.02503831272044103 
-0.03082058306648763 
-0.07455708038100818 
-0.479878749093779 
-0.2450803241196433 
0.07600840523235756 
0.01542351841997094 
0 
0 
-0.02138796377555976 
2.541098841762901e-19 
0.01318352855610204 
0 
0 
-0.008098523965833548 
0 
0 
0.02364134737934011 
3.469446951953614e-18 
-0.007921518583044525 
0 
0.008219459422062694 
0.03000614686671188 
-0.009517064844748195 
0.2013233063047069 
-0.1769000108467531 
0 
0.2782757080284746 
0.07579915333530682 
-0.06738718083101108 
1.4772254600115e-18 
0.01549713169720734 
0 
0.04138065348877098 
0.05558982439132588 
0 
-0.0639102262461905 
0.05109985746473545 
-0.01721786557304721 
0.01263250593661084 
-0.04907396128240839 
0.03847498268106321 
0.02119557185386335 
0.01569760051743822 
-0.001818422358835477 
0 
0.05340698188382716 
0 
0 
0.0007922132209704134 
0.001830382874253499 
0.002122690191282525 
0.0319057100117321 
0.003961066104852066 
-0.02390100436481486 
0.003549644487920345 
0 
0.0578778948791213 
0.0236404835857308 
0.1088190410138805 
0 
0.03206458427303445 
0 
-0.07191987960037893 
-0.03942654961240018 
0.03050127393521031 
0.05632991851819424 
0.01313563828175623 
0.01002708323128391 
0.01722130240302859 
-3.726944967918921e-20 
-0.1467926943126048 
-0.03753844541199988 
-0.0002671973089978997 
-0.01226085735495649 
-0.008567351995548079 
0.09817358072392951 
0 
-0.01089814573232538 
-0.2588768961474601 
-0.1259634690596122 
0.04492940879048776 
-0.1109409324053611 
-0.003155076300222632 
-0.007275571067840542 
-0.02111130556570639 
-0.1282838927840352 
-0.001014131667928703 
-0.001774732193607424 
-0.007098928774429695 
-0.1534505224690248 
-0.003549464387214847 
-0.003148776754595151 
0.1424524951994827 
0.08885656912993228 
-0.005324196580822272 
-0.1952630034770437 
-0.0560481791155271 
0.05010773838411601 
-0.007098928774429695 
-0.03890290790233319 
-0.02879885362378597 
-0.007098928774429695 
-0.01599621768623357 
-0.02475205440903985 
-0.02400460411712015 
-0.3866889840147461 
0.02557497608274239 
-0.04800920823424028 
-0.1406359998114339 
0.0702878927331544 
0.004449803062411551 
0 
-0.04831220111276725 
0 
0 
0 
0.1784412814053149 
-3.396602118489744e-19 
-0.02553731370733508 
0.08922064070265744 
-0.0006817485470612185 
0.009398337658255916 
-0.009834851494553135 
0 
0 
-3.887881227897239e-19 
0.04437600822954104 
0.1034211149889514 
0 
0.0366485974263541 
0.0002496252002797624 
-0.00897670800449912 
0.06556953949854426 
0.04041069725836686 
-0.01580948784005405 
0.06835466791455867 
-0.04094326592008067 
0.07489470752228626 
0.001237116181715194 
0.08994779318450125 
-0.1274727380289414 
0.06351547265668031 
-0.0311349272594304 
0.05853078380130743 
0 
0.1012454670504417 
0.000193499100648119 
0.05085823299346998 
0.06836757829003427 
0.04914730979017188 
0.001662828725835927 
2.191697751020502e-20 
0.06341624359716624 
0.03666484396840826 
0 
0.1391378540142373 
0.001838956028558123 
-0.01065407516803468 
-0.06398033683936068 
-0.03097661368029826 
0.06150094261819661 
0 
0.07489789529570924 
0.006701775765438609 
0.02008061373688752 
0.01180482909715016 
0.005981171811898211 
0.04476437868379464 
-0.07217817186124073 
0.001548991547348688 
-0.01793524510222191 
0.06658864837797433 
0.0006575567537650156 
0.006223003485215247 
0 
0 
0.08899362220753752 
0.01948056354512463 
0.001662828725835927 
0 
0 
0.2287826174077354 
0.04823863695898765 
-0.009877561352649038 
0 
-0.02684585343683178 
-0.000117761587821328 
0.2320571645437925 
0 
-0.03839932295317925 
0 
0.02043975365022796 
-0.02292370006697847 
-0.2334411197981616 
0.02035367489156327 
-3.320369153236857e-19 
-0.02723908136872043 
0 
-0.06025565110363489 
-0.02757484022400048 
-0.1045294948184797 
-0.09910440047946956 
0 
-0.03145527622241059 
-0.003339928198261823 
-0.0874461778373013 
0.046865165896476 
0.02703629198514514 
0.07683719623126686 
-0.09840115532488465 
-0.008657815917327748 
-0.03655740846666047 
-0.05702481316935622 
0 
0.1111471868762356 
0 
-0.01140496263387125 
0.005232528273279234 
4.235164736271502e-22 
0.01454886283737198 
0.01557021137696886 
-0.03724579431008032 
0.02785417592229476 
-0.01516300400820347 
0.1414605385210425 
0.3311547324633053 
0.01782948306290329 
-0.08383687449080358 
0.1069766844240508 
0.07100867326643573 
0.03080201686100913 
0.02337005815942107 
0.01419191637461718 
0 
0.1681273015996249 
0 
0.006185580908575971 
0.2494931890410969 
0.01847009501664962 
0 
9.0801931945661e-18 
0.148182849433821 
0 
-0.02346954153762764 
0 
4.722208680942724e-19 
0 
0.03556419146859475 
0.01262511176038035 
-0.1284543470827549 
0.04423268458728556 
-0.1750978689124561 
0.08770885010137137 
0.02764123980654776 
0.08770885010137137 
0.03399262674414783 
0.6151898209846196 
-0.05670336655607471 
0.08770885010137139 
0.08770885010137139 
-0.2025391760660553 
0 
0 
8.673617379884035e-19 
0 
0.01888453917691298 
0 
0 
0.01388287895534126 
0 
0.01492737094277219 
0 
0 
0 
-0.01067463832922915 
-0.002299185182064542 
-0.1896640313923502 
0.07761165714711832 
-0.001074939287212371 
0.05651476623620715 
0 
1.259597549571248e-18 
0.09830001052270684 
-0.03369453237708196 
0 
-2.202285662861181e-19 
3.252606517456513e-18 
0.06455450801052745 
0.05939199204894632 
0.1681547526822228 
-0.01912421624532469 
-0.05916827515004481 
8.567275040334218e-20 
-0.01067463832922915 
8.326333871509772e-19 
0 
0 
0.04101819393421868 
0 
-0.1131933704841482 
-0.004554711015405411 
-0.01067463832922915 
0 
0.0004277967155834457 
-0.0586279868971696 
-0.04869074660860682 
-0.0784412793746823 
-0.2346423624036992 
-0.2937411279995937 
0 
0 
-0.08861717096537951 
-0.2697146441016651 
-0.0001464599860390841 
0.1151863365468045 
-0.02621307846728795 
0.01532623931789315 
0.02291208500153528 
0 
0 
-0.03376126277460072 
-0.05651393902990198 
0.02517828921898295 
0 
0 
0.1080311123709532 
0 
-0.2355758944496336 
-0.002711039560998872 
-0.001187636267250002 
0.08933627404652397 
0.003898510904572063 
0.000986492946775767 
-0.005419024902471014 
0.02711627570209586 
0.006307398805551903 
0.002844383179290842 
0 
-0.08925368247268602 
-0.0112873668700837 
0.06440106907489021 
-0.01552821303538846 
0 
-0.2069932532334511 
-0.02124492474971431 
-0.2231037526253453 
-0.2063658882963015 
-0.01319187423541047 
-0.009606427945175819 
0 
-0.004974694324138731 
-0.1496911551953414 
0.01075228380993259 
0.01944144332298624 
0.06746089918290459 
0.00781791775001562 
-0.04738642812435954 
-0.0001766422934108454 
0.3349873854878652 
-0.4264782795975156 
0.03824806309266647 
0.3005035313908735 
-4.776392319787398e-18 
0.04928696179975448 
0.2578263887394286 
0 
0.2429855270007799 
0.08518516638770224 
0.009060131822755028 
-0.02798159442996212 
-0.007370145677433619 
-9.008135142546549e-05 
0.1800460198157006 
8.177656096561373e-05 
0.03224994578427582 
0.1936815393389138 
0.05340232116593287 
0.001972979974605691 
-0.05146350389609465 
0 
0 
0.01564092690762518 
0 
0.02385219595968384 
0 
-0.1162446496707604 
-0.4863757238989204 
0 
0.04397116707345439 
-0.02047073473661003 
-0.04557960654846648 
-0.312431448047833 
-0.06815448041915578 
0 
-0.00890950656809349 
-0.05082686999685906 
0 
0.0450663629299378 
0 
0 
-0.07299027097363811 
-0.0668676877364162 
0.2625078263815601 
0.03356962515846536 
0.05828768061852027 
0.01763445144494947 
0 
0.01017474885289579 
0.06027329471762262 
0.02186999452937089 
0.00402849511278091 
0.08418140554963378 
-0.0004983622167919498 
0 
0.02217480589686158 
-0.0006526550528992756 
0 
0 
0.07307514883263461 
-0.09316718921112674 
0 
0.04883541596749933 
0 
0.02102464166051033 
-0.04202144235194641 
0.003646997162342713 
0.004170404750113799 
0 
0.02385219595968384 
-0.08150181832767571 
0.08579054077847828 
-0.01791546399107638 
0.1080620498663348 
0.02947790576197514 
0.0249773183873752 
0.01427335712492617 
0.07572923809160388 
0.001352251618751704 
0.002650241345276431 
-0.06339691495913033 
0.01285730855739689 
-0.02113237110318272 
-0.008699246284530962 
0.09719550341234949 
0.05084023392436681 
-0.2909792899486432 
-0.09115769834252427 
-0.03074571231033562 
-0.146417103489136 
-0.162348311876169 
-0.008231768307079605 
0.2195423819272153 
0.1676630799038042 
-0.0002227350103870249 
-0.1292736330452796 
-0.314733916895036 
-0.005998878333856536 
-0.09104480191253246 
-0.02129132794733248 
-0.03573030395540747 
-0.2831864528960997 
0.0119138658138016 
0.01051235037363384 
0.01703997457625618 
0.002704789103031736 
0.02895227460055268 
0.02729146056170727 
0.02086231012174139 
0.0104311550608707 
0.02086231012174139 
0.02086231012174139 
0.01367147499103912 
0.02171806727898802 
0.1288934224926946 
0.01269780355086898 
0.007542690484604394 
-0.0119044743461216 
0.1474115834658694 
0.09847396726885971 
-0.1229330077181639 
-0.04033647036380747 
-0.08432115463922782 
-0.03828629439531207 
-0.1686423092784556 
0 
0 
-0.2949566371823621 
0.05283243992138629 
0.06168729919847672 
0.01291427124862887 
-1.42809754907075e-18 
0.0144775485975881 
-0.1106897946880162 
-0.002603344429874335 
-0.08903663214294741 
3.469446951953614e-18 
5.971582278142817e-19 
-0.00232265302452093 
-0.009626115322511423 
0.01549713169720733 
-0.103457461189388 
-0.02315660769977826 
0.01549713169720733 
0.05582036222475972 
0.02753702285223816 
-0.02293985692470041 
0.01117609116073018 
0.005707851620972334 
0.06189879890519853 
0.007743300148427941 
0.03355425702260999 
0.02794751354819008 
0.007761338409331803 
0.1132723333695009 
0.1212371641472535 
0.02486084382200836 
-0.05028357744236703 
0.03693891832075408 
0.1643035719469127 
0.01956490772686764 
-0.1933263502974539 
-0.2057121633885237 
-0.2057121633885237 
-0.2057121633885237 
-0.2092690980539131 
0 
0.01706711451552212 
-0.02102027993766934 
0.09934949687442531 
0.03556419146859475 
0 
-0.01312071832827713 
0 
0.005507332492605793 
-0.01684209356106404 
-0.02217240690793679 
0.00048006553664917 
0.07496953790538248 
-0.005496178243950907 
0.01995728754285699 
0.04109523279377479 
0 
0.06507460708815423 
-0.007916476210811657 
0.1203245106694402 
0.01514879462195821 
0.0007850543572264061 
-0.0494772931689624 
0 
0.09977058147994618 
0.002824874322432587 
0.06307398805551903 
0.08829241288258423 
-0.00351989032956709 
0.1233417672382762 
0.1203245106694402 
-0.07333775890274635 
-0.08211307332078993 
0.03741004772412164 
0 
-0.1466755178054927 
0 
5.35483641342328e-19 
0 
-0.1143748051042572 
-6.060520737604519e-19 
-0.005190919608582031 
0 
0 
0.04599797541569857 
0.02311079503216869 
-0.02104183543430595 
0 
-0.02131458448066723 
0.01631274599945937 
0 
0.1023546213716581 
0 
0.1082669866953828 
-0.04091027945981059 
-0.05546514301796576 
-0.1248021109426416 
0.007987439661740299 
0.08622916969189935 
0 
0 
0.002014713796389993 
-0.09961530729265597 
0 
0.003712222791760992 
0 
0 
-0.01759273495520463 
-0.1575440790849316 
0.0612828449176727 
0.09792758830585251 
0 
0.3402501334091494 
0 
0.03036067754560273 
0.001929394098801638 
-0.06144518874045283 
0.02393898514135406 
0 
0 
0.1019728194354731 
0 
-0.04244254091686332 
-0.004291857061255989 
0.02837277787245245 
-0.1204840391572692 
-0.09780913779344065 
0 
0.01508774082625804 
-0.004199904056353865 
0 
-3.951408698941311e-19 
0.008413002556659588 
0.1019728194354731 
-0.02282073779275027 
0.01849441120239175 
-0.002603344429874328 
-0.462435636263259 
0.02160622247419064 
-0.01052844020975373 
-0.1831387102123744 
0.07734806433112489 
0.03806563643685025 
0.001915159210481386 
0.08525993859910466 
0.0005700763884069488 
-0.05995223011802372 
0 
-0.05135258333755614 
-0.109963924314037 
-0.1540579040705725 
-0.01048738165737812 
0.001351256337418753 
-0.02840598300037745 
-0.0001766422934108454 
0 
0.03216272042258153 
0.005897022378816961 
-0.00365606262386102 
-0.08311379801112441 
0 
0 
0.008565362172219159 
0.02574887857680538 
0.1102588271810167 
-3.469446951953614e-18 
0.03014742305447219 
-0.07802931135725583 
0 
0 
0.0260713027781055 
0.07430737508534409 
0 
0 
-0.0002684995402125833 
0.01898844668112256 
0 
0 
0 
0.007538309381224277 
0 
0.02905700524709598 
-0.01029119394249718 
-0.01347173584518922 
-0.004097636971455087 
-0.1124912437435855 
0.04041069725836686 
0.006985635730005598 
0.01833502218803966 
-0.1980901038490525 
0 
0 
0 
0.03216272042258153 
-0.02873812369259324 
0.003763113830695062 
-0.003831854429136742 
-0.01198271559350884 
0 
-0.004343749932483143 
0 
-0.007764106517694229 
-0.04444433607986122 
-0.1032954642018462 
0.03771875639392241 
-0.1333331415727252 
0 
-0.04056074735739478 
0 
0.07900803697453142 
0 
0 
0 
0 
0 
0 
0 
0.08300345172125655 
-0.003479090391809575 
-0.004638789508473028 
0.001546004644174545 
0 
-0.03048847465697402 
-0.009189821538576106 
0.01485067293461355 
0.07453679107808805 
-0.006472135922908947 
0 
-0.0176330747028838 
0.003099426339441466 
0.02803676866185621 
-0.0434490657552451 
-0.1593146265021523 
0.1498970235048675 
-0.0128200783878802 
0.08230627873719887 
0.001435095578729497 
0.02600996807520798 
0.04973767769631834 
0.0982907806698252 
-0.3912742522176468 
0.0285337765367248 
0.2320228172640685 
0 
0 
0.0285337765367248 
0.0285337765367248 
2.059984127722458e-18 
0.008740719690713395 
0.0285337765367248 
0.02368157945248947 
0.04378661389042098 
0.0285337765367248 
0.0163351913692892 
0.1828437068900893 
0.0285337765367248 
0.009606676890326935 
-0.002395604701299717 
0.026876521287778 
0 
0.01128691221811733 
-0.02039513265466615 
-0.08045430218101809 
-0.03414964563941347 
-0.02409747047483199 
0 
0 
0 
0.01182067368967005 
-0.03801656112117522 
0.05934268950167963 
0 
0.03495198770329162 
0.06156166908970941 
-0.0008930180338526409 
0.05594335408898088 
0 
0.09201575468991556 
0.02960374992793846 
0 
-0.003100503829145545 
0.001479736460690729 
0 
0.01093499726468545 
1.734723475976807e-18 
0.06451757509126448 
0.007180328521163125 
0.02846127835111081 
0.00728999088645879 
0.01408033548759307 
0.01376849293991815 
0 
-0.03911043596092677 
0.01113664610199077 
-0.00572247035919857 
0.07766235781638932 
0.002913136998133112 
0 
-0.02134927665845829 
-0.005707763904137248 
0.1065977438887906 
3.197378934408224e-05 
0 
0 
0.04987842463730068 
0.03428803300872161 
-0.01712357127329058 
0 
0.237301915875602 
-0.008704971615380126 
-0.08621445729223705 
0.1685939093510757 
-0.08621445729223705 
0.1272429857998409 
-0.08621445729223705 
-0.06486169111116839 
-0.08621445729223705 
-0.3006071626403783 
0.03292936364157319 
0.08133798619640602 
0.02961373141520704 
0 
0 
-0.005025489054126937 
0.0008555934311668913 
-0.02431532517060387 
-0.1448748046620328 
0 
0.01213368878627542 
0 
-0.01866583626770557 
0.02358709617601861 
0 
0.01163793008316693 
0.003525197532322357 
-0.03616749941068494 
0.007186411186540466 
0.02399671856797528 
-0.1111603858795306 
0.02186999452937089 
-0.08370298485924629 
0 
0.06169333749820557 
-0.09557109208645902 
-0.01634201271959686 
0.04034031659791262 
-0.05869878416200276 
0.001034151550463401 
0.02953918880090299 
-0.1154838695849609 
0.9100556984270179 
0.008148037415714036 
-0.007045895092703335 
0.1024375076074907 
-0.007023244096946595 
0.04485866988004607 
-0.2637596632632007 
-0.2106485171530145 
-0.0775352749636037 
-0.009786069163465803 
0.01919498295192533 
0.07092064831152788 
0.01919498295192533 
0.1761456985067258 
0.1118606050983487 
0 
0 
0 
0.09706743870864201 
-9.328483991304074e-05 
0.02257382443623466 
0.1485115719877734 
-1.812650507124203e-19 
-0.0167349853574342 
0.1485115719877734 
0.0858883679582924 
0 
0.06600668355738588 
-0.07448327796434001 
-0.008549550604525034 
0.2917131688011003 
0.02837805863983723 
0 
0.0203491056159527 
2.298847418848171e-18 
0.1057744500896851 
0.1220984565966963 
0 
0 
-0.02958368084168652 
0 
0.03435534718331696 
0 
0.1860829312118643 
0 
-0.007546088407122506 
0.0002839431782117614 
0 
-0.1142028975745277 
0.03862401808972322 
0 
-0.08279971425754135 
0 
0.1895057598458934 
0.1797393445369439 
0.2821709627861763 
0.06667429192472246 
-0.2439632977612213 
-0.1029977251675567 
0.01980087744525415 
0 
0.01874743594707216 
0.003124578906990675 
0.01874743594707216 
-0.2382093405523916 
-0.1868179852524989 
0.02471682460853941 
0.1867106419225256 
0.1377372635030303 
0.02780641378139996 
0.03707521837519994 
-0.008516563255745024 
-0.06525599148573269 
-0.09897926856171814 
-0.03077627447746126 
0.003684842084019645 
-0.1725852455118074 
0.2327039935973703 
0.2026716454683633 
-0.00803610790828424 
0.07037070834966261 
0.01389856932188457 
-0.01010530824699282 
0.001546395227143993 
0 
0.0391804653931567 
0 
0 
0.008572008252180404 
0.03428803300872161 
0.0114293329068962 
0.02972353854286047 
0.03425859256760571 
-0.1259419547806021 
-0.01894212318661505 
0.03428803300872161 
0.06876437939442012 
0.03808698931419885 
0.07139584542527451 
0.03428803300872161 
0.1570389511674253 
-0.02125530644881846 
0.008529223891230335 
0.04272670129017555 
0.006190748601409917 
-0.0764808913636531 
0.08559202185318956 
-0.01382164955460461 
0.01077431007952678 
-0.0369827158824679 
0.06390478242129752 
3.132462120572393e-05 
0.01587957899674592 
-0.02127388572003481 
0.171245170852266 
0.01781843246979896 
0.1583267781229306 
-0.2141963005564564 
0.1135913748751997 
0 
0 
0.1077442050384955 
0 
0.09236989479693314 
-0.1051393566986813 
0.04913687247347959 
0.01451833216685197 
-0.3610787526704053 
-0.06984907639849011 
0 
-0.006144547677027606 
-0.4109234501665709 
0 
-0.2071508552532198 
0.006665617992819378 
0.04058183148286244 
0 
-0.07316526916703185 
0.003170043247698698 
0.003275243630123605 
0.001072803669018897 
0.1189617608759564 
0.0005657169810901659 
-0.05051296258801521 
-0.06006280930071645 
0.0948418262157897 
0.01780075592120391 
0 
-0.02722196917070131 
0 
0.011100083024527 
0 
0.0480412863856913 
0 
0.001031994171461431 
0.08418140554963378 
0.2615845811675227 
0.5370329848064377 
0 
0.06328598973445163 
0.06328598973445163 
0.06414158316561849 
0.03164299486722581 
0.06328598973445163 
0.1463233179314395 
0.007910748716806453 
0.4141825385340823 
0.6253014025446495 
0.03644206866454074 
0.04147303074437287 
0.4821876982501144 
0.006057910746691256 
0.03644206866454074 
0.1177009744964572 
0.03573280394921249 
0.05752326947578557 
0 
0.1706215695748653 
0.5707196549494855 
-0.004151064049362725 
-0.04387293207819812 
-0.03344079613254523 
0.02385486124983251 
0.02385486124983251 
0.01557442778725896 
0.01192743062491625 
0.005963715312458127 
-0.005914165503349743 
0.001502600880410359 
0.008029690589101975 
-0.09032706676282727 
0.1254935023754443 
-0.04752879985155334 
-0.02137431543279317 
-0.005999963630924918 
-0.08209188710264763 
-0.02376439992577667 
0.05183280668534192 
-0.01771966388374046 
-0.01842829351419164 
0.1037762262767228 
0.0852216242911306 
0.3049834295182733 
0.1948957348278735 
-0.0102424394116495 
-0.2355758944496336 
-0.2355758944496336 
0.1056648798427726 
-0.01570411095170362 
0.02799446983504694 
-0.03140822190340724 
-0.180074823542376 
0.002431329010230367 
-0.007622118664243505 
-0.01528904454597573 
0 
-0.03100086674800036 
-0.01542075958954437 
0 
0.01669166254520758 
0 
0 
0 
0.004405536390195884 
-0.03338747568114592 
-0.03130278628622542 
0 
-0.2076904224812579 
-0.06777660809825356 
-0.3951341536962967 
-2.879912020664621e-19 
-0.1595814789017292 
0.006513233196661796 
0.003092790454287986 
0 
0.0338865618855123 
0.129856343213364 
0.01083894216651264 
-0.01277459035740609 
0 
0 
1.791474683442845e-19 
0 
0 
0.01294898166454821 
-0.03380460767205762 
0 
0.0313301317721235 
0 
0.06834685491399149 
0 
9.889109659193956e-20 
0.01002708323128391 
0.005165705400025208 
0.1460019595866975 
0.006185580908575971 
0.06898675659180958 
-0.242880671283407 
0.1107373647918849 
0.1107373647918849 
0.09557366904200257 
0.01207283619218645 
0.003095985610369905 
0.000960823654250248 
-0.01745405397758648 
0.0007739964025924762 
0.0005159986337235209 
0.001824392039653104 
0.000193499100648119 
0.0001799990553941011 
0.009665280825963112 
0.003095985610369905 
0.01374185384873227 
0.001547992805184952 
0.002063991438908473 
0.001160195814868234 
0.000884566432681227 
0.01925198304141032 
0.02933313711636688 
0.0005159986337235206 
0.003095985610369905 
-0.0008015903238130512 
0.07482009544824328 
0.0006777989497026922 
0.02591295069203841 
0.0904325398016242 
-0.003153201173477051 
0 
0 
0.02274221784941053 
0 
0.5404956429274843 
0.07444211156853947 
0 
0 
0.01199569487763143 
0.2967236579620729 
-0.07918370794548471 
0 
0 
0 
0.2850324477999883 
0.06345771421965637 
0.01259931789735297 
0.02680890689392844 
-0.05716416962981574 
-0.06982760852226909 
0.04470036768379252 
0.01419191637461717 
-0.004199904056353865 
0.2067313449076591 
0 
-0.04181036368315341 
0.02439653725990415 
-0.004668901842418676 
0.01113664610199077 
0 
-0.3717699704535745 
-0.0767986459063585 
0 
0.1004992171510407 
0.0119847602754863 
0.04039447547046103 
0.660912246432984 
0.03381975119949743 
0.009955441748303054 
0.009955441748303054 
0.009955441748303054 
0.03293952750297126 
0.08160631814931123 
0.3501264680131465 
0.03491382516332596 
0 
0 
0 
-6.938893903907228e-18 
-0.02404933228469818 
0.01287650049870408 
0 
-0.2885921028532193 
-0.06296060437584335 
-1.387778780781446e-17 
0.2640404376721009 
0 
0.005503272395625505 
0 
0 
-0.01421678267347093 
0.08382022504266935 
0 
0 
-5.793705359219414e-19 
-0.03602520521583496 
0.04939409485645464 
0.04545433126010738 
-0.007847732434064923 
0.009384656183192374 
0 
0.008341052879205916 
-0.05815923511891656 
-0.007847732434064921 
0.1868812351736311 
0 
0.01019992574134479 
1.654642480741438e-05 
-0.003509487088878049 
0.03667095715240873 
0.05435346762369488 
0.02614157933585534 
0.09468190739688649 
0.1008674883054625 
0.01389010328012649 
-0.2070015780614261 
0.1136447485229641 
-0.1855743289411629 
-0.1481890794781735 
-0.07628281291396913 
0.006549576028671023 
0.1377198961182072 
0.1622432925114767 
0.06340900744209088 
0.03924461799299003 
-0.1259245173420123 
0 
0 
0 
0.02281695375695799 
0 
-0.2517779673730304 
0.05531241251518686 
0 
0 
-0.004269855331691658 
-1.219727444046192e-19 
0 
-0.00405567369935381 
0.01526820833412081 
0 
0.0043119203606259 
0 
0.003012879837992077 
0 
-0.001169116091358921 
0.01542351841997094 
0.02064318544239671 
0 
0.01700078902451119 
0.04286689466385303 
-0.03268402960020115 
-0.01038752960680531 
0 
0.04867116586275289 
0.148357235672705 
0.1373583085521901 
0.004857965842035721 
-0.02729548331787651 
5.479244377551255e-20 
-0.004592560344715142 
0.1188363799767074 
-0.04094326592008067 
-0.01658977082897927 
-0.09551405192398937 
0.01213368878627542 
0.009074637585718545 
0 
0 
0 
-0.0791390896107259 
-6.060520737604519e-19 
-0.001137032105380413 
-0.0288912451007876 
0 
-0.00180633982781537 
0.01549713169720733 
0 
0.004941489877478532 
0 
0 
0 
0 
0 
-0.2030130892199026 
0.06373272368432395 
0 
-0.02503592393875504 
0.09251431998423373 
0.02186999452937089 
-0.007716070339344893 
0 
0.005918945842762918 
0 
0 
0 
0 
0.01569760051743822 
0 
0 
0 
0 
0 
-2.168404344971009e-19 
0 
-0.01277459035740608 
-0.1022706918575041 
0 
0.01093499726468545 
0 
0 
0.02149997953519513 
-0.0545391689141735 
1.852884572118782e-21 
0 
0 
0.006159470280063616 
-0.005862916287905969 
0 
0 
0 
-0.0188739805385466 
0 
0.02113480370333647 
-0.003087303709123029 
0.06732677500630124 
0.003039516386259095 
0.008854356728477881 
-0.008628055634722491 
0 
0 
0.06595681656699814 
0 
-0.001511788650529891 
-0.04220638562362868 
-0.04877679733450846 
-0.01020377137085892 
0.01126435125694582 
0.03114042275393771 
0 
0 
0 
-3.469446951953614e-18 
0 
-0.2781215182933481 
-0.4062476973580313 
-0.01186133636426122 
0.01019992574134479 
0 
0 
-0.00661462889486259 
-0.06723084111315267 
0 
0 
-0.05746163830005949 
0.05562350490784472 
0 
-0.004523368143472202 
0 
0.04294805684652025 
0 
-0.009408964579900866 
0.008438496155646374 
0 
0 
0 
0 
0 
0 
0 
0 
0.05340232116593287 
0.4524494875287577 
0 
0 
0.02025865829607549 
-0.006700552668948936 
0.001073166388875733 
-0.01534348943708209 
0 
-0.01618555395230718 
0 
0 
0 
0.006402398907219786 
-0.01067463832922915 
0.09009555288909683 
0 
0 
0 
0.02846127835111081 
0 
-0.0116722546060467 
0.01149769646108435 
-0.06466878673552773 
0 
0 
-0.03239681288630381 
0 
0 
0 
-0.03073146459319853 
-0.004813057661255712 
0.004102751286019087 
-0.07351814105705251 
-0.35920616689295 
-0.004611561135193847 
-0.1432785955154928 
-0.009626115322511423 
0 
0.002600457145792733 
-0.06160870147859478 
-0.005863450395792284 
-0.06146452383956441 
0.0103821196166003 
0 
-0.002116756575026268 
-0.1104612819807471 
0.01083713162468643 
0.01361252774364533 
-0.04091027945981058 
0 
-0.008253358763946896 
0.00125763853221189 
0 
0 
0 
0 
0 
0 
0 
0.3661209099113395 
0.5304363977296156 
8.957373417214226e-20 
0 
0 
-0.04160066204684354 
-0.2611674922285048 
-0.3069056539666384 
-0.3487207150498052 
-0.1352184306882305 
-0.3119747739424706 
-0.06693865172898449 
-0.04829224838207134 
-0.06602478890217442 
-0.06832359492075034 
0.3207837613948929 
-0.001603180647626102 
0 
0.02217480589686158 
0.07684904809086306 
0 
-0.0430270995790512 
0.05144282606761241 
0 
-0.01460526174864847 
0.05627813368420635 
0.05446267595968744 
0 
0.0041366062018536 
-0.2028871768894113 
0 
-0.0257402780768121 
0 
0 
0 
0 
-0.1969365934276667 
0 
-0.1649323501206937 
-0.02081085848176028 
-0.1008653900111864 
0.0145598201887506 
0.04958688637072384 
-0.004225828793213903 
-0.01678222659699853 
0.03153980170243565 
0.07776637508057165 
0.01799434514898603 
0.03153980170243564 
0.02004505733888805 
0.03153980170243564 
-0.0004007951619065256 
0.01128691221811733 
0.05343761891863104 
-0.003406390528898191 
0 
0.0122685237123887 
-0.05493645632633162 
0 
-0.007116418436393877 
-0.0009940248322054812 
0.08586591928082596 
0.01139715846306547 
0.003092790454287984 
-3.096964213398536e-20 
-0.08040037756735667 
-0.02021047185233315 
0.04948140967954471 
-4.563390003332543e-20 
0.07551170511894137 
0 
0 
-0.003908963021561259 
0 
0 
-0.06512452276982199 
-0.01353569231138073 
0 
-0.1022316695128989 
0 
0 
0.007821092961564798 
0.0004776044622482041 
0.001671617289486007 
0.01380270516567019 
0.001671617289486007 
-0.02452033375993956 
0.001002970373691604 
0.001671617289486007 
0.0008358086447430034 
0.007857198198061978 
0.05401481426304604 
-0.1996503236399677 
0.001671617289486003 
-0.06376245904069282 
0.001082228470230315 
-0.03850340238095747 
-0.003117877948572906 
-0.004199904056353865 
0.003612373595851603 
-0.02134927665845829 
-0.005496178243950907 
-0.1835520491402284 
0.007922132209704133 
0.007293994324685427 
-0.01251223541731747 
0.01188053834769084 
0 
0 
0.0420493463950087 
0.07089379504117993 
1.734723475976807e-18 
0 
0 
0 
0 
0.3311875066058234 
0 
-0.0002852119510568937 
0 
0.02160622247419064 
0 
0 
0 
0 
0 
0.006715360642373422 
2.00323292025642e-19 
0 
0.07211279986904236 
0.2810303341706518 
0 
-0.03806825937899275 
0 
0.08470095437392161 
-0.2233623320978907 
0 
0.003710456326278263 
0.05151397094291652 
0 
0.01016708114464546 
0.003092790454287985 
-0.1029337510052616 
0.5088513386622909 
-0.2039070838880876 
-0.04862162650843035 
0 
-0.01078137418351461 
0 
0 
0.04939409485645464 
0.02148249598792587 
0 
0.02136092846637316 
0.02186999452937089 
0 
-0.01214782269885481 
0.01755999531175804 
0.1627828727049548 
-0.001008651207329393 
0.000720193909265214 
0 
-0.00152073386289895 
3.091670257478196e-20 
0 
0 
-0.09161824816314376 
0 
0 
0.1069603344878981 
0 
0.03865508675328493 
0 
0 
0 
0 
0.1481139370297837 
0.003092790454287985 
0.01141550373770711 
0 
0.006997871377999866 
0.1162682952659488 
0.1095014696900231 
0 
4.112632238894112e-05 
-0.009700077800458666 
-0.00285502508946708 
0.05340232116593287 
0 
0.001424610039164006 
0.00886847034209356 
0.2088123156526631 
-0.05046051444767566 
0.0004277967155834457 
0.1929315266141255 
0.05340232116593287 
0 
0 
-0.1109075175606114 
0.04625508059468976 
0.007424423310229784 
0.01784638327799713 
0 
0.02553842898384332 
0 
0 
-2.168404344971009e-19 
0.01751267156361959 
-0.01586069704831667 
-0.1165867430471377 
0 
0 
0 
0.04159653371280884 
0.005099962870672395 
0.2031775008801071 
0.06408138202734281 
0.005760106333439902 
0 
0.08635487662132668 
0.009403819623871636 
-0.009626115322511423 
0 
-0.01361954068436022 
-0.06722839394726073 
0.01654676302625287 
0 
0 
-6.092019775330538e-19 
0.005281424113846823 
0.1125562673684127 
0 
-0.0001334329791153643 
0 
0 
0 
-1.734723475976807e-18 
0.001038013053783832 
0.09040148360573944 
0 
0.001546395227143993 
0 
0.01423063917555541 
0 
0.08418140554963378 
0.07139564892518642 
0 
0 
0.00292668062259943 
0 
-0.1355220981933271 
0.001617992895762257 
-0.1711959194205813 
0 
0.1728482175286315 
-0.02607354575323571 
0.0422410890272889 
-0.04604737344157656 
-0.2346621464412678 
-0.08565027229056769 
-0.2346621464412678 
-0.1273525688868744 
-0.01984390652849431 
0.002787308984923876 
-0.004960976632123576 
-0.0139249606857314 
0.07066808619620038 
-0.01040970334166129 
0.007367757247888111 
0.005176144519894756 
0.007293994324685427 
0.01422063427693171 
-0.03179217331349559 
0.007293994324685427 
0.007293994324685427 
0.007293994324685427 
0.007293994324685427 
0.001823498581171357 
0.002431329010230367 
-0.0469307139298375 
0.2130405219436287 
-0.3718968308545637 
0.312936384193739 
0.007293994324685427 
0.02905263571922131 
0.007293994324685427 
0.007293994324685427 
-0.01906478811445481 
0.007293994324685425 
0.01457183842433995 
0.007293994324685427 
0.001518683890629151 
0.007293994324685427 
0.00729399432468543 
0.007293994324685427 
0.003646997162342713 
0.007293994324685427 
0.007293994324685427 
-0.09088520527510839 
0 
0 
0 
0.03493826888137819 
0.01044938272241186 
0 
0.00437415671913616 
0.009755342359006193 
0.03050127393521031 
0.05488908145022412 
0 
0 
0 
0.02320739575513489 
0 
0 
0 
0.03601005170912065 
0 
0 
0 
0.0793070681952143 
-0.03332328883288851 
0 
0 
0.03200913022109426 
0 
0 
0 
0.3973399823014812 
0.3973399823014813 
-9.817641254269375e-19 
3.469446951953614e-18 
-0.01441945534379715 
-0.01014552461708794 
-0.03327652111208355 
-0.007209727671898575 
0.01139688031331205 
0 
0.1476163333839279 
-0.01005083905426246 
0.1884283958987703 
-0.0967068824925798 
-0.02010167810852491 
-0.04033759368028962 
0.08457539572980755 
0.02760168617171129 
0.02819177038480393 
0.02512849960188574 
0.0527162527031752 
0.04341011834425536 
0.1054325054063504 
-0.09492499705164961 
0.1054325054063504 
-0.06924199042400678 
0 
0.009801258864251814 
0 
0.0071899008162606 
0.03757598242369112 
-0.07300653515866332 
-0.00182339025245562 
0 
4.586683409382036e-19 
-0.04860443066061697 
0.1490118741507001 
0 
0 
0.001479736460690731 
0.02387599598710876 
0.08824500883610738 
0.07417861783635249 
0.07417861783635249 
0.0009065753288208154 
0.02967144713454101 
0.04945236243848979 
-0.03338054025425628 
-0.0767986459063585 
0.02095692814694494 
-0.04825922336049053 
0.004206799478414633 
0 
-0.392943779686285 
0 
0 
0 
0 
-0.03839932295317925 
0 
-0.03299546964882567 
0.02662130670899094 
0.1339398434536972 
0.04900043126764288 
0 
0 
0 
0 
0.01812026364551006 
-0.01004753696743914 
-0.01194431417322266 
-0.03927579753866595 
9.840405264726834e-19 
-0.001603180647626102 
0 
0 
0 
0.07625948263172119 
0 
0 
0.01722301955476434 
0 
0 
0 
0 
-0.0008677806088433006 
0 
1.027027448545839e-18 
0 
0 
-0.1797300203583111 
0 
0 
-0.1482011789327953 
0.03193128945306015 
0.03035072599743696 
0 
0 
0.03448385409699163 
0.0008223933602303743 
0 
0.04261474636626088 
0.01775624501668906 
0.003499426062555415 
0.05326878831885552 
-0.02430262542908553 
0.09410484401107426 
0.03186621930806691 
0.06373243861613381 
0.05165769343045212 
0.06373243861613381 
0.06373243861613381 
0.06373243861613381 
-0.05933842529452402 
-0.08900772694951303 
-0.1072920699319719 
-0.005675933899214257 
0.0961050050430155 
-0.04194246550832089 
-0.01528904454597573 
0.01830251825606972 
0.01708557826659338 
0 
0 
-0.005184074442894321 
1.042115222918806e-19 
0.006185580908575971 
0 
-0.005912035683243255 
0.03318350811945249 
0.02006286897406866 
-0.02918757162479206 
0.04340132366231547 
-0.1221881827723317 
0.3070174323230946 
0.04929966229414857 
0.159896766147877 
0.311808469812842 
-0.06741592053887903 
0 
-0.005844428271569771 
-0.02401238448254693 
0.08270148310254072 
-0.02655557305509313 
0.06307398805551905 
-0.003558219892835264 
-5.827586677109586e-19 
0.03642553558321812 
0 
0 
0.001457130791631293 
0 
0 
0.01567559312432564 
0.0399319999954864 
0.0008093127677541491 
0 
0.01149544645328526 
0 
0 
0.001662828725835927 
0.004664119787131904 
0 
0.008089964478811284 
0.02997543367182047 
0 
0 
0 
0 
-0.002709512451235511 
0.1381807600442236 
0.06118768859270457 
0 
-0.02859800374240308 
0.09878818971290929 
0 
-0.01725513675881964 
0.2088123156526631 
0.001590193978209404 
-0.06042848373785251 
0 
0.006388049986329736 
0.1129801060875265 
0.0008314168571635477 
0.008644188110811746 
-0.02039513265466615 
0.01413700167627789 
0.01850509801435124 
0.07457865626664403 
0 
-0.004269855331691658 
0 
0 
0.05359925952307824 
0 
0.05429943161581235 
0 
0 
0 
0 
0.05422861523820269 
-0.04271024253925558 
0 
-0.0003004240630000134 
-0.003020754081987511 
0.02846127835111081 
0 
-0.01203875053866215 
-0.0116722546060467 
0 
-0.1221074223555988 
0 
0.02392198520258725 
0 
0 
0.09766994932605357 
-0.1323597860604423 
0 
0.01967630750918252 
0 
0 
0 
-0.007882763386423262 
0.07525336117215599 
-0.171699138348874 
0.006921184903441058 
1.33746502371454e-18 
-0.1675872013466653 
-0.09809293065090463 
-0.1007461687842599 
3.249218385667496e-18 
1.514494909690689e-18 
0.003364611178365596 
0.01607952957345023 
-0.01019756632733308 
-0.06240105547132078 
0 
0.0005698440156656024 
0 
-0.1336260363247992 
0 
0 
0 
0 
0 
0.002129422120655942 
-0.02526819739116101 
-0.002099952028176933 
-0.001049976014088466 
-0.005867367332609877 
-0.0202514916046814 
-0.004199904056353865 
-0.01954339349343595 
-0.01277459035740608 
0.08340029034823687 
-0.001049976014088466 
-0.004199904056353865 
0.1456087494761177 
-0.004199904056353865 
-0.008090651700951232 
-0.004199904056353865 
-0.002099952028176933 
-0.0130722212248633 
-0.004199904056353865 
-0.004199904056353865 
0.01002262624262337 
0.04019783775289347 
0 
0.03233033029299944 
0.02414608988889249 
0 
0.007922132209704133 
0 
-0.01685617171453222 
0 
0.05268003861531274 
0 
1.387778780781446e-17 
-0.001546016936574086 
-0.1038420036309314 
0 
-0.03361419697363037 
0 
0.05359925952307824 
-0.01067463832922915 
0 
-0.07762881923686574 
0.02960374992793846 
0.1207177670927212 
0.01480187496396923 
0.02960374992793846 
0.02960374992793846 
0.02960374992793846 
0.01480187496396924 
-0.0589591837948762 
-0.01169728244694103 
-0.2866875618278413 
-0.0497693622563001 
-0.02488468112815005 
-0.0497693622563001 
-0.0276327702501255 
-0.01658977082897927 
-0.01244234056407503 
-0.01658977082897927 
0.1712086504232424 
0.008862526521348706 
1.051167887542587e-18 
0 
0.006985635730005598 
0.001419613327489214 
0 
0.02908085489140995 
0.03982752533668541 
0.0101999257413448 
0.01019992574134479 
0.01019992574134479 
0.01638550664992076 
0.01019992574134478 
0.1422660543026781 
0.0101999257413448 
-0.004123159399715294 
0.01019992574134479 
0.005099962870672395 
0.01019992574134479 
0.01019992574134479 
0.03866120409245562 
0.08562276042182179 
0 
-1.075731843012961e-19 
0 
0 
0 
0.1929315266141255 
0 
0 
0 
0 
0.01518787825132944 
0.29547389747581 
0 
0 
0 
0 
0.03468442010719804 
-0.03806825937899275 
0.004136606201853603 
0 
-0.12052517953651 
-0.12052517953651 
0 
0.002068303100926801 
0 
0 
0 
0 
0 
-2.168404344971009e-19 
0 
0 
0 
-0.12052517953651 
1.040834085586084e-17 
0 
0.09862250599128744 
0 
-0.1022316695128989 
0 
-0.04449831184214713 
0 
-0.02212845140575302 
0.05677300500280879 
0 
0 
0.1048085541860717 
0 
-0.07546739072572139 
0 
0.01461502976652693 
0.003194024993164867 
0.006861374126170241 
-0.01482441333703283 
-0.2900008192356612 
0 
0 
-0.05662872823790835 
0 
0.1162682952659488 
0.9061724840138105 
0.02095692814694494 
0.02095692814694494 
0.005239232036736235 
-0.01815497507313397 
0.02095692814694494 
-9.808712787833559e-05 
-0.01024313990621498 
0.2088123156526631 
0.1968323241979135 
0.2183155836986997 
-0.1129841677232897 
0.2088123156526631 
0.1171337003845907 
-0.03955733774167196 
0 
0.1253531598066534 
-0.1103287368560932 
-0.0238577429007052 
0 
0 
0.005262348650306613 
-0.03361419697363036 
-0.2699194593156027 
0.06130529910712258 
-0.3137537607117625 
0.02759123832139705 
0.02170366984172106 
0.2234369743226244 
0.2006829464782462 
0.08082139451673373 
0.1019372973010888 
-0.231521223550939 
-0.1058149904251006 
-0.02249986620110299 
-0.03030695744389982 
-0.0213492766584583 
0.01146798636027836 
0 
0.2782757080284747 
0.229509817448726 
0 
0 
-0.01633015710099227 
0.02298921307542503 
0 
0.02895509719517621 
-0.06146452383956441 
0 
0 
0 
0 
-0.002905680420451696 
0 
0 
0 
0.09747954417913228 
0.05015717243517166 
0.05641805374605693 
0.0009119476777818045 
0.005634275334374762 
0.1142492848866211 
0.002158221366711177 
0.0006513911984155744 
0.02880789577671336 
-0.03100086674800036 
-0.01960398643468831 
0.007880441245997577 
-0.02005621872706902 
-0.02657864926350921 
-0.00631100463610359 
-0.03239293413849352 
0.02364134737934011 
0 
0.01552233142942366 
0.02698009183200794 
0 
-0.03758816269111401 
0.01910656177252829 
-0.06095604918509106 
-0.02796161571057025 
-0.08388493101664178 
-0.08388493101664178 
-0.01879152417844506 
0 
-1.600892270310628e-19 
0.0041366062018536 
0.01083713162468644 
0 
0 
0 
0 
0 
0 
-3.112846081159554e-20 
0 
0.009048289400032368 
0 
0 
-0.1990372695514943 
0.01125802071494768 
0.02226456213616109 
0.03977323560666478 
-0.02162394434094958 
0.06307398805551903 
0 
0.01715082849157117 
0 
0 
-0.1080384049428247 
0 
0 
0 
0.06898675659180958 
0.01770140979411321 
0 
2.056316119447056e-05 
0 
-0.0003332050328526722 
0 
0 
0.02227329220398154 
-0.007643710001006717 
0 
-0.08027336924022938 
-0.2221689252097456 
0 
0 
0 
0 
-0.07316526916703185 
-0.04713581080861915 
0 
0.004296499197585174 
0 
-0.002319391275146123 
0 
0 
0 
0 
0.1740751863600336 
-8.673254714964453e-05 
-0.006211285214155385 
-0.04532134810914182 
-0.05625634537382727 
-0.03445334946684606 
-0.1125126907476545 
0 
0.1514942217430492 
-0.0933491309420989 
-0.1064098815575636 
-0.004178212044664766 
0 
0.01637381628541999 
0 
-0.1454074922834248 
0.05281833435514187 
-0.0001766422934108454 
0 
-0.0001766422934108454 
0.3985484609215035 
0 
1.488978042154653e-18 
0.2339409739271248 
-0.05702481316935622 
0.08592384340883791 
0.1756282513382667 
0.1257582228632813 
0.06600668355738588 
0.09714710631132363 
0.2151191361511097 
0.09366682676412075 
-0.09551405192398937 
0 
0 
0.02521621087518745 
0 
0 
0 
0 
0 
-0.1277645559328434 
0 
-0.1010644574522131 
0 
0.005370623996981468 
0.01128691221811733 
-0.1677180581986504 
0 
0.09496688320704896 
0.03114638999619091 
0.03114638999619091 
0.03114638999619091 
0.01557319499809545 
0.02058673661373742 
0.03107032669530279 
0.03143033317440267 
-1.387778780781446e-17 
0 
0 
0 
8.673617379884035e-19 
0 
0 
0 
-0.00617847892700998 
1.672890070827243e-20 
-0.002580057656507793 
4.861969117239684e-19 
0 
0 
-1.734723475976807e-18 
0.0260713027781055 
-0.001993645786569057 
0.09556336509005496 
0.0260713027781055 
0.01446527667455905 
0.07512236754426788 
0.3462313482204298 
0.0689867565918096 
-4.710297280121961e-20 
-3.913292216314868e-19 
8.673617379884035e-19 
0 
0.005397641145716735 
0 
0 
0 
0.1835928978434328 
-0.05388899430092332 
0.003962953395176445 
-0.160697755798973 
-0.006998793656476527 
0.03494642432908385 
-0.00233292888589429 
0.24801186828447 
0 
3.358187850842782e-20 
0.0128507415995395 
-0.02455097145748575 
0.1975296926950466 
1.055403052278858e-18 
5.590417451878382e-19 
0 
0 
-0.005419024902471014 
0.003681437017718026 
0.05494747582258862 
-0.002282247232930572 
0.003092790454287983 
0 
0.31393264673041 
-0.04754321517324398 
-0.02837094872931669 
-0.02837094872931669 
0.0499237446314901 
-0.1388322307100638 
-0.02837094872931669 
-0.01418547436465834 
-0.196885327728114 
-0.1366252063044232 
0 
-0.03183798546997915 
0 
-0.0006012730349925428 
-0.2149588787580786 
0 
0.06032856087349869 
0.04816381180851621 
0 
0.002296903317233471 
-0.05311114611018626 
0.003961066104852066 
-0.007569010447043005 
0 
0.02267205535249603 
0 
0.192188566070926 
-0.03292945720923378 
0 
0.006777141186243858 
-0.01235695785401996 
-0.02471391570803992 
-0.02471391570803992 
-0.119108498258026 
-0.1057982366208295 
-0.1555401539429319 
-0.001001796700165697 
-0.03806825937899275 
-0.02590336912091778 
-0.01903412968949637 
-0.006344722585918587 
-0.01903412968949637 
0 
0.03506992053727283 
0.01038013053783832 
0.01852244750964034 
0.006185580908575971 
-0.0278920455125474 
-0.08188653184016134 
-0.08188653184016134 
-0.004354365146485325 
-0.1032358084986196 
-0.01637730636803227 
-0.008273843049602079 
-0.08188653184016134 
0.1555808744205032 
-0.08188653184016134 
-0.08188653184016134 
-0.08188653184016134 
-0.08188653184016134 
-0.08188653184016134 
0.008721045263979725 
0 
0 
-0.12052517953651 
0.1206066317677103 
0 
0.1808661041501883 
0 
0.03216272042258154 
0.004044982239405642 
-0.1908135589148544 
0.01307474059758499 
0 
0 
-0.03000017457332405 
0.1230897774683854 
0.04102988479286932 
-0.1359034692106672 
0.1899593556004097 
0.09497967780020487 
0 
0 
0 
0 
0.01549713169720733 
0.2782757080284746 
-0.05353011539932674 
-0.06052896844218473 
0.0383208489515301 
0 
0.03708233660522982 
-4.242840972355994e-19 
0.5057388237329636 
-0.1178692599829529 
-0.03073226191978221 
-6.96684599116662e-20 
0.01777160759824713 
0 
0 
0.3573419391841772 
0.05353920337319477 
0.001312574011768581 
0.05353920337319477 
0.01338480084329869 
0.02676960168659739 
0.05353920337319477 
-0.07744231848475339 
0.03073066779144945 
0.0331835081194525 
0.0331835081194525 
0.0331835081194525 
-0.05654982199472254 
0 
0 
-2.251201815565117e-18 
0.2231163480746637 
-0.1104612819807471 
0 
0.005281979681167029 
0 
-1.196010521523072e-18 
0 
-0.01716742824502395 
-0.0009128988931722287 
0.0007220858391094949 
-0.008467026300105073 
0 
0.02607322172619481 
0 
0.06530622213654787 
0 
0.001505245532278025 
0 
4.838675711190191e-20 
0 
0 
0.0006102623384881255 
0 
0 
0.0005015704958897793 
-0.05179509988769455 
0.06803201735221687 
0.1319136331339963 
0 
0 
0 
0.05098640971773655 
0 
0 
0 
-0.01021944663421753 
0.2270272709009674 
0 
0 
0 
0.007922132209704133 
0 
0 
0.04625508059468976 
0.2917131688011002 
0 
0 
0 
0 
0 
0 
0 
0 
1.084202172485504e-19 
0.02610244081506655 
0 
0.044975897835786 
0.2980237483014002 
0.02433442913122033 
-0.02862101767704242 
0 
0 
0.01027562697444484 
0.01235122960459643 
0 
0.006175614802298216 
0 
0.05340232116593288 
0.07761165714711832 
0.003156214975083819 
0.08007776948576227 
0.001140152776813897 
-0.03290677310279011 
0 
0.00777036371904292 
-0.06195322736059654 
0 
0.01605458788156813 
0 
0.007760479112013687 
0 
0 
0 
0 
0 
0.07761165714711832 
0.02217480589686159 
-0.007663708858273484 
0.03799408102300884 
0.02259828358249435 
0.0338974592712008 
0.06779491854240159 
-0.1511927134632834 
0.004671182393377501 
0.02268725932973314 
0.01868472957351 
0 
-0.007292994260258819 
0 
0.06104737789523596 
0.2226702448438214 
0.03762976692946978 
0.276359938599405 
0 
0 
-0.1409459487079189 
-0.01454077002110652 
0 
0 
0 
0 
0.08720727349488114 
0 
0.1182007461181035 
-0.1662656759390355 
0 
-0.004564494465861144 
-0.004564494465861144 
-0.0001141123616465286 
-0.004564494465861144 
-0.004564494465861144 
-0.004564494465861144 
0 
-0.002399062659058443 
0.07986399999097279 
0.07986399999097279 
0.07986399999097279 
0.031578139941315 
0.0399319999954864 
0.04857206101152062 
0.006211407692918888 
-8.832114670542272e-05 
0.03491382516332596 
0 
0 
0 
0 
-0.04136999899667639 
0 
0 
0 
0.1534739330518783 
0.01698580160164807 
0 
-0.01530549698413612 
0.03491382516332596 
0 
0.02257382443623466 
0 
-0.0213492766584583 
0 
0 
0 
-0.1159908074493188 
0.07010978685108474 
0.001721901800008404 
0 
-0.09395122682012133 
0.004808971811918428 
0 
0 
0 
0 
-0.001766986379364961 
0 
0.07005068625447837 
0 
0 
0 
0 
-0.05703455829101071 
-0.06512452276982197 
-0.0248367879320036 
0.02575300099740815 
0 
0.02169144609528109 
0 
0 
-1.226503707624227e-18 
0 
0.02240841858368783 
0.01932754337664246 
0 
0 
0.003092790454287985 
0 
0 
-0.1385708647831811 
0.002987127983965112 
-0.011711081048595 
0.0890597520218757 
0.04983150304512825 
0.009337612619440208 
0 
0.02610244081506655 
0.0498510701881576 
-0.005176081363938176 
0 
-0.02827491099736127 
0.0009813179465330074 
0 
0.09723082375225603 
-0.2217857883500184 
-0.2647195721208846 
0.01541834477986973 
-0.08067730839747937 
0.00413660620185361 
-0.04908959979989692 
0 
-1.518306557953333e-19 
-1.734723475976807e-18 
-6.437450399132683e-19 
0 
-0.2076840072618629 
0.01569760051743822 
0.1127741689818968 
0.01569760051743822 
0.002854106330879582 
0 
-0.003063270782918189 
0 
0.001895231192962819 
0.1196601148491352 
0.06104737789523597 
0.2078049150371807 
0.06104737789523597 
0.02285194422907694 
0.0203491056159527 
0.1386590350423543 
0.06104737789523597 
0.1153529213293697 
0.002027414597528685 
0 
0 
-0.03172010818526241 
-0.003365717861600718 
0 
0 
0.1339398434536972 
0.1339398434536972 
0.03216272042258153 
0.3116175967245988 
0.02144182433596116 
0.01608136021129076 
0.1139500582137161 
0.04321244494838129 
0.04340192935396551 
0.1080311123709532 
-0.09948862301628593 
0.04446004547434936 
0 
0.04625508059468976 
0.04545349027087671 
-0.009189821538576106 
0 
-0.001603180647626102 
-0.0167934554068645 
0 
0.06595681656699814 
-0.001832057582590887 
0 
-0.0001781310049383836 
0 
0 
0.006185580908575971 
0.003813441429778011 
0.02968904807182451 
0.05826631978621631 
-0.002662167349416373 
0 
0 
1.189022499708224e-19 
0 
0.02411931847949382 
0 
0.03751871827071511 
0 
-0.1185114669310765 
0.006222886169703205 
4.112632238894112e-05 
1.466425789934007e-20 
0 
0.002427940731203179 
0 
0 
0 
0 
0.02671880945931552 
0 
0.1460019595866975 
0 
0.006222886169703202 
0.03317179636837924 
0 
-0.05889992578085811 
-0.03533216220051182 
-0.0954067794574272 
0.03650685367656909 
0.0938247015626623 
0.1060676574921273 
0.1060676574921273 
1.075731843012961e-19 
-0.03908616763818101 
0 
-1.541599964002827e-19 
0 
0.01083862937616577 
0 
-2.447845808226123e-18 
0.01082594271687254 
0.004730634060900267 
-0.009626115322511423 
0 
0.01898844668112255 
0 
0 
0.07482009544824328 
0 
0.03083673581482005 
0 
0 
-0.002297455384644027 
-0.003492986190393644 
-0.01832785269113401 
-0.1282950971330352 
-0.003492986190393644 
-0.003492986190393644 
0.02226456213616109 
0.02226456213616109 
0.02226456213616109 
0.01113228106808055 
0.01113228106808055 
0.02226456213616109 
0.02226456213616109 
-0.04550670097573282 
0.001992061291612567 
0.001992061291612569 
0.01404725105333956 
0.005918945842762918 
0 
0.004258702120236484 
-0.1595249553234286 
0 
-0.05323015619533667 
-0.0002488072373229923 
0.24910500002203 
0 
0.1691294998840424 
0 
0.02979395103725442 
0 
0.05037115773197548 
-0.02406132747209366 
0 
0 
0.001962635893066015 
0.001962635893066015 
-0.001409002883050658 
0.002627191284749065 
-0.07351814105705251 
-0.01739697585268733 
-0.01739697585268733 
0 
0 
0.230749449214419 
0 
-0.02039513265466615 
-0.04351139764682487 
0.06230665928153243 
-0.01177415493015079 
0 
0 
-0.006356419801592847 
0.0761197205008019 
0.02642983916278734 
-0.04749876226734539 
0 
0 
0 
0 
6.938893903907228e-18 
0 
0 
0 
0 
-3.011202127489038e-19 
0 
0.03013293925556977 
0.007922132209704134 
0.0008555934311668913 
8.673617379884035e-19 
0 
8.673617379884035e-19 
-4.336808689942018e-19 
0 
0 
0.1784412814053149 
0 
0 
0 
0 
0 
0 
0 
-0.007804139332719284 
-0.003902069666359642 
-0.007804139332719284 
-0.0656960605793382 
-0.2029509511968659 
-0.1151000906073304 
-0.06374303716076568 
-0.4296168233006885 
-0.1481751607884474 
-0.08199257034022139 
0 
0 
0 
0 
0 
0.02669898697500209 
0 
0 
-0.06344021637052483 
-0.1247130474530912 
0 
0 
0 
0 
-0.0502788958033802 
0.0541297135843627 
0 
0 
-0.0502788958033802 
0 
0 
0 
0 
-0.01534348943708209 
0 
0 
0 
-0.003826374246034026 
0 
8.673617379884035e-19 
-0.2818918974158379 
0 
-4.446922973085077e-20 
0.006185580908575971 
0 
0.127226037346812 
-4.446922973085077e-20 
0 
0.07625948263172119 
0 
-3.155197728522269e-19 
0 
0 
0 
0 
0 
0 
0 
0 
-0.2931805461882956 
0 
0 
0 
-0.06656926073066437 
-0.0146045096116042 
-0.1666635861005975 
0 
0 
0 
0.006185580908575971 
-0.04590256142916138 
0.06803201735221688 
0.03705540367191862 
0 
0 
0.03905871351140985 
0 
0 
0 
0.007922132209704133 
0 
0 
0 
0 
0 
0 
0 
0 
-0.125168991459637 
0 
0.01102815128310766 
-0.1605718641521459 
0 
0 
0.03308438768054764 
0.01505245532278025 
0.01042767953176162 
0 
0.06616877536109528 
0 
-0.04177323589349254 
0 
0.03376163891384412 
0.07164305336861063 
0 
-0.02134927665845829 
0 
-0.0003246349979479631 
0.07543751278784482 
0.004258844241311883 
0.004258844241311883 
0.005611067113641498 
0.004258844241311883 
0.004258844241311882 
0.004258844241311883 
0.004258844241311883 
0 
0 
0 
0.009060131822755028 
-9.126780006665086e-20 
0 
0 
0.01879860828420623 
-9.126780006665086e-20 
0.0002839431782117614 
0 
0 
0 
-0.003049893615597376 
0 
0 
0 
0 
0.0001628788052373041 
0.001140152776813895 
0.001140152776813897 
-0.01716742824502395 
-0.01716742824502395 
0.14134812870427 
0 
0.1743930229843657 
0 
-0.2656299720818005 
0 
-0.005496178243950907 
0.01354159952700739 
0 
0 
0 
0 
0 
0.006921573067147632 
0 
0 
0 
0.1189119999926002 
-0.05323015619533667 
0.004530065911377514 
0.04156509538106971 
0.01328131224025953 
-0.08724556181046884 
0 
0 
0.02039456388709462 
0 
-0.002405090696914308 
0.003493308445272804 
-3.451659260061274e-19 
0 
-0.2125974615523802 
0.05343761891863104 
-0.1022316695128989 
0 
0.07761165714711832 
-0.224105516456291 
0.07761165714711832 
0.0776116571471183 
0.07761165714711832 
0.08357172931227015 
0.07761165714711832 
0.05174113063529793 
0 
0.05757422512048464 
0 
0 
-0.001603180647626102 
0 
-0.06245324660486113 
0 
0.02846127835111081 
0 
0 
0.04625508059468976 
0.01110890645905433 
0.04625508059468976 
0.04585428543278323 
0 
0.003764101381571814 
0 
0 
0.3028541469403637 
0.01093642593287122 
0 
0 
0.0002839431782117614 
0.006185580908575971 
-3.049318610115481e-19 
1.398828590276174e-19 
0 
-0.04590256142916138 
0 
0 
0.03672335517461708 
0 
0 
0 
0 
0 
-0.1585183779009611 
-0.1501537816479995 
-0.4313949870161251 
0 
0.01778209573429737 
-0.1143269693677088 
0 
0 
0.02288347937698673 
0.0005526621763205771 
0.006967479960073683 
0.02361011554895699 
-0.05702481316935622 
0 
0 
0 
0 
0 
0 
0 
-0.06671392946764342 
0 
-0.06671392946764342 
0 
0 
0 
0.01002708323128391 
0.00239416723064975 
0 
-0.1022316695128989 
-0.01172690079158457 
0 
0 
0.04745667715934502 
0 
0.01002708323128391 
0.005918945842762918 
0 
0 
-0.0116722546060467 
0 
0 
-0.2600537807902333 
0 
-0.03438656469451686 
0 
-0.1600833118434226 
0.01419191637461717 
0.2452016972034549 
0.2452016972034549 
0 
0 
0 
0 
-0.02313429386107278 
-0.005836127303023348 
0.003612373595851603 
-0.0008015903238130512 
0 
0.01856609284607625 
0.03050127393521031 
0.03050127393521031 
0.05237126846458122 
-0.01743015846138141 
0.03050127393521031 
0 
0.04156509538106973 
0.03906255496364184 
-5.204170427930421e-18 
0.05962319982720701 
0.01083713162468643 
0 
-0.009189821538576106 
0 
-0.1666635861005975 
0 
0 
0 
-0.1798728130961341 
-0.1265096738573483 
-0.1249064932097223 
0.0118832628137031 
-0.005809335152392611 
-0.01597297215055394 
0 
-0.007671744718541045 
0 
0 
0 
0 
0.06589748988128177 
0.1019728194354731 
0 
0.01002708323128391 
0.001002708323128391 
0.1503030225300572 
0.01002708323128391 
-0.00767174471854105 
4.112632238894112e-05 
2.204403245229317e-19 
0.04161195566387151 
0 
0 
0 
-0.1649323501206937 
-0.1649323501206937 
0.005710956794046032 
-0.01136994742025651 
0.0574772322664263 
0.0574772322664263 
0.02873861613321315 
0.02873861613321315 
0 
0 
0 
0 
0 
0 
0 
0.05632369091835478 
0.005902414548575079 
0 
0 
0 
0 
0 
0.06307398805551905 
0.06307398805551903 
0.06307398805551903 
0.07853881636321521 
-5.204170427930421e-18 
0.03970506157123485 
0.1191153038290084 
0.007444706489313022 
0.05955765191450418 
0.1346124355262157 
0.07224244353822513 
0 
-0.2623357415806776 
0.1065944712722746 
0.02541987838356215 
0.05776965184849848 
0 
0 
-0.002536300384160336 
-0.02134927665845829 
0 
0.002959472921381459 
-0.03908616763818101 
0 
0 
-0.007128101646169526 
0 
0.03491382516332596 
0 
-8.724439356719293e-20 
0 
0.02698173346402497 
0.07176602737378913 
-0.001603180647626102 
0.003338487167904782 
0 
0 
0 
-0.02879644955423417 
0.03491382516332596 
0 
0 
0.01139688031331205 
0.03672335517461708 
-0.003479090391809575 
0.007847689869499335 
-0.002319391275146123 
0.0005658918475960674 
-0.006958180783619149 
0.005902414548575079 
0 
0 
0.01083713162468643 
0 
0 
0 
0 
0.0594026917384542 
0 
0.01851650461167258 
0 
0 
0 
0 
0 
0 
0 
0.004136606201853603 
0 
0.1518924721995314 
0 
0 
0.1496354235473256 
0 
0 
0 
0 
0.001140152776813897 
-6.283925677442841e-20 
0 
0 
0.04900566861203974 
0 
0.03114042275393771 
0.007922132209704133 
0.001326143538537254 
0 
0 
0 
0 
0 
0 
0 
0.00317656404224314 
0.001122839167247218 
0 
0 
0.0071465715096944 
0.007112001692652522 
-0.05103311177072133 
0.01321763903077097 
-0.01007268987558357 
0.02610244081506655 
0.03419240529387785 
0.02610244081506655 
0.00290026830140286 
0.02610244081506655 
0 
0 
0 
0 
0 
-0.005419024902471014 
0 
0 
0 
0 
0 
0.0594026917384542 
0.0594026917384542 
0.0297013458692271 
0.0594026917384542 
0.001164756099069262 
0.0594026917384542 
0 
0 
0.1319136331339963 
0.08020736252215664 
0 
0 
0.005764280514896242 
0.004485376710861821 
0 
0 
0 
0.01216682509882614 
0 
0 
-0.2173903255496213 
0 
-0.1140550764741484 
0 
-0.07007710458296822 
0 
-0.01024410779476868 
-0.005597812871136364 
-0.09551405192398937 
-0.03560475217153302 
-0.04775702596199469 
-0.01591904049201554 
-0.01618623780101344 
-0.01591904049201554 
-0.05540977445406273 
0 
0.02205623639743997 
0 
0.02257382443623466 
0.02257382443623466 
0.01128691221811733 
0.02257382443623466 
0.02257382443623466 
0.02257382443623466 
0.02257382443623466 
0.02257382443623466 
0.02257382443623466 
-0.0377309624322709 
0.02257382443623466 
3.469446951953614e-18 
-0.03465945003611261 
0 
0 
0.003461483926392769 
0 
0.07173387530178831 
0.01643891884412538 
0 
3.469446951953614e-18 
0 
-0.001603180647626102 
3.469446951953614e-18 
0 
0 
0 
0 
-0.001832057582590888 
0.2828657218874324 
-0.005496178243950907 
0.01000095345325642 
-0.005496178243950907 
-0.005496178243950907 
-0.002748089121975454 
-0.001832057582590887 
-0.005496178243950907 
-0.007342999891263508 
-0.0679161559778637 
-0.005496178243950907 
-0.001832057582590887 
-0.005496178243950907 
-0.4731976720953479 
-0.01146260890527481 
-0.001910438638415436 
-0.09990811597532408 
-0.1385377759584189 
-0.1725872247988306 
-0.1233812911523211 
-3.469446951953614e-18 
0 
-0.02134927665845829 
-0.02134927665845829 
-0.007116418436393877 
0.02091957116204862 
-0.02134927665845829 
-0.007116418436393877 
-0.02134927665845829 
-0.02134927665845829 
-0.01067463832922915 
-0.01067463832922915 
-0.003504044840542274 
0.0180293940137168 
-0.01280956599507497 
-0.02134927665845829 
-0.02134927665845829 
0.04628558458073269 
-0.02134927665845829 
-0.02134927665845829 
-0.008895539057449841 
0.03606069820341207 
-0.003559318741451442 
-0.02134927665845829 
0.01282187987472848 
-0.01067463832922914 
-0.02134927665845829 
-0.02134927665845829 
-0.003049893615597376 
-0.02134927665845829 
0.4133154289211108 
0 
0 
-0.009189821538576106 
0 
0.01591772536116455 
-0.01130994480559584 
0 
0 
0 
0 
0 
0.01385793531036235 
0.1739439167518839 
0 
0 
-0.03097661368029827 
0 
2.901087844345979e-20 
0 
-0.04727260746494725 
-0.06146452383956441 
-0.06146452383956441 
-0.0409763697145509 
-0.06146452383956441 
1.734723475976807e-18 
0 
0 
1.734723475976807e-18 
0 
0 
0 
-0.001603180647626102 
0 
-0.007663708858273484 
3.469446951953614e-18 
0.04267026202779897 
0 
4.722208680942724e-19 
0 
0 
0 
0 
0 
0 
-0.02301411768463708 
0.0524593640947113 
-0.08758057195313264 
0 
0 
0 
0.03491382516332596 
0 
0 
0 
0 
-0.2212347186650113 
0 
-0.0301312948841275 
0 
0 
0 
0 
0 
-0.05717352858354814 
-0.1143470571670963 
-0.1143470571670963 
-0.02286941143341926 
0 
-3.379873217781472e-18 
0 
0 
-0.05702481316935621 
-0.05702481316935622 
-0.05288820696750262 
-0.05702481316935622 
-0.01140496263387125 
-0.05702481316935622 
-0.05702481316935622 
-0.05702481316935622 
-0.04276860987701715 
-0.05702481316935622 
-0.05702481316935622 
-0.03515481863998532 
-0.05702481316935622 
-0.05702481316935622 
-0.05702481316935622 
-0.009504154536497094 
-0.05702481316935622 
-0.05702481316935622 
-0.05702481316935622 
0.4022816970534823 
0 
0 
0 
0.1146785561309866 
-0.0512445388410915 
0 
0.03050127393521031 
0.023345793747107 
0.08525692407994236 
-0.01011080357229754 
-0.09180512285832276 
-0.09180512285832276 
-0.09180512285832276 
0 
0 
0 
0 
-0.07246336938643189 
0 
0 
-0.05420401176247297 
0 
0 
0.03114042275393771 
0 
0.1501382021244181 
0 
0 
0 
-0.02761975796602367 
0 
0 
0 
-0.008467026300105073 
-0.3363454424323186 
-0.01693405260021015 
0 
0 
0 
0.3002764042488362 
0.03001211868583844 
0 
0 
0 
0 
0 
0.05958790207450885 
0.000472587045297193 
0.05340232116593287 
0.05340232116593287 
0.05340232116593287 
0.05340232116593287 
0.007628895394801675 
0.02286930615382969 
0.01780075592120391 
0.05340232116593287 
0.05340232116593287 
0.2615845811675227 
0.09684646260767348 
0.2615845811675227 
0 
0 
-0.0767986459063585 
0 
0 
0.02148249598792587 
-0.1035901997753891 
-0.04749876226734539 
0.1905631491942406 
0.1905631491942406 
-0.4223292943625474 
-0.4223292943625474 
0.03515921910523011 
-0.06731132484751741 
-0.005358097486920871 
-0.005358097486920871 
-0.01452887826746958 
0.1190971580573297 
-1.567010952420456e-18 
0 
0 
0 
0 
0 
0.01679036912027258 
0.05306346391046004 
0 
0 
0 
0 
0.04787797028270811 
0 
0 
0 
0 
0.005573658702871856 
0 
0 
0 
-0.02661507809766834 
0.006185580908575971 
0 
0 
0 
0 
0 
0.0003498937900632441 
0 
0 
0 
0 
0 
0 
0 
0 
0 
0 
0 
-0.003636936312773284 
0 
0 
0 
-0.05623093006912305 
0 
0 
0.0711283829371895 
1.028158059723528e-05 
0.1183782441891679 
0 
-0.007680684596284507 
0.004590419396827135 
0 
0 
0 
0 
0 
0 
0 
0 
0.01224110615042064 
-0.002406528830627856 
0 
0 
0 
0 
-0.03245856113029411 
0 
0 
-0.001603180647626102 
0 
0 
0.006185580908575971 
0 
0 
0 
0.01836167758730855 
0.1367351565800685 
0 
0 
0 
0.001806192216491614 
0 
0 
0 
0 
0 
0.01755999531175804 
0 
3.125551575368368e-19 
0 
0 
0 
0 
0 
0 
0 
0 
0 
4.071052102740981e-20 
0 
0 
0 
0.002061858240998354 
0 
0 
0 
0 
0 
0 
0 
0 
0 
0 
0 
0 
0 
0 
-0.01569887324020106 
0 
0 
0 
0.00262855129111798 
0 
-0.03105642607077692 
0.007922132209704133 
0.02448224902419645 
0 
0 
0 
-0.001354756225617754 
0 
0 
0 
0 
0 
0 
0.02778894037213381 
0 
0 
0.0260713027781055 
0 
0 
0 
0 
0.02870430879251211 
0.01881023591386659 
0 
0 
0 
0 
-0.1200619224127346 
0 
0 
0 
-0.05324193473239276 
0 
0 
0 
0 
0 
-0.2114265258512213 
0 
0.0002839431782117614 
0 
0.0176594981110305 
0 
0 
0 
0 
0 
0 
0 
0 
0 
0 
0 
0 
0 
-0.1143269693677088 
0 
0 
0.003961066104852066 
0 
0 
0 
0 
0.0020683031009268 
9.465593185566806e-20 
0 
0 
0 
0 
-0.003063270782918189 
0 
0 
0 
0 
0 
0 
0.009487083296610818 
0 
0 
0 
0 
0 
0 
0 
0 
0 
0.02690020323817061 
0 
0.005692255670222163 
0 
0 
0.03672335517461708 
0 
0.02370943726960218 
0 
0 
0 
0 
0.0644248616635784 
0.05823928075500243 
0.002725592755933905 
0 
0.1304147642260312 
0 
0 
0 
0 
0.01093499726468545 
0 
0.004044982239405642 
0 
0 
4.570603411522968e-05 
0 
0 
0 
0 
-0.03407718909374313 
0 
0 
0 
0 
0 
0 
0 
0.07718459318613237 
0.001237116181715194 
0 
0.007903145756534061 
0 
0 
0 
0 
0 
-0.0005628904231289222 
0.003092790454287985 
0 
0 
0 
-0.004813057661255712 
0 
0 
0 
0 
-0.03430337210023208 
0 
0 
0 
0 
0 
0.01083713162468643 
0 
-0.02661507809766834 
0 
0 
0 
0 
0 
0.04853828423222931 
0 
0 
0 
0 
0 
0 
0.01724192704849582 
0 
0 
0 
0.1168809162369981 
0 
0 
0.1540333682615246 
0 
0 
0 
0.001546395227143993 
0 
0 
0 
0 
0 
0 
0 
0.1019728194354731 
0 
-1.771992925655996e-18 
0 
0 
0 
0 
0 
0 
0 
0 
0 
0 
0 
0 
0.0008555934311668905 
0 
0 
0 
-0.01104119198920341 
0 
-0.01026705328814782 
0 
0 
0 
0 
0.02846127835111081 
0 
0 
0.04759982322884503 
0 
0 
0 
0.003547979093654293 
0.01676518378344733 
0 
0.003874282924301831 
0 
0 
0.008891047867148687 
0 
0.02492266371261298 
0.1808650796032484 
0.08418140554963378 
0 
0 
0.04823863695898765 
0 
0 
0.004044982239405642 
0 
0 
0 
0 
0 
-0.02565179118879551 
0 
-0.05447816273744086 
0 
0 
-0.05554962257700033 
0 
0 
0 
0 
0 
0 
0 
-0.01052844020975373 
0.0059932848501505 
0 
0.007922132209704133 
0.01423063917555541 
0 
0 
0 
0 
-0.0767986459063585 
0 
0 
0 
0 
0 
0 
0 
0 
0 
0 
0 
0 
0 
0.001277609997265947 
0 
0 
0 
0 
0 
0 
0 
0 
0 
0 
0 
0 
0 
0 
0 
0.03556419146859475 
0 
0 
-0.005232952513775938 
0 
0 
0 
0 
0.05074998560142764 
0 
0 
0 
-0.2222447352320321 
0 
0 
0 
0 
0 
-0.2261992879788902 
0 
0.03732600366251368 
0 
0.181307727990451 
0 
0 
0 
0 
0.05343761891863104 
0.006222886169703205 
0 
0 
0.01770140979411321 
0 
0.01619771236723322 
0 
0 
-0.01569887324020106 
0.03417115653318677 
0 
0 
0 
0 
0 
0 
0 
0 
0.07176602737378913 
0 
0 
0.006388049986329734 
0 
0 
0 
0 
0 
-0.06722839394726073 
0 
0.0001277595898694947 
-0.01530549698413612 
0.001484379490797949 
0 
-0.0767986459063585 
0 
0 
0 
0 
0.002527913489714161 
0.03491382516332596 
0 
0.276359938599405 
0 
0 
0 
0 
0.1194440595292433 
0 
0 
0 
0 
0 
0 
-9.486769009248164e-20 
0 
0 
0 
0 
0.04741894566758731 
0.1391378540142373 
0 
0 
-0.05491183248056976 
0 
0 
0 
0 
0 
0 
0.0153336786210055 
-0.03191721821607167 
0 
0 
0 
0 
-0.0226627964991643 
0 
0 
-0.1316203527892157 
0 
0 
0.008089964478811284 
0.007922132209704133 
0 
0.09878818971290929 
0 
0 
0 
0 
0 
0 
0 
0 
0.0393454705512537 
0 
0 
-0.06388227796642171 
0 
0 
0 
0.004044982239405642 
0.00134833010979004 
0 
-1.91852962553099e-19 
0 
0 
2.327646539054817e-18 
0.003111443084851603 
0 
0.005418565812343216 
0 
0 
0 
0 
0 
0 
-0.005597812871136362 
0 
0 
0 
0 
0 
0 
0 
0 
0 
0 
0 
0 
0 
-6.070182207159138e-20 
0 
0 
0 
0 
0 
0 
0 
0 
0 
0 
-0.02029311419676916 
0 
0 
0 
0 
0 
0 
0 
0 
0.01123092333748349 
0 
0 
0 
0 
0 
-0.02256982550857545 
0 
0 
-0.2727549056097435 
-0.1138274761418031 
0.08604834738739632 
0 
0 
0 
0.05037115773197548 
0 
0 
0 
0.1304147642260312 
0.02725285052561633 
0.02725285052561633 
0.02725285052561633 
0 
0 
0 
0.07416467321045964 
0.01549713169720733 
0 
0 
0 
0 
0 
0 
0 
-0.12052517953651 
0 
0 
0 
0.00864393231817414 
0 
0 
0 
0.01932754337664246 
0 
4.586683409382036e-19 
0 
-0.0613015142091512 
0 
0 
0.01288501603273272 
-0.08441277124725736 
-0.1638550011052144 
0.03328527117776661 
0 
0 
0 
0 
-0.1513603163435081 
0.0383244793888152 
-0.518336033478964 
0.01898844668112256 
0 
-0.4780471205269275 
0.01263123968264108 
0.0132046141048475 
-0.01389274131143411 
-0.006946370655717055 
0 
0 
0 
0 
0 
-0.2401238448254693 
-3.469446951953614e-18 
0 
0.06850954987914017 
0 
0.03913577277694934 
0.0002839431782117596 
0 
0 
-0.1011795778588235 
-6.500977870176755e-20 
0.1496354235473256 
0.01419191637461717 
0 
0 
-1.771992925655996e-18 
0.06038943410323704 
0 
0.007922132209704133 
0 
0 
0 
-0.01341005675179085 
0.01012052000601632 
-0.2055854964524712 
0.01180482909715016 
0.01180482909715016 
0.02481844335194992 
0 
0 
0 
0.06896770819398326 
0.01683628110992675 
0 
0 
0 
0.02186999452937089 
0.00218699945293709 
0 
0 
0.02148249598792587 
0 
0 
0 
0 
0.007560700457987371 
0 
0 
0 
-3.469446951953614e-18 
0 
0 
0 
0 
0 
-0.4083541673395581 
0 
0.09813374964443604 
0.04051731659215099 
0.0008555934311668913 
0 
0.0008555934311668913 
0 
-0.2071012833084293 
-0.05323015619533667 
0.007922132209704133 
0 
-0.02514961900474609 
-0.01923067316198317 
0 
0 
0.03708699700889338 
0.01854349850444669 
0 
0 
0 
0 
0 
-0.009626115322511423 
0 
0 
0 
0 
0 
0 
0.01528422039528818 
0 
-0.0761146860031995 
0 
-3.469446951953614e-18 
0.01496541096024674 
-0.05323015619533667 
-0.05323015619533667 
-0.05323015619533667 
-0.05323015619533667 
-0.05323015619533667 
-0.05323015619533667 
-0.009171734157777589 
-0.01774336765506016 
0.01617156581103449 
0.3192876206729998 
0.2128585202112068 
-1.187963708524156e-19 
0.07518577070670121 
-0.001354756225617754 
0 
0.03865508675328493 
-0.02029104923417588 
-0.02029104923417588 
0 
0 
0 
0.1467828296145944 
0 
0 
0 
0 
0 
0 
0.01549713169720732 
0 
-0.06158554366197523 
0 
0 
0 
0.04476437868379464 
0.1246133185630649 
0.09983300855265315 
0 
-0.03039705367493996 
0.08142275806876795 
0.1790575147351786 
0.1790575147351786 
0.00836230616477702 
-0.04091027945981059 
0 
0 
0 
0 
0.006388049986329734 
0 
0 
0 
-0.1170665499129619 
0 
0 
0 
0 
0 
0 
0 
0 
0.004943017414949867 
-0.009189821538576106 
0 
-0.008265411005260426 
-0.01530549698413612 
-0.00765274849206806 
0.06896770819398326 
0 
0.03417115653318676 
-0.009223122270387693 
0.2607576323170233 
0.2157193402141095 
0.04787797028270811 
-0.009189821538576106 
-0.009189821538576106 
-0.008525383107099044 
-0.004594910769288053 
-0.2527955002974182 
0.002943867247699311 
-0.009189821538576106 
0 
-0.005419024902471014 
0 
0 
0.01139688031331205 
0 
0 
0 
0 
0 
0 
0.06072075748604304 
0.02709735541628162 
0 
0.007748565848603663 
0.008089964478811284 
0.008089964478811284 
0.008089964478811284 
0.008089964478811284 
0.008089964478811284 
0.05846112221078677 
0.008089964478811284 
-0.2394865973456829 
0 
0 
0 
0 
-0.05111583475644946 
0 
0 
-0.06133980467131889 
-0.07300653515866332 
0 
-0.001603180647626102 
0 
0 
0 
0.01549713169720733 
0 
0 
0 
0 
0 
0 
0 
0 
0 
0 
0 
0 
0 
0 
-1.039732942754654e-18 
-0.03810895168024649 
0 
0 
0 
-0.03839932295317925 
0 
0 
0.006185580908575971 
0.05037115773197548 
0.05037115773197548 
0.05037115773197548 
0.1002512463041695 
0.06455103903725488 
0 
0.1214181697311386 
0.01235122960459643 
0 
0 
2.056316119447229e-05 
0 
0 
0 
0 
-0.07488690643575523 
0.03013379773475194 
0 
0.1295861395329908 
-0.01569887324020106 
0 
-0.2263405150930815 
0.01898844668112256 
0.06898675659180958 
0.06898675659180958 
1.734723475976807e-18 
-0.08022885908610315 
-0.04439327858238108 
-2.168404344971009e-19 
-0.03901507931602143 
-0.05852258971273729 
